<?xml version="1.0"?>
<opencv_storage>
<cascade>
  <stageType>BOOST</stageType>
  <featureType>LBP</featureType>
  <height>28</height>
  <width>36</width>
  <stageParams>
    <boostType>GAB</boostType>
    <minHitRate>9.9900001287460327e-01</minHitRate>
    <maxFalseAlarm>5.0000000745058060e-02</maxFalseAlarm>
    <weightTrimRate>9.4999999999999996e-01</weightTrimRate>
    <maxDepth>1</maxDepth>
    <maxWeakCount>100</maxWeakCount></stageParams>
  <featureParams>
    <maxCatCount>256</maxCatCount>
    <featSize>1</featSize></featureParams>
  <stageNum>12</stageNum>
  <stages>
    <!-- stage 0 -->
    <_>
      <maxWeakCount>5</maxWeakCount>
      <stageThreshold>1.0234208106994629e+00</stageThreshold>
      <weakClassifiers>
        <_>
          <internalNodes>
            0 -1 44 -16466 -1 -1374769492 -1118290 -134348865 1979056126
            -536887380 -269680692</internalNodes>
          <leafValues>
            -6.5333330631256104e-01 9.4793260097503662e-01</leafValues></_>
        <_>
          <internalNodes>
            0 -1 41 1392561412 -1832418381 2015465867 -785628154
            721469674 -1465834240 134517995 860504202</internalNodes>
          <leafValues>
            -8.9338558912277222e-01 8.6668068170547485e-01</leafValues></_>
        <_>
          <internalNodes>
            0 -1 11 235957841 -145362959 -293819650 -8549787 -27918339
            -11206691 -6439173 -44978596</internalNodes>
          <leafValues>
            -7.4000477790832520e-01 9.3852937221527100e-01</leafValues></_>
        <_>
          <internalNodes>
            0 -1 59 1208009169 -184528896 1461257081 -578616832
            136347808 -1994227709 -2130401095 -171752704</internalNodes>
          <leafValues>
            -7.8475189208984375e-01 8.5561579465866089e-01</leafValues></_>
        <_>
          <internalNodes>
            0 -1 29 403777749 -1824911343 84083732 429195281 -1342009215
            677908618 740327963 -1408497663</internalNodes>
          <leafValues>
            -7.8799676895141602e-01 8.5326272249221802e-01</leafValues></_></weakClassifiers></_>
    <!-- stage 1 -->
    <_>
      <maxWeakCount>5</maxWeakCount>
      <stageThreshold>-5.3353595733642578e-01</stageThreshold>
      <weakClassifiers>
        <_>
          <internalNodes>
            0 -1 30 -185075834 -1276117313 -1048822 -1258692870
            -134230025 819983919 -2049 1089729823</internalNodes>
          <leafValues>
            -7.0192307233810425e-01 9.3499624729156494e-01</leafValues></_>
        <_>
          <internalNodes>
            0 -1 62 2130706054 2144731092 -147 -134217733 2013261812
            2008905725 2147479215 1635119575</internalNodes>
          <leafValues>
            -7.9427236318588257e-01 9.0064358711242676e-01</leafValues></_>
        <_>
          <internalNodes>
            0 -1 57 -206313753 1936783349 -135009594 -135004169
            1156761573 1936980991 -1041937466 -201856017</internalNodes>
          <leafValues>
            -7.1350777149200439e-01 9.2646694183349609e-01</leafValues></_>
        <_>
          <internalNodes>
            0 -1 42 1100988814 -653082478 8650827 -1031487339 -268246872
            336691712 1157693509 916449803</internalNodes>
          <leafValues>
            -8.7354165315628052e-01 7.8363251686096191e-01</leafValues></_>
        <_>
          <internalNodes>
            0 -1 15 1127306503 -641695167 -2130018301 -2113912636
            -1039072511 -1811939328 -486375421 -95969103</internalNodes>
          <leafValues>
            -7.8518176078796387e-01 8.3582067489624023e-01</leafValues></_></weakClassifiers></_>
    <!-- stage 2 -->
    <_>
      <maxWeakCount>5</maxWeakCount>
      <stageThreshold>-4.8993232846260071e-01</stageThreshold>
      <weakClassifiers>
        <_>
          <internalNodes>
            0 -1 43 2113928908 -201326594 -5042 -16386 2147479526
            1945632767 -847315026 1943535598</internalNodes>
          <leafValues>
            -8.0952382087707520e-01 9.2697465419769287e-01</leafValues></_>
        <_>
          <internalNodes>
            0 -1 66 1906832206 -1053088 -19 -36779388 1205673981 -524306
            1937768444 -1014124886</internalNodes>
          <leafValues>
            -6.9763171672821045e-01 9.1327899694442749e-01</leafValues></_>
        <_>
          <internalNodes>
            0 -1 32 -662449970 -779911165 16847108 318996481 1629265971
            2424832 -1073704887 1368098955</internalNodes>
          <leafValues>
            -8.2396554946899414e-01 8.5440373420715332e-01</leafValues></_>
        <_>
          <internalNodes>
            0 -1 71 1971448814 -267169789 16793602 -1044279293
            -1073634974 32769 1091567616 1967630859</internalNodes>
          <leafValues>
            -8.3081299066543579e-01 8.0207443237304688e-01</leafValues></_>
        <_>
          <internalNodes>
            0 -1 47 -431911205 -1073643519 2 -922681343 1073856649
            -2147385344 16998446 -929578838</internalNodes>
          <leafValues>
            -7.4286603927612305e-01 8.7157404422760010e-01</leafValues></_></weakClassifiers></_>
    <!-- stage 3 -->
    <_>
      <maxWeakCount>6</maxWeakCount>
      <stageThreshold>4.3262121081352234e-01</stageThreshold>
      <weakClassifiers>
        <_>
          <internalNodes>
            0 -1 9 1430322768 -247070928 -1359696129 796372583
            2002120436 -581568651 -1099628849 712485350</internalNodes>
          <leafValues>
            -5.7943922281265259e-01 9.2255127429962158e-01</leafValues></_>
        <_>
          <internalNodes>
            0 -1 55 1157746898 286261249 -805302128 386203785
            -2122284870 989888514 -2013265496 1059291467</internalNodes>
          <leafValues>
            -8.1548178195953369e-01 8.6424636840820313e-01</leafValues></_>
        <_>
          <internalNodes>
            0 -1 31 402657332 -1660944319 273680925 486866961
            -2147352448 -795869056 536903866 -1962342390</internalNodes>
          <leafValues>
            -6.7773032188415527e-01 8.8129687309265137e-01</leafValues></_>
        <_>
          <internalNodes>
            0 -1 48 -864957199 -528653 787975931 -571861 -536883713
            -545992969 1610542335 -337392477</internalNodes>
          <leafValues>
            -6.5199005603790283e-01 8.9844411611557007e-01</leafValues></_>
        <_>
          <internalNodes>
            0 -1 19 286262480 -788004736 16777365 -1719599103
            -2147186551 -2004844416 1342245085 -1962934256</internalNodes>
          <leafValues>
            -6.7088842391967773e-01 8.8021147251129150e-01</leafValues></_>
        <_>
          <internalNodes>
            0 -1 7 1360360190 1360068608 65660 -1726799871 268436608
            268435585 -2092949334 1779140770</internalNodes>
          <leafValues>
            -7.8330081701278687e-01 7.6925539970397949e-01</leafValues></_></weakClassifiers></_>
    <!-- stage 4 -->
    <_>
      <maxWeakCount>6</maxWeakCount>
      <stageThreshold>5.4210203886032104e-01</stageThreshold>
      <weakClassifiers>
        <_>
          <internalNodes>
            0 -1 67 -403737628 -85266814 -17 -540214900 1996486639 -18
            1945597949 -69224466</internalNodes>
          <leafValues>
            -4.7368422150611877e-01 9.4080996513366699e-01</leafValues></_>
        <_>
          <internalNodes>
            0 -1 54 -1288634565 -231669774 -528401 -786435 -806137877
            -72220814 -1929392133 -218898437</internalNodes>
          <leafValues>
            -5.5714398622512817e-01 9.3431276082992554e-01</leafValues></_>
        <_>
          <internalNodes>
            0 -1 50 -921875761 -808978977 -807411812 1599406023
            -812724658 -3145761 -1898972019 -238816693</internalNodes>
          <leafValues>
            -6.0066437721252441e-01 8.8049632310867310e-01</leafValues></_>
        <_>
          <internalNodes>
            0 -1 39 826294488 286294096 20953 1426685953 -1610579544
            -1466433408 134844809 218890384</internalNodes>
          <leafValues>
            -7.9041343927383423e-01 7.4175709486007690e-01</leafValues></_>
        <_>
          <internalNodes>
            0 -1 23 1342755824 1545609496 83890393 1561329689
            -1197375318 -2147483647 185239786 -1614075768</internalNodes>
          <leafValues>
            -8.0470639467239380e-01 7.3371398448944092e-01</leafValues></_>
        <_>
          <internalNodes>
            0 -1 35 -800599933 -77727949 -465472219 1964504916
            -998770881 -448305625 -162009753 -1005074901</internalNodes>
          <leafValues>
            -6.4930450916290283e-01 8.6276352405548096e-01</leafValues></_></weakClassifiers></_>
    <!-- stage 5 -->
    <_>
      <maxWeakCount>6</maxWeakCount>
      <stageThreshold>5.5782037973403931e-01</stageThreshold>
      <weakClassifiers>
        <_>
          <internalNodes>
            0 -1 49 -931984333 -814232333 -1393096453 -1074541326
            -1069118149 -545784831 -285341453 -848133069</internalNodes>
          <leafValues>
            -5.3153151273727417e-01 9.2360579967498779e-01</leafValues></_>
        <_>
          <internalNodes>
            0 -1 61 -72699911 -1977548848 -8705 995162101 125262823
            -168558594 218062292 -1140885537</internalNodes>
          <leafValues>
            -5.6003361940383911e-01 8.8116252422332764e-01</leafValues></_>
        <_>
          <internalNodes>
            0 -1 0 -1023163253 1074696194 0 -1073741822 -2146418686
            -2147253504 -2147216884 -736643965</internalNodes>
          <leafValues>
            -5.3657329082489014e-01 9.1017067432403564e-01</leafValues></_>
        <_>
          <internalNodes>
            0 -1 8 767498215 -276873357 -33591553 578747975 2101294967
            1870626687 2130147327 -554738385</internalNodes>
          <leafValues>
            -7.0715063810348511e-01 7.8469914197921753e-01</leafValues></_>
        <_>
          <internalNodes>
            0 -1 37 -800619773 1073938441 16979978 -796557309 67143695
            -2138537984 151152779 -805222333</internalNodes>
          <leafValues>
            -7.6997333765029907e-01 7.2586756944656372e-01</leafValues></_>
        <_>
          <internalNodes>
            0 -1 52 -973003796 961806656 -1065287523 1795817537
            -398359893 -1969520584 436282090 -900496879</internalNodes>
          <leafValues>
            -7.1670717000961304e-01 7.8767055273056030e-01</leafValues></_></weakClassifiers></_>
    <!-- stage 6 -->
    <_>
      <maxWeakCount>7</maxWeakCount>
      <stageThreshold>1.0223553180694580e+00</stageThreshold>
      <weakClassifiers>
        <_>
          <internalNodes>
            0 -1 46 -5534036 -1048657 2113851304 -67 -67 939376639 -3
            1442183149</internalNodes>
          <leafValues>
            -6.3428568840026855e-01 8.8643068075180054e-01</leafValues></_>
        <_>
          <internalNodes>
            0 -1 27 822055075 1894249430 1627386110 973007342 -33587313
            -170918001 -16844050 -129125745</internalNodes>
          <leafValues>
            -6.5879988670349121e-01 8.5455316305160522e-01</leafValues></_>
        <_>
          <internalNodes>
            0 -1 18 1376252395 1359020032 65540 1465221385 578930850
            1174413312 536947611 1940111691</internalNodes>
          <leafValues>
            -7.1041756868362427e-01 8.2907474040985107e-01</leafValues></_>
        <_>
          <internalNodes>
            0 -1 16 -719076287 -679280637 135172 -1794006911 22053041
            1090666627 -1073708919 626511987</internalNodes>
          <leafValues>
            -7.3904782533645630e-01 7.8014075756072998e-01</leafValues></_>
        <_>
          <internalNodes>
            0 -1 53 -766024959 42042563 8656935 -2146631655 -1610186683
            -1461682176 -1033370560 -2004095207</internalNodes>
          <leafValues>
            -7.6644021272659302e-01 7.3715412616729736e-01</leafValues></_>
        <_>
          <internalNodes>
            0 -1 40 404755444 339738628 1074809305 -1726939127 8949901
            -2009022452 16875657 -1203240960</internalNodes>
          <leafValues>
            -8.0774384737014771e-01 7.2248941659927368e-01</leafValues></_>
        <_>
          <internalNodes>
            0 -1 70 -536354302 -1073737725 106496 1074987011 8421505
            -2145320832 1073840128 -530324665</internalNodes>
          <leafValues>
            -7.1776199340820313e-01 8.0672222375869751e-01</leafValues></_></weakClassifiers></_>
    <!-- stage 7 -->
    <_>
      <maxWeakCount>6</maxWeakCount>
      <stageThreshold>4.1302362084388733e-01</stageThreshold>
      <weakClassifiers>
        <_>
          <internalNodes>
            0 -1 24 1501626364 -1996425198 1442766719 -1610612804
            -100663306 -1078395032 618603002 2013792392</internalNodes>
          <leafValues>
            -5.5440413951873779e-01 8.9536619186401367e-01</leafValues></_>
        <_>
          <internalNodes>
            0 -1 6 -150125564 -1196232796 2146697213 -1141309658
            -545958444 -524417 -6307 460832667</internalNodes>
          <leafValues>
            -7.2549808025360107e-01 8.1861358880996704e-01</leafValues></_>
        <_>
          <internalNodes>
            0 -1 21 5979445 -1946173839 -1073741851 -218103932
            -570493474 -1342242932 534773741 -1146126336</internalNodes>
          <leafValues>
            -5.9871429204940796e-01 8.7469577789306641e-01</leafValues></_>
        <_>
          <internalNodes>
            0 -1 60 -1684409354 -1853849344 -1073479347 -1861631983
            27787448 -2013265408 1342308749 -350515061</internalNodes>
          <leafValues>
            -6.6988343000411987e-01 7.6498651504516602e-01</leafValues></_>
        <_>
          <internalNodes>
            0 -1 20 16797913 -1920202266 -68389889 460922341 -1107509287
            -1208164353 703769854 -1970797820</internalNodes>
          <leafValues>
            -6.1308962106704712e-01 8.7932068109512329e-01</leafValues></_>
        <_>
          <internalNodes>
            0 -1 28 289446353 822235760 -1996353507 336592900
            -1870075248 -1205698416 1354761754 164364507</internalNodes>
          <leafValues>
            -7.8429937362670898e-01 6.8997287750244141e-01</leafValues></_></weakClassifiers></_>
    <!-- stage 8 -->
    <_>
      <maxWeakCount>8</maxWeakCount>
      <stageThreshold>3.3157923817634583e-01</stageThreshold>
      <weakClassifiers>
        <_>
          <internalNodes>
            0 -1 45 -671109202 -84410642 -1347516914 -1884295217
            -167772182 1962276860 2139057934 -167776265</internalNodes>
          <leafValues>
            -7.1052628755569458e-01 8.6947065591812134e-01</leafValues></_>
        <_>
          <internalNodes>
            0 -1 65 934261614 -145822078 -17 -8925244 1995923375
            -1048594 1946155006 -1273938</internalNodes>
          <leafValues>
            -7.3871278762817383e-01 7.9871690273284912e-01</leafValues></_>
        <_>
          <internalNodes>
            0 -1 26 1356118551 2013265879 1876754197 1039662676
            1064959739 -2089353224 -14817906 -659652600</internalNodes>
          <leafValues>
            -6.1662232875823975e-01 8.6151009798049927e-01</leafValues></_>
        <_>
          <internalNodes>
            0 -1 10 -132233665 1073809425 561297 -502003711 33703964
            -2113928704 134630088 -87490172</internalNodes>
          <leafValues>
            -6.7706161737442017e-01 7.6948577165603638e-01</leafValues></_>
        <_>
          <internalNodes>
            0 -1 34 -245128445 -146151481 1905517601 -1226965184
            -1001916427 -465476058 1679292228 -484989118</internalNodes>
          <leafValues>
            -6.7545646429061890e-01 7.8683578968048096e-01</leafValues></_>
        <_>
          <internalNodes>
            0 -1 5 1347401946 453574656 16941152 -1321139200 -1065254888
            268992512 -2139092837 1896202410</internalNodes>
          <leafValues>
            -7.9769915342330933e-01 6.5768259763717651e-01</leafValues></_>
        <_>
          <internalNodes>
            0 -1 2 1794895655 620752638 2129587946 1123008494 897539431
            1190658037 1073178519 -681050138</internalNodes>
          <leafValues>
            -6.5179467201232910e-01 8.1680101156234741e-01</leafValues></_>
        <_>
          <internalNodes>
            0 -1 69 -746330974 -1065342848 -1047850936 -855572448 164011
            536936520 1208709126 -3309109</internalNodes>
          <leafValues>
            -7.1803861856460571e-01 7.5625169277191162e-01</leafValues></_></weakClassifiers></_>
    <!-- stage 9 -->
    <_>
      <maxWeakCount>6</maxWeakCount>
      <stageThreshold>5.1781910657882690e-01</stageThreshold>
      <weakClassifiers>
        <_>
          <internalNodes>
            0 -1 17 573603669 2121727862 -285753345 544976634 1148286836
            -134086655 -25690242 -395898911</internalNodes>
          <leafValues>
            -5.1578944921493530e-01 8.8665175437927246e-01</leafValues></_>
        <_>
          <internalNodes>
            0 -1 63 -29360205 263781361 -1073741828 1069285369
            1342160377 -1096024065 1828668893 -1078984841</internalNodes>
          <leafValues>
            -5.0361275672912598e-01 8.8238501548767090e-01</leafValues></_>
        <_>
          <internalNodes>
            0 -1 36 -2131423029 -2113929521 -1275330603 -637797538
            -101189659 -67174650 -83887931 -1150633975</internalNodes>
          <leafValues>
            -6.2186801433563232e-01 8.1732261180877686e-01</leafValues></_>
        <_>
          <internalNodes>
            0 -1 3 -1013200434 -536707070 144 -1140834304 83955919
            -1962934264 -1072877396 -190779294</internalNodes>
          <leafValues>
            -7.1566265821456909e-01 7.2950357198715210e-01</leafValues></_>
        <_>
          <internalNodes>
            0 -1 14 1344279577 -1853734911 16781657 -1853636584 32936
            402686209 335677608 -1652029296</internalNodes>
          <leafValues>
            -6.6463017463684082e-01 8.0521321296691895e-01</leafValues></_>
        <_>
          <internalNodes>
            0 -1 1 -417075481 610725614 -1360073048 1759964876
            2002746195 1308098423 1953920598 -1042029084</internalNodes>
          <leafValues>
            -6.7271488904953003e-01 7.5094318389892578e-01</leafValues></_></weakClassifiers></_>
    <!-- stage 10 -->
    <_>
      <maxWeakCount>8</maxWeakCount>
      <stageThreshold>4.6268150210380554e-01</stageThreshold>
      <weakClassifiers>
        <_>
          <internalNodes>
            0 -1 51 -889254663 -537556750 -553711379 -554184718
            1342148281 2146828275 -889222406 -1217215373</internalNodes>
          <leafValues>
            -3.7662336230278015e-01 9.0615385770797729e-01</leafValues></_>
        <_>
          <internalNodes>
            0 -1 12 -790211723 -1639227261 -2143190391 -1073740672
            -1606270702 135434240 -377404797 -301448629</internalNodes>
          <leafValues>
            -5.2387297153472900e-01 8.3548963069915771e-01</leafValues></_>
        <_>
          <internalNodes>
            0 -1 64 1139012311 -135348288 -197 -1100940480 25157398
            -1208090625 -1686111246 -934344704</internalNodes>
          <leafValues>
            -6.3309502601623535e-01 7.7160280942916870e-01</leafValues></_>
        <_>
          <internalNodes>
            0 -1 13 -1827139491 289406984 268457105 -779812591 152050824
            -2004320238 -2013246840 -582483688</internalNodes>
          <leafValues>
            -6.6263824701309204e-01 7.6414060592651367e-01</leafValues></_>
        <_>
          <internalNodes>
            0 -1 73 -268572893 1677721451 -1343230462 -219222018
            1291307527 1087733609 1982316032 -763893961</internalNodes>
          <leafValues>
            -5.8651691675186157e-01 8.2672548294067383e-01</leafValues></_>
        <_>
          <internalNodes>
            0 -1 33 -481441446 -1039073271 69632 2097152417 -2147253853
            1411416449 -1065353087 831112077</internalNodes>
          <leafValues>
            -8.7425541877746582e-01 6.1211192607879639e-01</leafValues></_>
        <_>
          <internalNodes>
            0 -1 68 -238730819 -2130653182 20565 -2058108672 1073770538
            -1472135168 -2147467111 -1018765222</internalNodes>
          <leafValues>
            -6.8842303752899170e-01 8.1309837102890015e-01</leafValues></_>
        <_>
          <internalNodes>
            0 -1 25 352621046 294748176 -2146418487 -1827209199 33628330
            1216350336 406896848 -1163140864</internalNodes>
          <leafValues>
            -7.2509855031967163e-01 7.0058166980743408e-01</leafValues></_></weakClassifiers></_>
    <!-- stage 11 -->
    <_>
      <maxWeakCount>6</maxWeakCount>
      <stageThreshold>5.7569819688796997e-01</stageThreshold>
      <weakClassifiers>
        <_>
          <internalNodes>
            0 -1 58 -5050445 -80674832 -268447745 -168755211 241501877
            1601372019 -1400959239 -67993739</internalNodes>
          <leafValues>
            -4.7572815418243408e-01 8.9735847711563110e-01</leafValues></_>
        <_>
          <internalNodes>
            0 -1 4 2147352318 -286330881 1862266879 250589167 -145933
            -839417989 238779387 253183035</internalNodes>
          <leafValues>
            -5.3940904140472412e-01 8.5957580804824829e-01</leafValues></_>
        <_>
          <internalNodes>
            0 -1 72 1918345734 1073981443 536920192 1208027657
            -1323199936 1073807360 17408000 -1030238013</internalNodes>
          <leafValues>
            -6.5254247188568115e-01 7.6584088802337646e-01</leafValues></_>
        <_>
          <internalNodes>
            0 -1 22 16678912 947911800 -318767233 1979710741 -1459619586
            -335610113 -1660957506 -1474327241</internalNodes>
          <leafValues>
            -6.7120999097824097e-01 7.6395499706268311e-01</leafValues></_>
        <_>
          <internalNodes>
            0 -1 38 -799817529 1397792778 -1693417403 830546193
            554322574 -1476263936 -2080178031 -70221278</internalNodes>
          <leafValues>
            -6.6250705718994141e-01 7.9328387975692749e-01</leafValues></_>
        <_>
          <internalNodes>
            0 -1 56 256826559 1890398207 1877524279 937552971 -279691609
            -730857617 2000424333 1141112765</internalNodes>
          <leafValues>
            -6.1335998773574829e-01 8.4353697299957275e-01</leafValues></_></weakClassifiers></_></stages>
  <features>
    <_>
      <rect>
        0 7 1 4</rect></_>
    <_>
      <rect>
        0 7 1 5</rect></_>
    <_>
      <rect>
        0 9 1 2</rect></_>
    <_>
      <rect>
        0 11 2 3</rect></_>
    <_>
      <rect>
        0 13 3 4</rect></_>
    <_>
      <rect>
        1 4 11 3</rect></_>
    <_>
      <rect>
        2 1 4 6</rect></_>
    <_>
      <rect>
        2 3 10 4</rect></_>
    <_>
      <rect>
        2 4 5 3</rect></_>
    <_>
      <rect>
        2 4 10 4</rect></_>
    <_>
      <rect>
        2 5 5 2</rect></_>
    <_>
      <rect>
        3 0 10 6</rect></_>
    <_>
      <rect>
        3 5 4 3</rect></_>
    <_>
      <rect>
        3 25 3 1</rect></_>
    <_>
      <rect>
        3 25 4 1</rect></_>
    <_>
      <rect>
        4 1 5 6</rect></_>
    <_>
      <rect>
        4 3 4 6</rect></_>
    <_>
      <rect>
        4 4 5 4</rect></_>
    <_>
      <rect>
        6 14 3 3</rect></_>
    <_>
      <rect>
        6 25 5 1</rect></_>
    <_>
      <rect>
        8 0 7 1</rect></_>
    <_>
      <rect>
        8 9 8 3</rect></_>
    <_>
      <rect>
        9 0 9 3</rect></_>
    <_>
      <rect>
        9 8 8 2</rect></_>
    <_>
      <rect>
        10 6 8 3</rect></_>
    <_>
      <rect>
        10 10 7 2</rect></_>
    <_>
      <rect>
        10 10 8 2</rect></_>
    <_>
      <rect>
        11 4 4 4</rect></_>
    <_>
      <rect>
        11 6 7 2</rect></_>
    <_>
      <rect>
        12 6 4 2</rect></_>
    <_>
      <rect>
        12 8 3 5</rect></_>
    <_>
      <rect>
        12 8 4 1</rect></_>
    <_>
      <rect>
        12 14 3 3</rect></_>
    <_>
      <rect>
        12 16 3 4</rect></_>
    <_>
      <rect>
        13 2 2 7</rect></_>
    <_>
      <rect>
        13 3 2 6</rect></_>
    <_>
      <rect>
        13 6 3 3</rect></_>
    <_>
      <rect>
        14 4 2 5</rect></_>
    <_>
      <rect>
        14 6 3 3</rect></_>
    <_>
      <rect>
        14 25 2 1</rect></_>
    <_>
      <rect>
        15 0 4 1</rect></_>
    <_>
      <rect>
        15 7 4 3</rect></_>
    <_>
      <rect>
        15 7 4 4</rect></_>
    <_>
      <rect>
        15 8 4 5</rect></_>
    <_>
      <rect>
        15 10 4 6</rect></_>
    <_>
      <rect>
        15 13 4 3</rect></_>
    <_>
      <rect>
        15 16 4 4</rect></_>
    <_>
      <rect>
        16 0 2 5</rect></_>
    <_>
      <rect>
        16 1 2 5</rect></_>
    <_>
      <rect>
        16 3 2 4</rect></_>
    <_>
      <rect>
        16 4 3 4</rect></_>
    <_>
      <rect>
        16 5 2 3</rect></_>
    <_>
      <rect>
        16 8 6 2</rect></_>
    <_>
      <rect>
        18 3 3 5</rect></_>
    <_>
      <rect>
        18 4 5 4</rect></_>
    <_>
      <rect>
        18 6 5 2</rect></_>
    <_>
      <rect>
        18 15 2 2</rect></_>
    <_>
      <rect>
        19 4 4 4</rect></_>
    <_>
      <rect>
        19 4 5 4</rect></_>
    <_>
      <rect>
        19 5 5 4</rect></_>
    <_>
      <rect>
        21 4 4 3</rect></_>
    <_>
      <rect>
        21 5 4 3</rect></_>
    <_>
      <rect>
        21 6 3 6</rect></_>
    <_>
      <rect>
        21 6 4 2</rect></_>
    <_>
      <rect>
        22 7 4 4</rect></_>
    <_>
      <rect>
        24 2 3 7</rect></_>
    <_>
      <rect>
        24 3 3 7</rect></_>
    <_>
      <rect>
        24 4 3 5</rect></_>
    <_>
      <rect>
        24 6 3 2</rect></_>
    <_>
      <rect>
        25 13 2 4</rect></_>
    <_>
      <rect>
        26 2 1 6</rect></_>
    <_>
      <rect>
        27 9 3 4</rect></_>
    <_>
      <rect>
        33 5 1 4</rect></_>
    <_>
      <rect>
        33 9 1 3</rect></_></features></cascade>
</opencv_storage>
