<?xml version="1.0"?>
<opencv_storage>
<cascade>
  <stageType>BOOST</stageType>
  <featureType>LBP</featureType>
  <height>28</height>
  <width>36</width>
  <stageParams>
    <boostType>GAB</boostType>
    <minHitRate>9.9900001287460327e-01</minHitRate>
    <maxFalseAlarm>5.0000000745058060e-02</maxFalseAlarm>
    <weightTrimRate>9.4999999999999996e-01</weightTrimRate>
    <maxDepth>1</maxDepth>
    <maxWeakCount>100</maxWeakCount></stageParams>
  <featureParams>
    <maxCatCount>256</maxCatCount>
    <featSize>1</featSize></featureParams>
  <stageNum>12</stageNum>
  <stages>
    <!-- stage 0 -->
    <_>
      <maxWeakCount>4</maxWeakCount>
      <stageThreshold>1.6940577328205109e-01</stageThreshold>
      <weakClassifiers>
        <_>
          <internalNodes>
            0 -1 29 -134217750 -133169161 -271581204 -257 -150997003
            1886835376 -134217729 551024639</internalNodes>
          <leafValues>
            -8.0465114116668701e-01 9.5720165967941284e-01</leafValues></_>
        <_>
          <internalNodes>
            0 -1 49 1611842403 32773 1090519176 1610792960 1078059169
            1082130561 -2130442240 -336081941</internalNodes>
          <leafValues>
            -8.2212847471237183e-01 9.6409320831298828e-01</leafValues></_>
        <_>
          <internalNodes>
            0 -1 36 1996748162 1351188483 32768 1501872517 289526662
            42274818 -1572224628 -139476065</internalNodes>
          <leafValues>
            -8.7061649560928345e-01 9.3277299404144287e-01</leafValues></_>
        <_>
          <internalNodes>
            0 -1 39 -788306262 -246815615 -2113929216 -1047052278
            -1073704786 1073760265 1627550219 900584395</internalNodes>
          <leafValues>
            -8.8127261400222778e-01 8.9463496208190918e-01</leafValues></_></weakClassifiers></_>
    <!-- stage 1 -->
    <_>
      <maxWeakCount>4</maxWeakCount>
      <stageThreshold>2.3603770136833191e-01</stageThreshold>
      <weakClassifiers>
        <_>
          <internalNodes>
            0 -1 20 1140915792 1548812272 805269247 2147483644
            -537069571 -537526281 738144255 -1082183804</internalNodes>
          <leafValues>
            -7.8403753042221069e-01 9.5069843530654907e-01</leafValues></_>
        <_>
          <internalNodes>
            0 -1 45 -214892813 -147783694 -528387 -983049 -302297098
            -80478217 -1929392130 -17563649</internalNodes>
          <leafValues>
            -6.8840903043746948e-01 9.7002708911895752e-01</leafValues></_>
        <_>
          <internalNodes>
            0 -1 27 4152 285212688 -2147417831 890306560 -2145351480
            -1727528959 2218 134217728</internalNodes>
          <leafValues>
            -8.2617413997650146e-01 8.9859098196029663e-01</leafValues></_>
        <_>
          <internalNodes>
            0 -1 57 -698883966 1426227345 16401 1895931920 -805272949
            -1073708926 -2012642929 1879278123</internalNodes>
          <leafValues>
            -8.5851371288299561e-01 8.5676753520965576e-01</leafValues></_></weakClassifiers></_>
    <!-- stage 2 -->
    <_>
      <maxWeakCount>5</maxWeakCount>
      <stageThreshold>8.9714652299880981e-01</stageThreshold>
      <weakClassifiers>
        <_>
          <internalNodes>
            0 -1 31 -1065144 1392640254 -1 -65 -5 -1 1191182335
            1364956091</internalNodes>
          <leafValues>
            -7.8846156597137451e-01 9.4435352087020874e-01</leafValues></_>
        <_>
          <internalNodes>
            0 -1 16 36880 294912001 4373 956370971 -2109685607
            -125722488 -1585444181 -1920915445</internalNodes>
          <leafValues>
            -7.6904815435409546e-01 9.1773605346679688e-01</leafValues></_>
        <_>
          <internalNodes>
            0 -1 17 -804064306 -805075738 65568 1359315233 166048
            273678337 307839371 386120207</internalNodes>
          <leafValues>
            -8.9447134733200073e-01 8.1884396076202393e-01</leafValues></_>
        <_>
          <internalNodes>
            0 -1 34 -774130558 352419846 134320131 1363742737
            -2130411478 -2012663679 268599426 1897904810</internalNodes>
          <leafValues>
            -9.2278087139129639e-01 8.0735391378402710e-01</leafValues></_>
        <_>
          <internalNodes>
            0 -1 14 1263628565 -804224896 -1861222381 436338755 50332417
            1296044226 -1073700693 -366802421</internalNodes>
          <leafValues>
            -8.3726149797439575e-01 8.7180888652801514e-01</leafValues></_></weakClassifiers></_>
    <!-- stage 3 -->
    <_>
      <maxWeakCount>6</maxWeakCount>
      <stageThreshold>5.1673275232315063e-01</stageThreshold>
      <weakClassifiers>
        <_>
          <internalNodes>
            0 -1 51 -85790736 -147783696 -1 -524299 -1884606483 -851969
            -1895886866 -278529</internalNodes>
          <leafValues>
            -5.3667956590652466e-01 9.6413320302963257e-01</leafValues></_>
        <_>
          <internalNodes>
            0 -1 41 -923562781 -814232325 -1393096453 -864542 -537424641
            -545783817 -285243150 -537737549</internalNodes>
          <leafValues>
            -6.3004410266876221e-01 9.2238646745681763e-01</leafValues></_>
        <_>
          <internalNodes>
            0 -1 53 385878508 2063597568 285278545 -1622142887 8388744
            503320608 -2130704247 -1426059132</internalNodes>
          <leafValues>
            -7.3773306608200073e-01 8.5300397872924805e-01</leafValues></_>
        <_>
          <internalNodes>
            0 -1 10 -720230589 -901758719 269484033 1073758593
            -2147401129 -939360128 -520060742 -113399607</internalNodes>
          <leafValues>
            -7.2669208049774170e-01 8.5780274868011475e-01</leafValues></_>
        <_>
          <internalNodes>
            0 -1 37 -150232753 -779419637 557907978 1095831817
            -2147434341 1619001344 -1995859442 -141852021</internalNodes>
          <leafValues>
            -7.6153731346130371e-01 8.3266043663024902e-01</leafValues></_>
        <_>
          <internalNodes>
            0 -1 67 -670084798 1342374017 65539 1361281152 -670416501
            -2147352576 -2143256440 -1073299281</internalNodes>
          <leafValues>
            -7.3802220821380615e-01 8.6496621370315552e-01</leafValues></_></weakClassifiers></_>
    <!-- stage 4 -->
    <_>
      <maxWeakCount>6</maxWeakCount>
      <stageThreshold>3.0877906084060669e-01</stageThreshold>
      <weakClassifiers>
        <_>
          <internalNodes>
            0 -1 61 -135334994 -68227454 -1 -3343732 1996486655 -18
            1945534335 -170918033</internalNodes>
          <leafValues>
            -5.7264959812164307e-01 9.3979930877685547e-01</leafValues></_>
        <_>
          <internalNodes>
            0 -1 54 -787372029 69779 -2146435055 -654082039 537109700
            -1069514752 -2147409529 -993932283</internalNodes>
          <leafValues>
            -6.8721055984497070e-01 8.8158184289932251e-01</leafValues></_>
        <_>
          <internalNodes>
            0 -1 5 1410424149 286605577 25166024 -1290567659 184594633
            168853632 134252192 1781241882</internalNodes>
          <leafValues>
            -7.2324699163436890e-01 8.3721077442169189e-01</leafValues></_>
        <_>
          <internalNodes>
            0 -1 12 -788430680 285745409 419447042 -1861835768
            1108443138 -863944680 1076871200 -1148475654</internalNodes>
          <leafValues>
            -8.0792671442031860e-01 7.9272341728210449e-01</leafValues></_>
        <_>
          <internalNodes>
            0 -1 26 -801795965 -2063204207 -1876942817 -251035455
            -2145875830 -654245888 -2113117302 -183971198</internalNodes>
          <leafValues>
            -7.8535962104797363e-01 7.9311108589172363e-01</leafValues></_>
        <_>
          <internalNodes>
            0 -1 21 1090794652 -720039919 285217685 1495072785 276889768
            -1468004222 -1879045496 -1466431352</internalNodes>
          <leafValues>
            -7.6620489358901978e-01 8.1572443246841431e-01</leafValues></_></weakClassifiers></_>
    <!-- stage 5 -->
    <_>
      <maxWeakCount>6</maxWeakCount>
      <stageThreshold>3.0146536231040955e-01</stageThreshold>
      <weakClassifiers>
        <_>
          <internalNodes>
            0 -1 30 -3098 -251924234 -1090781268 1398800383 -1001481
            299135861 -16777233 1971189759</internalNodes>
          <leafValues>
            -7.1282052993774414e-01 9.1417002677917480e-01</leafValues></_>
        <_>
          <internalNodes>
            0 -1 24 -1626574613 -301924361 -268634625 -540475393
            -11733007 -15927297 1619816669 -548621843</internalNodes>
          <leafValues>
            -7.0883494615554810e-01 8.9366769790649414e-01</leafValues></_>
        <_>
          <internalNodes>
            0 -1 28 -175120222 1569149699 4354 -717127671 -1073684416
            1078035091 -2147301357 2001658159</internalNodes>
          <leafValues>
            -8.0187070369720459e-01 8.1724005937576294e-01</leafValues></_>
        <_>
          <internalNodes>
            0 -1 58 -253233597 -254738689 -168427522 1094909694
            1459615619 -1806696461 -178262249 -1073485909</internalNodes>
          <leafValues>
            -7.4732309579849243e-01 8.8690668344497681e-01</leafValues></_>
        <_>
          <internalNodes>
            0 -1 6 -8954013 -268500994 -268435457 -487674122 1601533783
            -8913035 -137 -361234573</internalNodes>
          <leafValues>
            -7.6600754261016846e-01 8.1994563341140747e-01</leafValues></_>
        <_>
          <internalNodes>
            0 -1 2 -286331666 -28689 1794026238 -1359305986 1341984462
            1266122621 2147421948 -570987267</internalNodes>
          <leafValues>
            -7.6116156578063965e-01 8.0158972740173340e-01</leafValues></_></weakClassifiers></_>
    <!-- stage 6 -->
    <_>
      <maxWeakCount>6</maxWeakCount>
      <stageThreshold>4.1002902388572693e-01</stageThreshold>
      <weakClassifiers>
        <_>
          <internalNodes>
            0 -1 32 413929213 1061896127 1071529855 1073561535
            -1073922054 -1557890 1073692607 1073228090</internalNodes>
          <leafValues>
            -6.7307692766189575e-01 9.2471361160278320e-01</leafValues></_>
        <_>
          <internalNodes>
            0 -1 4 2130751093 -12193793 -285365506 -672003 -11141153
            -145358857 -9048065 -11161860</internalNodes>
          <leafValues>
            -6.6738885641098022e-01 9.0654349327087402e-01</leafValues></_>
        <_>
          <internalNodes>
            0 -1 38 1912674767 -1576533487 -1925152242 -313974463
            -2134664995 75497545 -1559052032 1471774747</internalNodes>
          <leafValues>
            -7.6357662677764893e-01 8.4009933471679688e-01</leafValues></_>
        <_>
          <internalNodes>
            0 -1 22 -251905859 -1073922245 536756223 -1073758209
            -1073954819 -1073922050 -1073742097 -1345057108</internalNodes>
          <leafValues>
            -7.4786579608917236e-01 8.8090562820434570e-01</leafValues></_>
        <_>
          <internalNodes>
            0 -1 56 -271384587 -146768048 -1 -2752555 318756543 -4259849
            989823949 -1207994378</internalNodes>
          <leafValues>
            -7.4198949337005615e-01 8.5180568695068359e-01</leafValues></_>
        <_>
          <internalNodes>
            0 -1 47 12400 1359122453 151000213 -1929363391 34078936
            -358514552 -1979678583 -1199046648</internalNodes>
          <leafValues>
            -7.6623088121414185e-01 8.0122298002243042e-01</leafValues></_></weakClassifiers></_>
    <!-- stage 7 -->
    <_>
      <maxWeakCount>6</maxWeakCount>
      <stageThreshold>3.8784641027450562e-01</stageThreshold>
      <weakClassifiers>
        <_>
          <internalNodes>
            0 -1 60 1894117258 -554766750 -536870914 -422686974
            2013265532 -2 2147483630 -3675510</internalNodes>
          <leafValues>
            -5.4545456171035767e-01 9.1735535860061646e-01</leafValues></_>
        <_>
          <internalNodes>
            0 -1 55 -1700605665 -2113928188 50397193 -1795162017 131177
            -1912582135 66256 -1154023333</internalNodes>
          <leafValues>
            -7.3941421508789063e-01 8.6171627044677734e-01</leafValues></_>
        <_>
          <internalNodes>
            0 -1 8 -786511028 -1858072575 -1879047728 285245472
            -134119152 -1952317439 -1069547507 -1144272879</internalNodes>
          <leafValues>
            -7.5385689735412598e-01 8.0059987306594849e-01</leafValues></_>
        <_>
          <internalNodes>
            0 -1 50 -407377945 -210503689 -1 -589825 1692921829 -8914945
            -269488145 -403443841</internalNodes>
          <leafValues>
            -7.2142910957336426e-01 8.4081625938415527e-01</leafValues></_>
        <_>
          <internalNodes>
            0 -1 13 595557007 1844442821 686817151 -1090519043 -50
            1542913816 -4 -2546624</internalNodes>
          <leafValues>
            -6.3500481843948364e-01 8.5754567384719849e-01</leafValues></_>
        <_>
          <internalNodes>
            0 -1 64 -284700473 -884928445 32898 1427443843 570429443
            843055109 8585226 1935859851</internalNodes>
          <leafValues>
            -8.0533832311630249e-01 7.6573932170867920e-01</leafValues></_></weakClassifiers></_>
    <!-- stage 8 -->
    <_>
      <maxWeakCount>6</maxWeakCount>
      <stageThreshold>3.1502920389175415e-01</stageThreshold>
      <weakClassifiers>
        <_>
          <internalNodes>
            0 -1 40 -932082637 -805834765 805572350 -788525518
            -2004578895 -754941567 -805319425 -901674762</internalNodes>
          <leafValues>
            -6.1165046691894531e-01 9.1176468133926392e-01</leafValues></_>
        <_>
          <internalNodes>
            0 -1 19 411046296 -738197483 71303381 -1862270972 -536870504
            -654276480 134267016 409469056</internalNodes>
          <leafValues>
            -7.4686288833618164e-01 8.3010274171829224e-01</leafValues></_>
        <_>
          <internalNodes>
            0 -1 25 302051805 -754450286 1140852049 -788462590 8553019
            -399572992 310378637 -359988694</internalNodes>
          <leafValues>
            -7.0045572519302368e-01 8.3718234300613403e-01</leafValues></_>
        <_>
          <internalNodes>
            0 -1 46 1648610756 -711917153 499721 -1713963007 -1677623277
            -1138622272 -1610496888 -217873144</internalNodes>
          <leafValues>
            -7.6832383871078491e-01 7.6806014776229858e-01</leafValues></_>
        <_>
          <internalNodes>
            0 -1 65 1367594755 824885377 -2130706047 2032288004
            -787988448 -1743781374 -2013134784 -1073223678</internalNodes>
          <leafValues>
            -7.2620189189910889e-01 8.2257926464080811e-01</leafValues></_>
        <_>
          <internalNodes>
            0 -1 44 -27005201 -1023483154 -1074991361 -939851058
            -1351147741 -805854217 -1485576322 -209722626</internalNodes>
          <leafValues>
            -7.3903328180313110e-01 8.0747073888778687e-01</leafValues></_></weakClassifiers></_>
    <!-- stage 9 -->
    <_>
      <maxWeakCount>6</maxWeakCount>
      <stageThreshold>4.8189651966094971e-01</stageThreshold>
      <weakClassifiers>
        <_>
          <internalNodes>
            0 -1 48 522137107 -42025153 -12632261 -17301634 1059012415
            -8421813 -276824067 -864224193</internalNodes>
          <leafValues>
            -5.1131224632263184e-01 9.1232424974441528e-01</leafValues></_>
        <_>
          <internalNodes>
            0 -1 7 -713762859 -655361 -1090752786 805252782 -171640843
            -34209801 -570556419 -1376440329</internalNodes>
          <leafValues>
            -6.0449910163879395e-01 8.7648439407348633e-01</leafValues></_>
        <_>
          <internalNodes>
            0 -1 43 -318960967 -188436 267783158 -1075363905 -1073893381
            -720900 1073553395 -11153551</internalNodes>
          <leafValues>
            -7.1894907951354980e-01 7.8807938098907471e-01</leafValues></_>
        <_>
          <internalNodes>
            0 -1 3 -1073233717 -2143158267 -2146435072 -1073544960
            8912910 655360 1619010176 -175914617</internalNodes>
          <leafValues>
            -6.3330745697021484e-01 8.6976808309555054e-01</leafValues></_>
        <_>
          <internalNodes>
            0 -1 23 1052889 -988462716 67112341 353448213 2130094
            411336704 -1056847717 998375816</internalNodes>
          <leafValues>
            -7.5130325555801392e-01 7.7784371376037598e-01</leafValues></_>
        <_>
          <internalNodes>
            0 -1 66 -486072007 1112777475 33100 -754777792 -2013166694
            439549953 -1610143424 -1063546725</internalNodes>
          <leafValues>
            -7.1038079261779785e-01 8.0269789695739746e-01</leafValues></_></weakClassifiers></_>
    <!-- stage 10 -->
    <_>
      <maxWeakCount>6</maxWeakCount>
      <stageThreshold>4.3911662697792053e-01</stageThreshold>
      <weakClassifiers>
        <_>
          <internalNodes>
            0 -1 9 2138537763 -822149121 -1048577 -286326914 2139060053
            2139062143 2147450751 -58818689</internalNodes>
          <leafValues>
            -6.0000002384185791e-01 8.9032256603240967e-01</leafValues></_>
        <_>
          <internalNodes>
            0 -1 62 -645551222 -738180637 344065024 1097875465
            -2011126903 77628180 -2147300966 -107886038</internalNodes>
          <leafValues>
            -7.0448744297027588e-01 8.2606130838394165e-01</leafValues></_>
        <_>
          <internalNodes>
            0 -1 11 -28856659 1154875135 -1073840257 1442709502 -594294
            -1 -294736382 -8913049</internalNodes>
          <leafValues>
            -6.4914482831954956e-01 8.7015813589096069e-01</leafValues></_>
        <_>
          <internalNodes>
            0 -1 42 -1163298337 -654302816 135299455 -335265279
            1241778560 -2004839927 33554561 -844382061</internalNodes>
          <leafValues>
            -6.2733072042465210e-01 8.3646959066390991e-01</leafValues></_>
        <_>
          <internalNodes>
            0 -1 0 85675503 1610678274 1611235328 -1005580288 100728834
            176455682 1090621442 -973341941</internalNodes>
          <leafValues>
            -7.0668441057205200e-01 7.6037484407424927e-01</leafValues></_>
        <_>
          <internalNodes>
            0 -1 15 880092667 -783138549 285409842 -1258159872
            -1876393973 -1740406783 -1803550525 -729569141</internalNodes>
          <leafValues>
            -7.3464429378509521e-01 7.4370861053466797e-01</leafValues></_></weakClassifiers></_>
    <!-- stage 11 -->
    <_>
      <maxWeakCount>8</maxWeakCount>
      <stageThreshold>2.7113014459609985e-01</stageThreshold>
      <weakClassifiers>
        <_>
          <internalNodes>
            0 -1 35 -280013049 -556802225 -2100275 1979845581
            -1878855793 -124780280 -136420335 861650766</internalNodes>
          <leafValues>
            -6.3333332538604736e-01 8.8319998979568481e-01</leafValues></_>
        <_>
          <internalNodes>
            0 -1 18 403705084 -1078853899 -1073807439 -1107410945
            -8486980 -1082376202 -1099055124 -1642576716</internalNodes>
          <leafValues>
            -5.9482741355895996e-01 8.7161958217620850e-01</leafValues></_>
        <_>
          <internalNodes>
            0 -1 52 -541065297 733609917 -1073741907 -1346371585
            -268451859 -1346371585 -1912664644 -268443721</internalNodes>
          <leafValues>
            -5.7851463556289673e-01 8.5698163509368896e-01</leafValues></_>
        <_>
          <internalNodes>
            0 -1 63 -1073496053 1108934659 20564 -1056587519 1208033547
            -2147418112 1342259209 -2147405310</internalNodes>
          <leafValues>
            -7.2423511743545532e-01 7.4965739250183105e-01</leafValues></_>
        <_>
          <internalNodes>
            0 -1 68 -1416897782 -536829887 1147008 -2130571247
            1351721474 16875523 -2145238528 -1595414478</internalNodes>
          <leafValues>
            -7.6785719394683838e-01 7.1970516443252563e-01</leafValues></_>
        <_>
          <internalNodes>
            0 -1 33 1411367007 -1828711398 1048609 -1002307567
            2013462923 178815233 579436685 -1157160413</internalNodes>
          <leafValues>
            -7.7356183528900146e-01 6.9808858633041382e-01</leafValues></_>
        <_>
          <internalNodes>
            0 -1 1 -787754842 17 16418 147464 1107599363 1073741824
            -1073741822 -462170886</internalNodes>
          <leafValues>
            -8.1415796279907227e-01 6.9082796573638916e-01</leafValues></_>
        <_>
          <internalNodes>
            0 -1 59 134236185 -1877639024 1342243131 -1862204672
            -1979678560 -2012510080 -2147448614 -1465899000</internalNodes>
          <leafValues>
            -7.3995494842529297e-01 7.7384722232818604e-01</leafValues></_></weakClassifiers></_></stages>
  <features>
    <_>
      <rect>
        0 7 1 2</rect></_>
    <_>
      <rect>
        0 11 1 2</rect></_>
    <_>
      <rect>
        0 17 2 3</rect></_>
    <_>
      <rect>
        0 19 1 2</rect></_>
    <_>
      <rect>
        1 0 11 6</rect></_>
    <_>
      <rect>
        1 5 11 3</rect></_>
    <_>
      <rect>
        2 4 6 4</rect></_>
    <_>
      <rect>
        2 5 9 4</rect></_>
    <_>
      <rect>
        3 1 3 6</rect></_>
    <_>
      <rect>
        3 5 4 2</rect></_>
    <_>
      <rect>
        3 5 4 3</rect></_>
    <_>
      <rect>
        3 7 3 6</rect></_>
    <_>
      <rect>
        3 11 3 5</rect></_>
    <_>
      <rect>
        4 8 10 4</rect></_>
    <_>
      <rect>
        5 4 4 4</rect></_>
    <_>
      <rect>
        6 3 6 5</rect></_>
    <_>
      <rect>
        6 8 8 2</rect></_>
    <_>
      <rect>
        6 12 3 4</rect></_>
    <_>
      <rect>
        6 25 5 1</rect></_>
    <_>
      <rect>
        6 25 9 1</rect></_>
    <_>
      <rect>
        7 8 9 2</rect></_>
    <_>
      <rect>
        7 25 7 1</rect></_>
    <_>
      <rect>
        10 6 5 2</rect></_>
    <_>
      <rect>
        11 0 5 1</rect></_>
    <_>
      <rect>
        11 2 7 5</rect></_>
    <_>
      <rect>
        11 4 7 4</rect></_>
    <_>
      <rect>
        11 5 4 4</rect></_>
    <_>
      <rect>
        12 0 6 1</rect></_>
    <_>
      <rect>
        12 10 3 3</rect></_>
    <_>
      <rect>
        12 10 3 5</rect></_>
    <_>
      <rect>
        12 14 3 4</rect></_>
    <_>
      <rect>
        13 4 5 6</rect></_>
    <_>
      <rect>
        13 6 4 2</rect></_>
    <_>
      <rect>
        14 4 3 4</rect></_>
    <_>
      <rect>
        15 0 4 8</rect></_>
    <_>
      <rect>
        15 4 4 4</rect></_>
    <_>
      <rect>
        15 12 4 3</rect></_>
    <_>
      <rect>
        15 12 4 4</rect></_>
    <_>
      <rect>
        15 13 4 4</rect></_>
    <_>
      <rect>
        15 17 4 3</rect></_>
    <_>
      <rect>
        16 1 2 5</rect></_>
    <_>
      <rect>
        16 3 2 4</rect></_>
    <_>
      <rect>
        16 4 6 4</rect></_>
    <_>
      <rect>
        16 6 2 2</rect></_>
    <_>
      <rect>
        16 14 2 3</rect></_>
    <_>
      <rect>
        18 4 5 4</rect></_>
    <_>
      <rect>
        19 0 4 6</rect></_>
    <_>
      <rect>
        19 1 3 1</rect></_>
    <_>
      <rect>
        19 4 2 4</rect></_>
    <_>
      <rect>
        19 4 4 4</rect></_>
    <_>
      <rect>
        19 5 4 4</rect></_>
    <_>
      <rect>
        19 6 5 3</rect></_>
    <_>
      <rect>
        20 6 5 2</rect></_>
    <_>
      <rect>
        20 25 3 1</rect></_>
    <_>
      <rect>
        21 4 2 4</rect></_>
    <_>
      <rect>
        21 4 4 4</rect></_>
    <_>
      <rect>
        21 5 4 4</rect></_>
    <_>
      <rect>
        21 8 3 4</rect></_>
    <_>
      <rect>
        23 5 2 5</rect></_>
    <_>
      <rect>
        24 1 3 1</rect></_>
    <_>
      <rect>
        24 2 3 8</rect></_>
    <_>
      <rect>
        24 4 3 5</rect></_>
    <_>
      <rect>
        24 13 3 5</rect></_>
    <_>
      <rect>
        25 3 1 6</rect></_>
    <_>
      <rect>
        27 16 3 2</rect></_>
    <_>
      <rect>
        30 3 2 7</rect></_>
    <_>
      <rect>
        30 6 2 4</rect></_>
    <_>
      <rect>
        30 7 2 4</rect></_>
    <_>
      <rect>
        33 7 1 4</rect></_></features></cascade>
</opencv_storage>
