<?xml version="1.0"?>
<opencv_storage>
<cascade>
  <stageType>BOOST</stageType>
  <featureType>LBP</featureType>
  <height>28</height>
  <width>36</width>
  <stageParams>
    <boostType>GAB</boostType>
    <minHitRate>9.9900001287460327e-01</minHitRate>
    <maxFalseAlarm>5.0000000745058060e-02</maxFalseAlarm>
    <weightTrimRate>9.4999999999999996e-01</weightTrimRate>
    <maxDepth>1</maxDepth>
    <maxWeakCount>100</maxWeakCount></stageParams>
  <featureParams>
    <maxCatCount>256</maxCatCount>
    <featSize>1</featSize></featureParams>
  <stageNum>10</stageNum>
  <stages>
    <!-- stage 0 -->
    <_>
      <maxWeakCount>5</maxWeakCount>
      <stageThreshold>1.2278331518173218e+00</stageThreshold>
      <weakClassifiers>
        <_>
          <internalNodes>
            0 -1 40 -823210364 2147483647 -65015810 -134234113 -8 -1
            -1962934273 2013227402</internalNodes>
          <leafValues>
            -7.0149254798889160e-01 9.5970392227172852e-01</leafValues></_>
        <_>
          <internalNodes>
            0 -1 16 16 387973248 16721 -1258287103 142608555 -1207926624
            704643242 167772160</internalNodes>
          <leafValues>
            -8.4316956996917725e-01 9.0812778472900391e-01</leafValues></_>
        <_>
          <internalNodes>
            0 -1 23 221517276 1065123581 -16994311 1073348093 804814783
            -268632073 -285467139 -1674003068</internalNodes>
          <leafValues>
            -7.0714032649993896e-01 9.4196313619613647e-01</leafValues></_>
        <_>
          <internalNodes>
            0 -1 43 1915812499 1932538672 -269234195 -135137289
            -856436757 -72091662 -1929916433 -25962501</internalNodes>
          <leafValues>
            -7.1156632900238037e-01 9.6426880359649658e-01</leafValues></_>
        <_>
          <internalNodes>
            0 -1 22 272683232 286261504 4499 -1861156861 -2147253107
            -1090500479 -2111120977 -1448902520</internalNodes>
          <leafValues>
            -7.7543073892593384e-01 8.8090199232101440e-01</leafValues></_></weakClassifiers></_>
    <!-- stage 1 -->
    <_>
      <maxWeakCount>5</maxWeakCount>
      <stageThreshold>-2.6624658703804016e-01</stageThreshold>
      <weakClassifiers>
        <_>
          <internalNodes>
            0 -1 26 -159384534 1656743548 -11796722 -1086850049
            1962407241 1073836277 -44040193 1434451967</internalNodes>
          <leafValues>
            -6.8000000715255737e-01 9.5725440979003906e-01</leafValues></_>
        <_>
          <internalNodes>
            0 -1 32 -167793782 2013147118 -20497 -268455954 -1241534482
            2147467263 1845342190 1744813807</internalNodes>
          <leafValues>
            -7.6342606544494629e-01 9.2052590847015381e-01</leafValues></_>
        <_>
          <internalNodes>
            0 -1 48 -1065172754 1493286913 -2130689847 -1727971294
            -670891877 -1199439872 -1434383701 1197678599</internalNodes>
          <leafValues>
            -7.6848936080932617e-01 8.8484996557235718e-01</leafValues></_>
        <_>
          <internalNodes>
            0 -1 12 134223061 -1107492640 2143223807 2146643710
            -1221215240 -65547 1004075775 -1736174558</internalNodes>
          <leafValues>
            -6.5640664100646973e-01 9.5306533575057983e-01</leafValues></_>
        <_>
          <internalNodes>
            0 -1 45 -754718394 1434566657 16411 -216890752 -2013216558
            1645215744 1208502284 -956145661</internalNodes>
          <leafValues>
            -7.3521584272384644e-01 8.7889885902404785e-01</leafValues></_></weakClassifiers></_>
    <!-- stage 2 -->
    <_>
      <maxWeakCount>6</maxWeakCount>
      <stageThreshold>5.6425136327743530e-01</stageThreshold>
      <weakClassifiers>
        <_>
          <internalNodes>
            0 -1 33 -16859158 1979576319 -1360023868 -1343229970
            -134873155 1945436159 -4348 -153092114</internalNodes>
          <leafValues>
            -5.2777779102325439e-01 9.5448905229568481e-01</leafValues></_>
        <_>
          <internalNodes>
            0 -1 19 32513104 771518457 -1107509257 -1073988099 937197052
            -196612 1844994044 -1081600948</internalNodes>
          <leafValues>
            -6.4379811286926270e-01 9.1644632816314697e-01</leafValues></_>
        <_>
          <internalNodes>
            0 -1 44 62116823 842265594 -135278620 859045883 24366863
            859045879 163810767 -172769297</internalNodes>
          <leafValues>
            -6.6972255706787109e-01 9.0367537736892700e-01</leafValues></_>
        <_>
          <internalNodes>
            0 -1 27 -678435514 -1878278013 263172 -787950589 1241747589
            553713792 -771653565 1998975631</internalNodes>
          <leafValues>
            -8.1940442323684692e-01 8.2788968086242676e-01</leafValues></_>
        <_>
          <internalNodes>
            0 -1 56 1035866087 -1078984787 -1677743446 1203748525
            -1344348209 1070464845 -1342263410 -136347751</internalNodes>
          <leafValues>
            -6.8514579534530640e-01 8.7910032272338867e-01</leafValues></_>
        <_>
          <internalNodes>
            0 -1 10 -619591286 1078723216 1208049664 -486019070
            -1073684470 12664832 -2063564790 -179339222</internalNodes>
          <leafValues>
            -7.7970534563064575e-01 8.1555312871932983e-01</leafValues></_></weakClassifiers></_>
    <!-- stage 3 -->
    <_>
      <maxWeakCount>6</maxWeakCount>
      <stageThreshold>5.8118188381195068e-01</stageThreshold>
      <weakClassifiers>
        <_>
          <internalNodes>
            0 -1 35 2112851598 -1053106 1875840040 -273698899
            -1090535441 905822205 -4198641 334352495</internalNodes>
          <leafValues>
            -6.8539327383041382e-01 9.4297349452972412e-01</leafValues></_>
        <_>
          <internalNodes>
            0 -1 15 88092692 -1727983595 286263315 -1660317679 2624641
            -1701838848 -938835318 -1962147832</internalNodes>
          <leafValues>
            -6.3972079753875732e-01 9.2374676465988159e-01</leafValues></_>
        <_>
          <internalNodes>
            0 -1 55 -483396186 -68498816 -17 -550581566 1457485821
            -134221842 1937176575 -204996914</internalNodes>
          <leafValues>
            -7.1008104085922241e-01 9.1306781768798828e-01</leafValues></_>
        <_>
          <internalNodes>
            0 -1 37 -898396429 -1611403533 1878494971 -659917
            -1611363093 -537866241 -1895830277 -890002214</internalNodes>
          <leafValues>
            -6.8286484479904175e-01 9.1502296924591064e-01</leafValues></_>
        <_>
          <internalNodes>
            0 -1 29 436211955 -653787120 67142103 -721354469 268486787
            -1969225720 -2147450229 -1417146239</internalNodes>
          <leafValues>
            -6.4847284555435181e-01 9.0670937299728394e-01</leafValues></_>
        <_>
          <internalNodes>
            0 -1 51 -939485181 1224736771 184321 -1602207727 -1593720699
            -1476395006 1208058785 -1026832381</internalNodes>
          <leafValues>
            -7.9930186271667480e-01 7.9068875312805176e-01</leafValues></_></weakClassifiers></_>
    <!-- stage 4 -->
    <_>
      <maxWeakCount>7</maxWeakCount>
      <stageThreshold>1.1269136667251587e+00</stageThreshold>
      <weakClassifiers>
        <_>
          <internalNodes>
            0 -1 54 850310126 -97989056 -1 -1209208924 1988065262
            1055651758 1946122237 -5312626</internalNodes>
          <leafValues>
            -4.3119266629219055e-01 9.4699794054031372e-01</leafValues></_>
        <_>
          <internalNodes>
            0 -1 47 -840767278 -805273536 -1878126243 -671023087
            134873730 -381648864 -2139092471 -8439803</internalNodes>
          <leafValues>
            -6.1407017707824707e-01 8.9249330759048462e-01</leafValues></_>
        <_>
          <internalNodes>
            0 -1 5 -181119532 -2015772676 -17268809 -1073889285
            -34054156 234684412 -1073971202 -1648355940</internalNodes>
          <leafValues>
            -6.9681787490844727e-01 8.7615531682968140e-01</leafValues></_>
        <_>
          <internalNodes>
            0 -1 20 1427149072 269550000 16860177 1459994975 -796653414
            -1165880671 9013391 1060315546</internalNodes>
          <leafValues>
            -7.8473091125488281e-01 7.8180146217346191e-01</leafValues></_>
        <_>
          <internalNodes>
            0 -1 6 1565638773 1343307969 1090519058 1364656128
            -528449373 -1743664896 -1609251710 -1104048992</internalNodes>
          <leafValues>
            -7.1642976999282837e-01 8.0582261085510254e-01</leafValues></_>
        <_>
          <internalNodes>
            0 -1 59 -1677475618 -775614464 67174528 1426411521 155230220
            452984864 -2080137080 1510711819</internalNodes>
          <leafValues>
            -8.2518595457077026e-01 6.9824218750000000e-01</leafValues></_>
        <_>
          <internalNodes>
            0 -1 34 -1075376141 -957362450 -86353 147647214 2001205026
            2004219639 -412893269 -274464885</internalNodes>
          <leafValues>
            -7.3509365320205688e-01 8.2842403650283813e-01</leafValues></_></weakClassifiers></_>
    <!-- stage 5 -->
    <_>
      <maxWeakCount>8</maxWeakCount>
      <stageThreshold>5.6991565227508545e-01</stageThreshold>
      <weakClassifiers>
        <_>
          <internalNodes>
            0 -1 53 -1153777871 723582904 -1107558401 1059848185
            201006589 800849915 218039765 799211510</internalNodes>
          <leafValues>
            -4.3269231915473938e-01 9.4144332408905029e-01</leafValues></_>
        <_>
          <internalNodes>
            0 -1 52 -1617432946 -177735844 -33 1995962357 -197144596
            -9045026 -268439634 1881527367</internalNodes>
          <leafValues>
            -7.0230031013488770e-01 8.5494345426559448e-01</leafValues></_>
        <_>
          <internalNodes>
            0 -1 61 -1073762549 -1481920605 1073704738 -2092957789
            1031667652 7667583 -1510509310 -487065609</internalNodes>
          <leafValues>
            -5.8505338430404663e-01 8.9495855569839478e-01</leafValues></_>
        <_>
          <internalNodes>
            0 -1 46 -537134309 867366834 -1073750537 -1485307915
            1861911294 2033254386 1308561093 -72122371</internalNodes>
          <leafValues>
            -6.6171616315841675e-01 8.5166621208190918e-01</leafValues></_>
        <_>
          <internalNodes>
            0 -1 31 424694740 1426063432 -788524771 -1862123248
            -2146926165 -1610543080 -1995898309 -1616244224</internalNodes>
          <leafValues>
            -7.1749716997146606e-01 8.2449370622634888e-01</leafValues></_>
        <_>
          <internalNodes>
            0 -1 58 -752136826 -1069285099 1074856265 -1073676287
            -1593686862 -1979531231 -1585299200 1896072706</internalNodes>
          <leafValues>
            -8.3996373414993286e-01 7.3420208692550659e-01</leafValues></_>
        <_>
          <internalNodes>
            0 -1 30 -506586820 -1659895360 270532689 -217509819
            -2013101589 -1735915519 134283434 -1433673567</internalNodes>
          <leafValues>
            -7.7327477931976318e-01 7.6480525732040405e-01</leafValues></_>
        <_>
          <internalNodes>
            0 -1 21 142619861 -251445232 1073746057 -654213039
            -2013228646 -938868703 83886289 -1685974351</internalNodes>
          <leafValues>
            -7.0314359664916992e-01 8.1926608085632324e-01</leafValues></_></weakClassifiers></_>
    <!-- stage 6 -->
    <_>
      <maxWeakCount>6</maxWeakCount>
      <stageThreshold>5.7047373056411743e-01</stageThreshold>
      <weakClassifiers>
        <_>
          <internalNodes>
            0 -1 49 -1078140932 -1074855937 -49154 1069333118 357850460
            494230877 536115199 1475665917</internalNodes>
          <leafValues>
            -6.2130177021026611e-01 9.3262988328933716e-01</leafValues></_>
        <_>
          <internalNodes>
            0 -1 7 1460747799 1929510911 -833114369 1868541950 638676586
            890306107 772910782 2130964015</internalNodes>
          <leafValues>
            -6.1109727621078491e-01 9.0562063455581665e-01</leafValues></_>
        <_>
          <internalNodes>
            0 -1 28 -1863352103 285209093 822079197 -201326626
            1928848303 -1157693694 -1325483827 -81815031</internalNodes>
          <leafValues>
            -5.6883841753005981e-01 9.2496889829635620e-01</leafValues></_>
        <_>
          <internalNodes>
            0 -1 2 -1063321081 1795199264 301994268 1141067779
            -1996455421 -911605757 -2147448721 -769273792</internalNodes>
          <leafValues>
            -6.7364549636840820e-01 8.5627281665802002e-01</leafValues></_>
        <_>
          <internalNodes>
            0 -1 11 542126928 -617504495 135333907 1975542801 570664235
            581042178 9502861 -1736105856</internalNodes>
          <leafValues>
            -7.7079325914382935e-01 7.6109081506729126e-01</leafValues></_>
        <_>
          <internalNodes>
            0 -1 13 -266349329 1358963842 285294851 -184024703 302039051
            1095434328 541343882 1191370810</internalNodes>
          <leafValues>
            -7.1891486644744873e-01 7.6841098070144653e-01</leafValues></_></weakClassifiers></_>
    <!-- stage 7 -->
    <_>
      <maxWeakCount>6</maxWeakCount>
      <stageThreshold>4.2033940553665161e-01</stageThreshold>
      <weakClassifiers>
        <_>
          <internalNodes>
            0 -1 36 -1074844114 -1073759570 1073679524 1073692671
            -1073741825 368934909 1610550781 394088447</internalNodes>
          <leafValues>
            -6.1445784568786621e-01 9.3027967214584351e-01</leafValues></_>
        <_>
          <internalNodes>
            0 -1 38 1299549883 2138689251 -1393095942 -598286
            -1887990557 -1879593225 -822638413 -495743774</internalNodes>
          <leafValues>
            -5.5160933732986450e-01 8.9842027425765991e-01</leafValues></_>
        <_>
          <internalNodes>
            0 -1 57 -1861741608 423919744 -1543438061 -1728020463
            -1610611822 2016444674 -1476336710 990130344</internalNodes>
          <leafValues>
            -8.2670295238494873e-01 7.5953274965286255e-01</leafValues></_>
        <_>
          <internalNodes>
            0 -1 2 2114539535 -264568751 1140853083 -1030414325
            1085014095 168097 142688273 1847542017</internalNodes>
          <leafValues>
            -8.1141752004623413e-01 7.4689167737960815e-01</leafValues></_>
        <_>
          <internalNodes>
            0 -1 18 -1124057867 -1123746066 2131029246 -16121857
            -1919948551 -1114964546 -736612192 -284430113</internalNodes>
          <leafValues>
            -6.8419665098190308e-01 8.9266043901443481e-01</leafValues></_>
        <_>
          <internalNodes>
            0 -1 9 -733610365 1414856446 -65934 -579338242 -805851384
            -2097316 -1891719680 -270539193</internalNodes>
          <leafValues>
            -5.6682556867599487e-01 9.1395658254623413e-01</leafValues></_></weakClassifiers></_>
    <!-- stage 8 -->
    <_>
      <maxWeakCount>7</maxWeakCount>
      <stageThreshold>-5.1587890833616257e-02</stageThreshold>
      <weakClassifiers>
        <_>
          <internalNodes>
            0 -1 3 656928374 386269119 268414638 2134900470 235269726
            923664383 792682031 1863831543</internalNodes>
          <leafValues>
            -5.0877195596694946e-01 9.2607635259628296e-01</leafValues></_>
        <_>
          <internalNodes>
            0 -1 0 1718224454 -17062657 -1090572305 -286528018
            -2013403137 -419430401 -16818313 -295187243</internalNodes>
          <leafValues>
            -5.3859519958496094e-01 8.8767886161804199e-01</leafValues></_>
        <_>
          <internalNodes>
            0 -1 8 1125371479 -412699018 -276955137 -1560809745
            1182039889 -25762057 662173559 -1233977737</internalNodes>
          <leafValues>
            -6.6955208778381348e-01 8.4675061702728271e-01</leafValues></_>
        <_>
          <internalNodes>
            0 -1 25 295702877 -138625068 -1082331140 -1076543587
            -1395270145 -199299 921613743 -1651507064</internalNodes>
          <leafValues>
            -7.0117366313934326e-01 8.0842196941375732e-01</leafValues></_>
        <_>
          <internalNodes>
            0 -1 24 -794865533 -1056538350 268443669 411238529
            -934016637 -1895694327 16777217 -225869816</internalNodes>
          <leafValues>
            -6.8339425325393677e-01 8.1499123573303223e-01</leafValues></_>
        <_>
          <internalNodes>
            0 -1 17 268435677 1167163409 1076135997 -1760215008
            1107304600 -392560480 -2013233111 -1325236088</internalNodes>
          <leafValues>
            -6.8979597091674805e-01 7.6193064451217651e-01</leafValues></_>
        <_>
          <internalNodes>
            0 -1 41 -246316969 -666824678 -2136932271 16521 1082335496
            167837832 -401282879 -1307410431</internalNodes>
          <leafValues>
            -6.9175106287002563e-01 8.0382549762725830e-01</leafValues></_></weakClassifiers></_>
    <!-- stage 9 -->
    <_>
      <maxWeakCount>8</maxWeakCount>
      <stageThreshold>5.5322289466857910e-01</stageThreshold>
      <weakClassifiers>
        <_>
          <internalNodes>
            0 -1 50 16770867 15728247 -822090573 16641919 83850357
            8388607 -1627429775 16704887</internalNodes>
          <leafValues>
            -5.7692307233810425e-01 9.2167943716049194e-01</leafValues></_>
        <_>
          <internalNodes>
            0 -1 39 -832864173 18022657 21 1635803137 -1593040637
            134217745 32782 -348929469</internalNodes>
          <leafValues>
            -5.7992100715637207e-01 8.5910850763320923e-01</leafValues></_>
        <_>
          <internalNodes>
            0 -1 62 2146434851 565116719 2143256080 1505623606
            -1208164999 1504149486 -167807356 -1350567945</internalNodes>
          <leafValues>
            -5.6420499086380005e-01 9.1607862710952759e-01</leafValues></_>
        <_>
          <internalNodes>
            0 -1 14 -373 -722469089 -184549780 -184549377 -167772257
            1205534567 -251831666 626783615</internalNodes>
          <leafValues>
            -6.8522346019744873e-01 7.7868884801864624e-01</leafValues></_>
        <_>
          <internalNodes>
            0 -1 4 -2147480207 -788479976 335597617 -1962573824
            -2012708464 -1985970040 -1874728950 -1458824951</internalNodes>
          <leafValues>
            -6.8000787496566772e-01 8.0600965023040771e-01</leafValues></_>
        <_>
          <internalNodes>
            0 -1 42 -1823373985 -1962692603 -1072545770 142737416
            -1610448243 -1610596352 574785736 -1848571197</internalNodes>
          <leafValues>
            -7.5630718469619751e-01 7.4763101339340210e-01</leafValues></_>
        <_>
          <internalNodes>
            0 -1 1 -1027088177 1208222720 65538 1108934914 -1023279093 0
            57166738 -498089783</internalNodes>
          <leafValues>
            -6.9939720630645752e-01 7.8640371561050415e-01</leafValues></_>
        <_>
          <internalNodes>
            0 -1 60 -473448318 -737886143 151142400 17600530 -2012700400
            1073750016 1107386546 49275278</internalNodes>
          <leafValues>
            -8.3360832929611206e-01 6.9564121961593628e-01</leafValues></_></weakClassifiers></_></stages>
  <features>
    <_>
      <rect>
        0 0 2 3</rect></_>
    <_>
      <rect>
        0 4 1 1</rect></_>
    <_>
      <rect>
        1 0 4 3</rect></_>
    <_>
      <rect>
        1 4 11 3</rect></_>
    <_>
      <rect>
        2 0 6 1</rect></_>
    <_>
      <rect>
        2 25 8 1</rect></_>
    <_>
      <rect>
        3 0 11 6</rect></_>
    <_>
      <rect>
        3 3 10 4</rect></_>
    <_>
      <rect>
        3 5 5 4</rect></_>
    <_>
      <rect>
        3 8 3 6</rect></_>
    <_>
      <rect>
        3 13 3 3</rect></_>
    <_>
      <rect>
        5 8 10 2</rect></_>
    <_>
      <rect>
        6 0 7 1</rect></_>
    <_>
      <rect>
        6 13 3 3</rect></_>
    <_>
      <rect>
        6 17 3 1</rect></_>
    <_>
      <rect>
        6 25 5 1</rect></_>
    <_>
      <rect>
        7 0 5 1</rect></_>
    <_>
      <rect>
        7 24 9 1</rect></_>
    <_>
      <rect>
        8 3 8 4</rect></_>
    <_>
      <rect>
        8 25 7 1</rect></_>
    <_>
      <rect>
        9 8 7 2</rect></_>
    <_>
      <rect>
        10 1 6 1</rect></_>
    <_>
      <rect>
        10 8 4 2</rect></_>
    <_>
      <rect>
        10 25 8 1</rect></_>
    <_>
      <rect>
        11 4 4 4</rect></_>
    <_>
      <rect>
        12 1 4 1</rect></_>
    <_>
      <rect>
        12 13 3 3</rect></_>
    <_>
      <rect>
        12 13 3 5</rect></_>
    <_>
      <rect>
        13 6 3 3</rect></_>
    <_>
      <rect>
        14 0 4 1</rect></_>
    <_>
      <rect>
        14 8 7 2</rect></_>
    <_>
      <rect>
        15 0 4 1</rect></_>
    <_>
      <rect>
        15 3 4 8</rect></_>
    <_>
      <rect>
        15 10 4 4</rect></_>
    <_>
      <rect>
        15 12 3 4</rect></_>
    <_>
      <rect>
        15 16 4 3</rect></_>
    <_>
      <rect>
        15 18 4 3</rect></_>
    <_>
      <rect>
        16 1 2 5</rect></_>
    <_>
      <rect>
        16 3 2 4</rect></_>
    <_>
      <rect>
        16 4 2 4</rect></_>
    <_>
      <rect>
        16 4 3 6</rect></_>
    <_>
      <rect>
        18 0 3 6</rect></_>
    <_>
      <rect>
        18 0 5 6</rect></_>
    <_>
      <rect>
        18 4 5 4</rect></_>
    <_>
      <rect>
        19 5 4 3</rect></_>
    <_>
      <rect>
        19 5 4 4</rect></_>
    <_>
      <rect>
        19 5 5 3</rect></_>
    <_>
      <rect>
        19 6 5 3</rect></_>
    <_>
      <rect>
        19 9 4 3</rect></_>
    <_>
      <rect>
        19 22 4 2</rect></_>
    <_>
      <rect>
        21 3 4 2</rect></_>
    <_>
      <rect>
        21 4 2 4</rect></_>
    <_>
      <rect>
        21 6 3 5</rect></_>
    <_>
      <rect>
        21 6 4 2</rect></_>
    <_>
      <rect>
        24 3 3 5</rect></_>
    <_>
      <rect>
        24 4 3 5</rect></_>
    <_>
      <rect>
        24 22 3 1</rect></_>
    <_>
      <rect>
        24 25 2 1</rect></_>
    <_>
      <rect>
        27 6 3 5</rect></_>
    <_>
      <rect>
        27 19 3 3</rect></_>
    <_>
      <rect>
        28 12 2 3</rect></_>
    <_>
      <rect>
        33 20 1 2</rect></_>
    <_>
      <rect>
        33 21 1 2</rect></_></features></cascade>
</opencv_storage>
