<?xml version="1.0"?>
<opencv_storage>
<cascade>
  <stageType>BOOST</stageType>
  <featureType>LBP</featureType>
  <height>28</height>
  <width>36</width>
  <stageParams>
    <boostType>GAB</boostType>
    <minHitRate>9.9900001287460327e-01</minHitRate>
    <maxFalseAlarm>5.0000000745058060e-02</maxFalseAlarm>
    <weightTrimRate>9.4999999999999996e-01</weightTrimRate>
    <maxDepth>1</maxDepth>
    <maxWeakCount>100</maxWeakCount></stageParams>
  <featureParams>
    <maxCatCount>256</maxCatCount>
    <featSize>1</featSize></featureParams>
  <stageNum>12</stageNum>
  <stages>
    <!-- stage 0 -->
    <_>
      <maxWeakCount>5</maxWeakCount>
      <stageThreshold>1.1267910003662109e+00</stageThreshold>
      <weakClassifiers>
        <_>
          <internalNodes>
            0 -1 42 -33620082 2147483645 -1392775548 -1342242834
            -134742081 1945501695 -17829938 -473956434</internalNodes>
          <leafValues>
            -7.1914893388748169e-01 9.7222220897674561e-01</leafValues></_>
        <_>
          <internalNodes>
            0 -1 43 -1134866 -136380417 261074442 -269811730 -134350850
            1979021302 -2097362 -689578001</internalNodes>
          <leafValues>
            -7.2537124156951904e-01 9.3553835153579712e-01</leafValues></_>
        <_>
          <internalNodes>
            0 -1 50 -500109405 1932591088 -4114 -34078729 -839397386
            1932656498 -1895837734 -218898433</internalNodes>
          <leafValues>
            -7.0493173599243164e-01 9.4387394189834595e-01</leafValues></_>
        <_>
          <internalNodes>
            0 -1 24 1363188184 1342211200 -2113798143 822610018
            1091142137 -1736433536 135790824 -2138109752</internalNodes>
          <leafValues>
            -8.1857037544250488e-01 8.5403150320053101e-01</leafValues></_>
        <_>
          <internalNodes>
            0 -1 39 -393742458 -805289979 -1065254784 229386 -2138668926
            -1073504256 -1069382130 1613737354</internalNodes>
          <leafValues>
            -8.8750392198562622e-01 7.8510409593582153e-01</leafValues></_></weakClassifiers></_>
    <!-- stage 1 -->
    <_>
      <maxWeakCount>5</maxWeakCount>
      <stageThreshold>-3.3952727913856506e-01</stageThreshold>
      <weakClassifiers>
        <_>
          <internalNodes>
            0 -1 63 1475777390 -1130816 -18 -3871680 1945630591 -1
            1946155885 -68162866</internalNodes>
          <leafValues>
            -5.0000000000000000e-01 9.4699919223785400e-01</leafValues></_>
        <_>
          <internalNodes>
            0 -1 35 -104809728 -2128666557 286588931 -1316552697 541229
            967508137 -2088681278 1909449747</internalNodes>
          <leafValues>
            -7.9536330699920654e-01 8.5922855138778687e-01</leafValues></_>
        <_>
          <internalNodes>
            0 -1 30 -503332026 1396785175 1073938432 1611564083
            -937131519 8945665 -2142797305 815059371</internalNodes>
          <leafValues>
            -8.2852816581726074e-01 8.1091850996017456e-01</leafValues></_>
        <_>
          <internalNodes>
            0 -1 18 1107366247 -1068433407 201558299 -1979711483
            603984949 -1845428224 -2046689265 -1962770237</internalNodes>
          <leafValues>
            -7.9209339618682861e-01 8.2259750366210938e-01</leafValues></_>
        <_>
          <internalNodes>
            0 -1 53 1932781551 2003892213 -135009337 -168099849
            1156763637 -210502657 -1041298481 -269226513</internalNodes>
          <leafValues>
            -7.1758091449737549e-01 8.8337087631225586e-01</leafValues></_></weakClassifiers></_>
    <!-- stage 2 -->
    <_>
      <maxWeakCount>5</maxWeakCount>
      <stageThreshold>1.2111217975616455e+00</stageThreshold>
      <weakClassifiers>
        <_>
          <internalNodes>
            0 -1 23 1140882960 1544616880 804220885 2147483572
            -541261827 -1086455885 704458222 -1929564284</internalNodes>
          <leafValues>
            -6.8609863519668579e-01 9.5107030868530273e-01</leafValues></_>
        <_>
          <internalNodes>
            0 -1 22 1074794512 -1250398860 2071007033 1033887615
            -269254670 -131079 825491241 -1368718819</internalNodes>
          <leafValues>
            -6.8632990121841431e-01 9.3194818496704102e-01</leafValues></_>
        <_>
          <internalNodes>
            0 -1 36 272 487653632 285217557 352845833 536912523
            -1199046527 134776969 402653184</internalNodes>
          <leafValues>
            -8.5179096460342407e-01 8.5371106863021851e-01</leafValues></_>
        <_>
          <internalNodes>
            0 -1 15 1010569244 1073594109 1073495803 -4407691
            -1250411024 -131076 -1222361092 -1659892604</internalNodes>
          <leafValues>
            -7.5620484352111816e-01 9.0735995769500732e-01</leafValues></_>
        <_>
          <internalNodes>
            0 -1 56 -14422749 -281806025 -1356660941 -4289 1713930159
            -524313 -294391811 -332559234</internalNodes>
          <leafValues>
            -7.1440875530242920e-01 9.3609911203384399e-01</leafValues></_></weakClassifiers></_>
    <!-- stage 3 -->
    <_>
      <maxWeakCount>6</maxWeakCount>
      <stageThreshold>4.3981298804283142e-01</stageThreshold>
      <weakClassifiers>
        <_>
          <internalNodes>
            0 -1 44 -989401846 -8306687 -10899936 -536870979 -264519938
            938864382 -1861910135 1943007361</internalNodes>
          <leafValues>
            -7.4725276231765747e-01 9.0956264734268188e-01</leafValues></_>
        <_>
          <internalNodes>
            0 -1 32 -432806400 -466 1734866498 -310906624 1851242308
            -1367347466 1685022535 1280795907</internalNodes>
          <leafValues>
            -7.3209142684936523e-01 8.7418276071548462e-01</leafValues></_>
        <_>
          <internalNodes>
            0 -1 62 -163597466 -413143424 -2 -9973824 1987567534
            -1048594 1946157054 -68952214</internalNodes>
          <leafValues>
            -7.3398470878601074e-01 8.6564254760742188e-01</leafValues></_>
        <_>
          <internalNodes>
            0 -1 21 1351078094 -1857838848 8945792 -787447789
            -1073704832 163842 268436123 1393025051</internalNodes>
          <leafValues>
            -7.7095729112625122e-01 8.1651127338409424e-01</leafValues></_>
        <_>
          <internalNodes>
            0 -1 58 -737951229 1410342915 98308 1350664320 1108180994
            -2147483648 -2147350513 -506996725</internalNodes>
          <leafValues>
            -7.0936071872711182e-01 8.8163995742797852e-01</leafValues></_>
        <_>
          <internalNodes>
            0 -1 45 -1060680189 1077473087 -1460540781 1223819133
            -864587961 -2145321089 -791020161 -804019805</internalNodes>
          <leafValues>
            -6.2799501419067383e-01 9.3971705436706543e-01</leafValues></_></weakClassifiers></_>
    <!-- stage 4 -->
    <_>
      <maxWeakCount>6</maxWeakCount>
      <stageThreshold>4.9296313524246216e-01</stageThreshold>
      <weakClassifiers>
        <_>
          <internalNodes>
            0 -1 47 -931951373 -537473797 -1124660994 -269234974
            -537424641 -537395209 -553678597 -999242573</internalNodes>
          <leafValues>
            -4.7457626461982727e-01 9.2895752191543579e-01</leafValues></_>
        <_>
          <internalNodes>
            0 -1 60 -1079984129 -1826553904 -270849 998440940 670522351
            -1275920386 218062284 1002045405</internalNodes>
          <leafValues>
            -6.2570118904113770e-01 9.0245085954666138e-01</leafValues></_>
        <_>
          <internalNodes>
            0 -1 10 1192333521 -1859059696 134283408 -1727758336
            -2139094391 -1711275902 -2010609534 -1891465213</internalNodes>
          <leafValues>
            -6.0968196392059326e-01 8.6495608091354370e-01</leafValues></_>
        <_>
          <internalNodes>
            0 -1 14 930606722 -234885138 -4440 1174384364 -9310838
            -143130834 -184252120 -814879700</internalNodes>
          <leafValues>
            -7.4774491786956787e-01 7.9204577207565308e-01</leafValues></_>
        <_>
          <internalNodes>
            0 -1 65 -749764410 2031173697 1073741824 -649494527
            -2003795832 268451968 -1056824824 -926563859</internalNodes>
          <leafValues>
            -7.6419574022293091e-01 7.5790983438491821e-01</leafValues></_>
        <_>
          <internalNodes>
            0 -1 3 -775726549 1073741832 20971552 -1031700414 -402093550
            1610653838 -1048035296 -503854417</internalNodes>
          <leafValues>
            -6.8541425466537476e-01 8.3253455162048340e-01</leafValues></_></weakClassifiers></_>
    <!-- stage 5 -->
    <_>
      <maxWeakCount>6</maxWeakCount>
      <stageThreshold>4.3231526017189026e-01</stageThreshold>
      <weakClassifiers>
        <_>
          <internalNodes>
            0 -1 68 -16782590 1946157046 -98453 -67108871 -10 -570426114
            -855675328 1073881703</internalNodes>
          <leafValues>
            -5.8947366476058960e-01 8.9709174633026123e-01</leafValues></_>
        <_>
          <internalNodes>
            0 -1 16 2135992915 2114060145 2127675054 -15351947 -11141393
            2098331647 1870114029 2136071931</internalNodes>
          <leafValues>
            -6.4506006240844727e-01 8.9928239583969116e-01</leafValues></_>
        <_>
          <internalNodes>
            0 -1 33 53940678 621887872 -2147352447 -1862074352 196747
            -1706917885 -1023172593 1905521411</internalNodes>
          <leafValues>
            -7.9632979631423950e-01 7.5931042432785034e-01</leafValues></_>
        <_>
          <internalNodes>
            0 -1 46 -993951541 -1324006911 17 -1793875968 -536280917
            -1577058296 1610777177 -648313718</internalNodes>
          <leafValues>
            -7.1561712026596069e-01 7.9496991634368896e-01</leafValues></_>
        <_>
          <internalNodes>
            0 -1 8 235917 88277008 87135 966332427 -1744797520
            -928501757 -2147442552 1410285824</internalNodes>
          <leafValues>
            -7.4638694524765015e-01 7.4993640184402466e-01</leafValues></_>
        <_>
          <internalNodes>
            0 -1 66 -871371805 182935551 1088453667 1996455933
            -1931559681 -932139141 1156478843 -1023942797</internalNodes>
          <leafValues>
            -6.0204839706420898e-01 8.8299173116683960e-01</leafValues></_></weakClassifiers></_>
    <!-- stage 6 -->
    <_>
      <maxWeakCount>6</maxWeakCount>
      <stageThreshold>6.1097979545593262e-01</stageThreshold>
      <weakClassifiers>
        <_>
          <internalNodes>
            0 -1 5 1852080110 1603596176 -20750 1057992574 2132639740
            2138931199 -169390339 570949701</internalNodes>
          <leafValues>
            -5.6923079490661621e-01 8.9970058202743530e-01</leafValues></_>
        <_>
          <internalNodes>
            0 -1 27 -251690865 1894216662 553644287 -33625873 -167805043
            -3145841 -83952897 -97666424</internalNodes>
          <leafValues>
            -5.8770710229873657e-01 8.9205342531204224e-01</leafValues></_>
        <_>
          <internalNodes>
            0 -1 64 -254548529 -134217746 -86100 -134251870 1467875319
            2012610542 2147483629 -74800502</internalNodes>
          <leafValues>
            -5.7674664258956909e-01 8.6913913488388062e-01</leafValues></_>
        <_>
          <internalNodes>
            0 -1 1 -281808981 -1527779602 -1360105852 -534056978
            1468006263 1173782525 1467864900 -245907969</internalNodes>
          <leafValues>
            -6.0009396076202393e-01 8.6249744892120361e-01</leafValues></_>
        <_>
          <internalNodes>
            0 -1 31 419434516 -2063597552 16829785 -745996016
            -2147456886 -251592692 673714578 -2013265840</internalNodes>
          <leafValues>
            -7.0740532875061035e-01 7.7472817897796631e-01</leafValues></_>
        <_>
          <internalNodes>
            0 -1 59 1898053567 -252641417 -235671569 -109445762
            -773477492 -9043970 1473548108 1944190798</internalNodes>
          <leafValues>
            -7.2524487972259521e-01 7.8370332717895508e-01</leafValues></_></weakClassifiers></_>
    <!-- stage 7 -->
    <_>
      <maxWeakCount>6</maxWeakCount>
      <stageThreshold>4.8262929916381836e-01</stageThreshold>
      <weakClassifiers>
        <_>
          <internalNodes>
            0 -1 29 391624512 -4585724 -134219777 -18874560 1575976902
            -268435474 283377534 987758376</internalNodes>
          <leafValues>
            -6.8292683362960815e-01 8.8002926111221313e-01</leafValues></_>
        <_>
          <internalNodes>
            0 -1 11 441537543 -568326110 134218001 1241546768 1078001776
            -931061760 1384203067 -378843125</internalNodes>
          <leafValues>
            -7.1150672435760498e-01 8.3414894342422485e-01</leafValues></_>
        <_>
          <internalNodes>
            0 -1 40 -539819589 527765477 1608453727 1811754715
            2012581883 -1611531269 -268694402 -219135175</internalNodes>
          <leafValues>
            -6.9240510463714600e-01 8.2428336143493652e-01</leafValues></_>
        <_>
          <internalNodes>
            0 -1 61 2130620407 -12552960 -4097 -69894320 587191997
            -38076419 721355725 -1250199823</internalNodes>
          <leafValues>
            -6.9097018241882324e-01 8.2573837041854858e-01</leafValues></_>
        <_>
          <internalNodes>
            0 -1 20 1076780977 -1342312675 788512725 -1342177303
            2147483613 127598500 -136315055 -1494301952</internalNodes>
          <leafValues>
            -6.8092703819274902e-01 7.9202181100845337e-01</leafValues></_>
        <_>
          <internalNodes>
            0 -1 25 19917911 -633385824 2063593301 -704652171 251637695
            -1509978242 -1426064230 -2001763802</internalNodes>
          <leafValues>
            -5.7249879837036133e-01 9.0546017885208130e-01</leafValues></_></weakClassifiers></_>
    <!-- stage 8 -->
    <_>
      <maxWeakCount>6</maxWeakCount>
      <stageThreshold>1.9087341427803040e-01</stageThreshold>
      <weakClassifiers>
        <_>
          <internalNodes>
            0 -1 37 -166996209 -138152483 2147481487 1942944463
            -11567154 -137625601 1997534733 1944048398</internalNodes>
          <leafValues>
            -3.7959182262420654e-01 9.2068427801132202e-01</leafValues></_>
        <_>
          <internalNodes>
            0 -1 28 277337046 352358416 939528269 419528727 -1776279384
            8405032 571015240 411901963</internalNodes>
          <leafValues>
            -7.5135356187820435e-01 7.7719575166702271e-01</leafValues></_>
        <_>
          <internalNodes>
            0 -1 7 304611191 1738735607 -1073745921 -487149973
            1601468277 -8913033 -32769 -344457221</internalNodes>
          <leafValues>
            -6.5494316816329956e-01 7.9681134223937988e-01</leafValues></_>
        <_>
          <internalNodes>
            0 -1 52 -2094874364 -1055915499 17108997 1078001691
            135307401 -2147254269 -2003435383 -633110461</internalNodes>
          <leafValues>
            -7.6622629165649414e-01 7.1446800231933594e-01</leafValues></_>
        <_>
          <internalNodes>
            0 -1 21 1490948546 -1291779967 16851264 289685515 583174299
            1073741859 -1869883370 1936708335</internalNodes>
          <leafValues>
            -8.1324851512908936e-01 6.8082219362258911e-01</leafValues></_>
        <_>
          <internalNodes>
            0 -1 9 2101629 353961728 287904017 -2059337455 270565578
            -1995833216 -1610593917 -2004746168</internalNodes>
          <leafValues>
            -7.1880435943603516e-01 7.4390137195587158e-01</leafValues></_></weakClassifiers></_>
    <!-- stage 9 -->
    <_>
      <maxWeakCount>7</maxWeakCount>
      <stageThreshold>-1.4922307431697845e-01</stageThreshold>
      <weakClassifiers>
        <_>
          <internalNodes>
            0 -1 12 -86392 1425342201 -594 1433698302 -1091114368 -32776
            779887136 -528606</internalNodes>
          <leafValues>
            -5.1546388864517212e-01 8.9080029726028442e-01</leafValues></_>
        <_>
          <internalNodes>
            0 -1 67 -282 1996488703 -269502615 2078801902 -67112117
            1641510854 2012216850 2013246255</internalNodes>
          <leafValues>
            -6.4162808656692505e-01 8.1894797086715698e-01</leafValues></_>
        <_>
          <internalNodes>
            0 -1 34 -268175997 -1072920380 -2147481598 -1073283063
            1094950952 -2139094908 -2142977022 -737861567</internalNodes>
          <leafValues>
            -6.8677353858947754e-01 7.7834397554397583e-01</leafValues></_>
        <_>
          <internalNodes>
            0 -1 70 -544881 1676672591 -1879068926 1186983935
            -1745926649 6782580 910646272 -1060636777</internalNodes>
          <leafValues>
            -6.2121331691741943e-01 8.2174551486968994e-01</leafValues></_>
        <_>
          <internalNodes>
            0 -1 51 -604061935 723893171 -1077953100 792723391 -20711
            -1095501893 1308593437 -1621164055</internalNodes>
          <leafValues>
            -6.3986074924468994e-01 8.1634169816970825e-01</leafValues></_>
        <_>
          <internalNodes>
            0 -1 17 -636195612 -768540188 67109184 -1676144603 143935618
            1218445456 167870587 -1180489584</internalNodes>
          <leafValues>
            -7.6210057735443115e-01 7.1081626415252686e-01</leafValues></_>
        <_>
          <internalNodes>
            0 -1 41 -1068783509 -2147123070 3 1476591625 327688
            -2147483648 172097 -1023196668</internalNodes>
          <leafValues>
            -6.7187827825546265e-01 7.7670967578887939e-01</leafValues></_></weakClassifiers></_>
    <!-- stage 10 -->
    <_>
      <maxWeakCount>7</maxWeakCount>
      <stageThreshold>-2.7968913316726685e-01</stageThreshold>
      <weakClassifiers>
        <_>
          <internalNodes>
            0 -1 0 -270240040 787951534 -285413378 1073688574 -1245228
            1877966847 -134938672 -805339137</internalNodes>
          <leafValues>
            -5.2577316761016846e-01 8.9229619503021240e-01</leafValues></_>
        <_>
          <internalNodes>
            0 -1 54 -9179269 -1221525520 -268447753 -33554443 241505958
            1609760626 -1375793543 -67471369</internalNodes>
          <leafValues>
            -5.6590479612350464e-01 8.5602509975433350e-01</leafValues></_>
        <_>
          <internalNodes>
            0 -1 47 1265848051 -814289417 -319353602 -336413 -528385
            -8912897 -536999174 -546118478</internalNodes>
          <leafValues>
            -6.4629864692687988e-01 8.2545012235641479e-01</leafValues></_>
        <_>
          <internalNodes>
            0 -1 13 -482991885 -268521681 -4177 1827467119 2121684564
            -16810003 -557057 -218269833</internalNodes>
          <leafValues>
            -6.7868936061859131e-01 7.5128328800201416e-01</leafValues></_>
        <_>
          <internalNodes>
            0 -1 57 -1856763176 -1056702448 -2130706157 -1878163448
            201334912 940048384 170428553 -396883804</internalNodes>
          <leafValues>
            -7.7054238319396973e-01 6.8542343378067017e-01</leafValues></_>
        <_>
          <internalNodes>
            0 -1 48 -771518220 1476395268 1073808128 -1122987903
            -1606110998 1212317824 956959242 -662386663</internalNodes>
          <leafValues>
            -7.2200083732604980e-01 7.1862059831619263e-01</leafValues></_>
        <_>
          <internalNodes>
            0 -1 69 1374928906 -989396991 16809994 524294 -1073674240
            131072 8397184 -188227577</internalNodes>
          <leafValues>
            -7.1282273530960083e-01 7.3843556642532349e-01</leafValues></_></weakClassifiers></_>
    <!-- stage 11 -->
    <_>
      <maxWeakCount>8</maxWeakCount>
      <stageThreshold>2.2976683080196381e-01</stageThreshold>
      <weakClassifiers>
        <_>
          <internalNodes>
            0 -1 55 1852767910 913274839 -1114369 -1 -545261569
            -1082654729 -16777241 1433753351</internalNodes>
          <leafValues>
            -6.2790697813034058e-01 8.8226634263992310e-01</leafValues></_>
        <_>
          <internalNodes>
            0 -1 4 1359003740 -1806368767 65600 -615186432 -939196277
            -1711276032 -2004859429 -1689146287</internalNodes>
          <leafValues>
            -7.1497803926467896e-01 7.6637852191925049e-01</leafValues></_>
        <_>
          <internalNodes>
            0 -1 26 204875505 -1083428930 402530299 535568367 267202239
            -1099092353 -1086380809 -1890841988</internalNodes>
          <leafValues>
            -6.4458787441253662e-01 7.9097533226013184e-01</leafValues></_>
        <_>
          <internalNodes>
            0 -1 19 268457177 1762922640 16777363 956309632 268436392
            1283473408 85983389 1855603352</internalNodes>
          <leafValues>
            -7.6881831884384155e-01 7.0237118005752563e-01</leafValues></_>
        <_>
          <internalNodes>
            0 -1 49 -1150946462 -237440448 -1158141128 1333698541
            -1575448 -7766246 2147442508 1869607932</internalNodes>
          <leafValues>
            -7.0311611890792847e-01 7.5996589660644531e-01</leafValues></_>
        <_>
          <internalNodes>
            0 -1 38 -1588559653 -2056241 2011162879 -1025007885
            -536883505 -269053965 -1611199251 -432569089</internalNodes>
          <leafValues>
            -6.7766594886779785e-01 7.8654450178146362e-01</leafValues></_>
        <_>
          <internalNodes>
            0 -1 2 -955563618 1073779260 1157693712 276828160 16908814
            -1709178749 171 -1276778430</internalNodes>
          <leafValues>
            -7.1585029363632202e-01 7.3701220750808716e-01</leafValues></_>
        <_>
          <internalNodes>
            0 -1 6 -1845489200 1494220801 67178525 286277634 143311002
            -1450704888 536903823 990643468</internalNodes>
          <leafValues>
            -7.6914107799530029e-01 6.6593384742736816e-01</leafValues></_></weakClassifiers></_></stages>
  <features>
    <_>
      <rect>
        0 6 4 5</rect></_>
    <_>
      <rect>
        0 10 1 2</rect></_>
    <_>
      <rect>
        0 11 2 3</rect></_>
    <_>
      <rect>
        0 15 1 2</rect></_>
    <_>
      <rect>
        1 0 11 6</rect></_>
    <_>
      <rect>
        1 6 11 2</rect></_>
    <_>
      <rect>
        1 25 3 1</rect></_>
    <_>
      <rect>
        2 4 6 4</rect></_>
    <_>
      <rect>
        2 10 10 3</rect></_>
    <_>
      <rect>
        3 0 3 1</rect></_>
    <_>
      <rect>
        3 4 10 4</rect></_>
    <_>
      <rect>
        3 5 5 3</rect></_>
    <_>
      <rect>
        3 6 3 7</rect></_>
    <_>
      <rect>
        3 7 4 2</rect></_>
    <_>
      <rect>
        3 13 3 3</rect></_>
    <_>
      <rect>
        3 25 3 1</rect></_>
    <_>
      <rect>
        4 3 10 4</rect></_>
    <_>
      <rect>
        4 3 10 5</rect></_>
    <_>
      <rect>
        4 4 5 4</rect></_>
    <_>
      <rect>
        4 22 4 2</rect></_>
    <_>
      <rect>
        6 9 9 3</rect></_>
    <_>
      <rect>
        6 12 3 4</rect></_>
    <_>
      <rect>
        7 6 7 3</rect></_>
    <_>
      <rect>
        7 8 9 2</rect></_>
    <_>
      <rect>
        8 6 9 3</rect></_>
    <_>
      <rect>
        10 2 7 2</rect></_>
    <_>
      <rect>
        10 8 6 1</rect></_>
    <_>
      <rect>
        11 4 4 4</rect></_>
    <_>
      <rect>
        11 6 7 2</rect></_>
    <_>
      <rect>
        11 6 7 5</rect></_>
    <_>
      <rect>
        11 10 4 6</rect></_>
    <_>
      <rect>
        11 25 8 1</rect></_>
    <_>
      <rect>
        12 2 2 7</rect></_>
    <_>
      <rect>
        12 6 3 6</rect></_>
    <_>
      <rect>
        14 3 2 6</rect></_>
    <_>
      <rect>
        14 7 4 3</rect></_>
    <_>
      <rect>
        15 0 4 1</rect></_>
    <_>
      <rect>
        15 2 4 5</rect></_>
    <_>
      <rect>
        15 3 3 4</rect></_>
    <_>
      <rect>
        15 3 4 6</rect></_>
    <_>
      <rect>
        15 4 3 3</rect></_>
    <_>
      <rect>
        15 6 1 4</rect></_>
    <_>
      <rect>
        15 10 4 4</rect></_>
    <_>
      <rect>
        15 14 4 4</rect></_>
    <_>
      <rect>
        15 18 4 2</rect></_>
    <_>
      <rect>
        16 1 1 7</rect></_>
    <_>
      <rect>
        16 2 2 4</rect></_>
    <_>
      <rect>
        16 3 2 4</rect></_>
    <_>
      <rect>
        16 6 2 2</rect></_>
    <_>
      <rect>
        17 4 2 2</rect></_>
    <_>
      <rect>
        18 4 5 4</rect></_>
    <_>
      <rect>
        18 6 6 2</rect></_>
    <_>
      <rect>
        19 0 5 6</rect></_>
    <_>
      <rect>
        19 4 4 4</rect></_>
    <_>
      <rect>
        19 4 5 4</rect></_>
    <_>
      <rect>
        19 7 4 5</rect></_>
    <_>
      <rect>
        20 6 2 3</rect></_>
    <_>
      <rect>
        20 25 4 1</rect></_>
    <_>
      <rect>
        21 3 2 5</rect></_>
    <_>
      <rect>
        21 3 3 5</rect></_>
    <_>
      <rect>
        21 5 4 3</rect></_>
    <_>
      <rect>
        21 5 4 4</rect></_>
    <_>
      <rect>
        24 2 3 7</rect></_>
    <_>
      <rect>
        24 6 3 4</rect></_>
    <_>
      <rect>
        24 6 3 6</rect></_>
    <_>
      <rect>
        24 17 3 3</rect></_>
    <_>
      <rect>
        26 3 1 5</rect></_>
    <_>
      <rect>
        27 11 3 2</rect></_>
    <_>
      <rect>
        29 7 2 4</rect></_>
    <_>
      <rect>
        33 4 1 5</rect></_>
    <_>
      <rect>
        33 10 1 2</rect></_></features></cascade>
</opencv_storage>
