<?xml version="1.0"?>
<opencv_storage>
<cascade>
  <stageType>BOOST</stageType>
  <featureType>LBP</featureType>
  <height>28</height>
  <width>36</width>
  <stageParams>
    <boostType>GAB</boostType>
    <minHitRate>9.9900001287460327e-01</minHitRate>
    <maxFalseAlarm>5.0000000745058060e-02</maxFalseAlarm>
    <weightTrimRate>9.4999999999999996e-01</weightTrimRate>
    <maxDepth>1</maxDepth>
    <maxWeakCount>100</maxWeakCount></stageParams>
  <featureParams>
    <maxCatCount>256</maxCatCount>
    <featSize>1</featSize></featureParams>
  <stageNum>14</stageNum>
  <stages>
    <!-- stage 0 -->
    <_>
      <maxWeakCount>4</maxWeakCount>
      <stageThreshold>4.1451066732406616e-01</stageThreshold>
      <weakClassifiers>
        <_>
          <internalNodes>
            0 -1 49 -33554482 2147483647 -285479292 -1342242834
            -134217794 1945468925 -1052730 -150995026</internalNodes>
          <leafValues>
            -7.0562767982482910e-01 9.6461540460586548e-01</leafValues></_>
        <_>
          <internalNodes>
            0 -1 41 -1047801844 1375830096 1073741824 1083245121
            -2109177854 -2147481575 557208 1442304179</internalNodes>
          <leafValues>
            -7.1261155605316162e-01 9.3826144933700562e-01</leafValues></_>
        <_>
          <internalNodes>
            0 -1 60 -483137613 1936783349 -135008314 -34340873
            -990754833 -210502657 -1042215994 -151787009</internalNodes>
          <leafValues>
            -7.1609461307525635e-01 9.5959246158599854e-01</leafValues></_>
        <_>
          <internalNodes>
            0 -1 67 1144113223 285278218 1342177545 268470273 -536868735
            -1878949371 49192 1407310477</internalNodes>
          <leafValues>
            -7.7227157354354858e-01 9.0026444196701050e-01</leafValues></_></weakClassifiers></_>
    <!-- stage 1 -->
    <_>
      <maxWeakCount>5</maxWeakCount>
      <stageThreshold>-4.9847704172134399e-01</stageThreshold>
      <weakClassifiers>
        <_>
          <internalNodes>
            0 -1 50 -134235218 -680198161 1877847944 1875576815
            -134217821 570425351 -62880728 -138936325</internalNodes>
          <leafValues>
            -6.7713004350662231e-01 9.4954127073287964e-01</leafValues></_>
        <_>
          <internalNodes>
            0 -1 36 -264252954 -805240798 9469952 -787234285 1082164897
            229512 -1861615485 286771975</internalNodes>
          <leafValues>
            -8.0407106876373291e-01 9.0566504001617432e-01</leafValues></_>
        <_>
          <internalNodes>
            0 -1 76 1928000426 -68223384 -3 -68227094 1451186095 -18
            1652490238 -142411858</internalNodes>
          <leafValues>
            -7.8814417123794556e-01 8.7171119451522827e-01</leafValues></_>
        <_>
          <internalNodes>
            0 -1 47 1358983804 -805273520 -1073458659 1470697797
            -1073591928 -939491328 131231 -231230835</internalNodes>
          <leafValues>
            -8.2958966493606567e-01 8.2787555456161499e-01</leafValues></_>
        <_>
          <internalNodes>
            0 -1 62 1936910279 -210634889 -17301513 -134744193
            1877405380 -143261827 -1576978 1734868847</internalNodes>
          <leafValues>
            -7.6674342155456543e-01 8.6672157049179077e-01</leafValues></_></weakClassifiers></_>
    <!-- stage 2 -->
    <_>
      <maxWeakCount>6</maxWeakCount>
      <stageThreshold>2.4482417106628418e-01</stageThreshold>
      <weakClassifiers>
        <_>
          <internalNodes>
            0 -1 45 1377403018 -520026110 438411850 1364623488
            -1593784182 -792641536 -1065352822 1648738434</internalNodes>
          <leafValues>
            -9.1891890764236450e-01 8.8720172643661499e-01</leafValues></_>
        <_>
          <internalNodes>
            0 -1 59 -483262481 -210634889 -135008665 -168624283
            -1511526418 -210501641 -943476914 -137238545</internalNodes>
          <leafValues>
            -6.7564463615417480e-01 9.3139171600341797e-01</leafValues></_>
        <_>
          <internalNodes>
            0 -1 69 -22872073 -1826553896 -270849 997455845 125303807
            -1174732802 218062279 -4196513</internalNodes>
          <leafValues>
            -6.0848355293273926e-01 9.5833665132522583e-01</leafValues></_>
        <_>
          <internalNodes>
            0 -1 38 -259788594 -654245888 268439596 1359036425 16810112
            98432 269189338 823116139</internalNodes>
          <leafValues>
            -7.7603745460510254e-01 8.0516690015792847e-01</leafValues></_>
        <_>
          <internalNodes>
            0 -1 33 -1794844868 -654311424 -1593835055 1359774208
            -2121629525 -1635254128 21635257 -1145356248</internalNodes>
          <leafValues>
            -7.5175732374191284e-01 8.0019336938858032e-01</leafValues></_>
        <_>
          <internalNodes>
            0 -1 52 1497434306 -788463359 -2147479536 -1853222847
            -2012641141 -2105540480 -1996242487 -673525621</internalNodes>
          <leafValues>
            -7.2858792543411255e-01 8.2764148712158203e-01</leafValues></_></weakClassifiers></_>
    <!-- stage 3 -->
    <_>
      <maxWeakCount>6</maxWeakCount>
      <stageThreshold>3.9570093154907227e-01</stageThreshold>
      <weakClassifiers>
        <_>
          <internalNodes>
            0 -1 48 2146434764 -2 -1 -2 -10 -1207959554 2013264894
            2013265838</internalNodes>
          <leafValues>
            -8.1176471710205078e-01 9.0301251411437988e-01</leafValues></_>
        <_>
          <internalNodes>
            0 -1 25 1073778768 -778268671 -1593506551 -649248765
            -2139053843 -397934464 -1945435989 -1945108286</internalNodes>
          <leafValues>
            -7.6348257064819336e-01 8.6915165185928345e-01</leafValues></_>
        <_>
          <internalNodes>
            0 -1 56 -1058566913 -705197581 -889221907 -537436170
            1610583803 -9043983 -1828746501 -546126734</internalNodes>
          <leafValues>
            -7.0346724987030029e-01 8.9567625522613525e-01</leafValues></_>
        <_>
          <internalNodes>
            0 -1 42 278149809 2147466935 788468991 -1649590311
            1073618588 -1082295298 268379630 778633706</internalNodes>
          <leafValues>
            -7.0819914340972900e-01 8.6765074729919434e-01</leafValues></_>
        <_>
          <internalNodes>
            0 -1 64 -704394030 -1827618640 805371935 898566160
            -1945951571 -2137391104 -2147415155 -880655744</internalNodes>
          <leafValues>
            -7.6076066493988037e-01 8.0912315845489502e-01</leafValues></_>
        <_>
          <internalNodes>
            0 -1 82 -940835325 -1493172498 243181056 -2101493777
            -1476950206 -1032323220 -164168190 -521666601</internalNodes>
          <leafValues>
            -6.6425234079360962e-01 8.9787298440933228e-01</leafValues></_></weakClassifiers></_>
    <!-- stage 4 -->
    <_>
      <maxWeakCount>6</maxWeakCount>
      <stageThreshold>3.4140962362289429e-01</stageThreshold>
      <weakClassifiers>
        <_>
          <internalNodes>
            0 -1 12 -81430781 -9240777 -4097 -1570034058 1467250517
            -8913033 -8421377 -76320909</internalNodes>
          <leafValues>
            -3.6531364917755127e-01 9.4444441795349121e-01</leafValues></_>
        <_>
          <internalNodes>
            0 -1 13 2096541610 1423245310 -98308 1425997822 -7640
            2147352573 -1073893888 -4302</internalNodes>
          <leafValues>
            -6.5179699659347534e-01 8.5907846689224243e-01</leafValues></_>
        <_>
          <internalNodes>
            0 -1 20 4145 1081147395 -2130685675 -1811737711 33685723
            -587196288 33685572 -1944715264</internalNodes>
          <leafValues>
            -7.2568541765213013e-01 8.1453067064285278e-01</leafValues></_>
        <_>
          <internalNodes>
            0 -1 80 -884750516 1342521615 1157697537 -1872408576
            -1841250264 -1585315836 -683638464 1398071303</internalNodes>
          <leafValues>
            -8.2454478740692139e-01 7.1936184167861938e-01</leafValues></_>
        <_>
          <internalNodes>
            0 -1 21 -1995964004 -1785704440 285278237 -1190838261
            168315016 -1988100096 -2145347455 -611833696</internalNodes>
          <leafValues>
            -7.1697419881820679e-01 8.0560529232025146e-01</leafValues></_>
        <_>
          <internalNodes>
            0 -1 23 2385 90450425 671087607 -613343915 133177337
            -1342382092 -1363597326 2055215386</internalNodes>
          <leafValues>
            -7.4682897329330444e-01 7.8056055307388306e-01</leafValues></_></weakClassifiers></_>
    <!-- stage 5 -->
    <_>
      <maxWeakCount>6</maxWeakCount>
      <stageThreshold>3.0299702286720276e-01</stageThreshold>
      <weakClassifiers>
        <_>
          <internalNodes>
            0 -1 71 489995782 -101188621 -44 -136314881 939515647
            -1208484873 -69649 628454243</internalNodes>
          <leafValues>
            -7.1428573131561279e-01 8.8029199838638306e-01</leafValues></_>
        <_>
          <internalNodes>
            0 -1 8 1512206707 403882433 1140938117 1141014608 1359036448
            838926592 538992683 1577791695</internalNodes>
          <leafValues>
            -8.0009591579437256e-01 8.2792937755584717e-01</leafValues></_>
        <_>
          <internalNodes>
            0 -1 44 -100466491 1056047055 1474235103 1928826851
            -805318945 -403263501 -1613298947 -424442625</internalNodes>
          <leafValues>
            -6.2531751394271851e-01 8.7602406740188599e-01</leafValues></_>
        <_>
          <internalNodes>
            0 -1 78 -645361170 -1794457599 17301636 1359544321
            -805205877 67712 -1970722674 -83257143</internalNodes>
          <leafValues>
            -7.2127330303192139e-01 8.0496871471405029e-01</leafValues></_>
        <_>
          <internalNodes>
            0 -1 19 2133896241 -1642987616 -288019506 -15597767 -8526602
            -545914890 746434234 -1364743430</internalNodes>
          <leafValues>
            -7.3307114839553833e-01 7.7499330043792725e-01</leafValues></_>
        <_>
          <internalNodes>
            0 -1 2 -1048762 619704046 -22092190 -1496404246 2004352871
            1735751550 -168302778 -1026046905</internalNodes>
          <leafValues>
            -6.9703620672225952e-01 8.0112135410308838e-01</leafValues></_></weakClassifiers></_>
    <!-- stage 6 -->
    <_>
      <maxWeakCount>6</maxWeakCount>
      <stageThreshold>4.1916137933731079e-01</stageThreshold>
      <weakClassifiers>
        <_>
          <internalNodes>
            0 -1 61 -147783758 -80674832 -268447745 -168427523 249923510
            1467154291 -1392537869 -67928201</internalNodes>
          <leafValues>
            -4.5064377784729004e-01 9.2141759395599365e-01</leafValues></_>
        <_>
          <internalNodes>
            0 -1 35 2012737422 1005584051 -1048594 -151265541 -134217729
            -1327499729 -2049 1375729084</internalNodes>
          <leafValues>
            -7.3619264364242554e-01 8.0722016096115112e-01</leafValues></_>
        <_>
          <internalNodes>
            0 -1 29 -251840259 1064774971 536817403 1073425789 -135
            -245764 -1111552916 -808607826</internalNodes>
          <leafValues>
            -6.5532118082046509e-01 8.5064637660980225e-01</leafValues></_>
        <_>
          <internalNodes>
            0 -1 6 1044774429 2086010659 803515950 -11026441 2120087293
            -145358924 -1392529670 -614486411</internalNodes>
          <leafValues>
            -6.8149983882904053e-01 8.1420451402664185e-01</leafValues></_>
        <_>
          <internalNodes>
            0 -1 77 -1073646706 -1998594048 268435457 830701570
            1082778015 -2147450750 469991561 -544414582</internalNodes>
          <leafValues>
            -7.5720989704132080e-01 7.3086452484130859e-01</leafValues></_>
        <_>
          <internalNodes>
            0 -1 26 79699416 1979543544 -1375911937 -1216496131
            919629298 -807502344 767055343 -1164403540</internalNodes>
          <leafValues>
            -6.6607457399368286e-01 8.4698307514190674e-01</leafValues></_></weakClassifiers></_>
    <!-- stage 7 -->
    <_>
      <maxWeakCount>6</maxWeakCount>
      <stageThreshold>3.7391191720962524e-01</stageThreshold>
      <weakClassifiers>
        <_>
          <internalNodes>
            0 -1 10 639850065 1853124199 -1351618561 -1428001039
            930373461 -9078921 -34080969 -831002761</internalNodes>
          <leafValues>
            -5.3846156597137451e-01 8.9520961046218872e-01</leafValues></_>
        <_>
          <internalNodes>
            0 -1 30 1090461895 1911881693 -1862271234 1979449327
            -1241530494 -33554578 -654410833 -1713442162</internalNodes>
          <leafValues>
            -6.0401493310928345e-01 8.8370615243911743e-01</leafValues></_>
        <_>
          <internalNodes>
            0 -1 74 -1358785282 -687865856 1052753 -217017726 1648689288
            -393641840 285213033 -636327511</internalNodes>
          <leafValues>
            -7.4410724639892578e-01 7.5078362226486206e-01</leafValues></_>
        <_>
          <internalNodes>
            0 -1 9 167888222 1393627412 49444 1908589190 -2010479959
            -1610610552 -1568505653 1880584886</internalNodes>
          <leafValues>
            -7.5272202491760254e-01 7.0010679960250854e-01</leafValues></_>
        <_>
          <internalNodes>
            0 -1 17 1426093529 388759553 268468239 -1827454959 947945625
            671612944 167817376 -360183664</internalNodes>
          <leafValues>
            -6.8141144514083862e-01 7.9331755638122559e-01</leafValues></_>
        <_>
          <internalNodes>
            0 -1 57 406851601 -1613228324 -163843 737951164 -1342324747
            -1073741826 -1078070023 -1123415975</internalNodes>
          <leafValues>
            -6.6929686069488525e-01 8.0812919139862061e-01</leafValues></_></weakClassifiers></_>
    <!-- stage 8 -->
    <_>
      <maxWeakCount>6</maxWeakCount>
      <stageThreshold>3.9692333340644836e-01</stageThreshold>
      <weakClassifiers>
        <_>
          <internalNodes>
            0 -1 58 -545525962 993132529 -1343238924 1064828921
            -1073754145 993263603 -805368372 1060306943</internalNodes>
          <leafValues>
            -4.6666666865348816e-01 9.0007567405700684e-01</leafValues></_>
        <_>
          <internalNodes>
            0 -1 7 -144185497 -557187 -8388618 -857264154 -143362699
            -150997185 -8486929 -168329361</internalNodes>
          <leafValues>
            -4.9726858735084534e-01 8.8771003484725952e-01</leafValues></_>
        <_>
          <internalNodes>
            0 -1 3 -402915858 -52035585 -285216769 -294654870 -9046020
            -8486921 1417069804 1147658077</internalNodes>
          <leafValues>
            -6.6181057691574097e-01 7.8353995084762573e-01</leafValues></_>
        <_>
          <internalNodes>
            0 -1 24 1351061699 -505544853 -924909891 -735150170
            -730565130 -1066270721 1081539957 -1054363601</internalNodes>
          <leafValues>
            -6.5365511178970337e-01 7.8592699766159058e-01</leafValues></_>
        <_>
          <internalNodes>
            0 -1 68 -331777 -92209200 -8197 -786778 199698289 -393222
            218042332 -1074300983</internalNodes>
          <leafValues>
            -6.8311649560928345e-01 8.0420494079589844e-01</leafValues></_>
        <_>
          <internalNodes>
            0 -1 37 1899094510 1076367569 1610859784 17006829 1114264 10
            50432968 1803546755</internalNodes>
          <leafValues>
            -8.3763068914413452e-01 6.7242294549942017e-01</leafValues></_></weakClassifiers></_>
    <!-- stage 9 -->
    <_>
      <maxWeakCount>6</maxWeakCount>
      <stageThreshold>4.0284061431884766e-01</stageThreshold>
      <weakClassifiers>
        <_>
          <internalNodes>
            0 -1 55 -855929766 -302015396 -822113059 -537400074
            -268436297 -537395341 -1074819841 -10238349</internalNodes>
          <leafValues>
            -4.0611353516578674e-01 9.0937018394470215e-01</leafValues></_>
        <_>
          <internalNodes>
            0 -1 75 1894250003 -790954385 -170526753 -783024134
            1467447175 -1060765697 1734799247 1075033895</internalNodes>
          <leafValues>
            -5.8621305227279663e-01 8.6247330904006958e-01</leafValues></_>
        <_>
          <internalNodes>
            0 -1 32 -1554983788 -1794113404 1116742147 -1285685055
            1749689496 184615426 696582675 -1431959487</internalNodes>
          <leafValues>
            -7.6604098081588745e-01 7.3108297586441040e-01</leafValues></_>
        <_>
          <internalNodes>
            0 -1 43 -1720450608 -142836120 -344075 1610415999
            -1359183907 -1342308377 -1073991696 -1944048356</internalNodes>
          <leafValues>
            -6.8996757268905640e-01 7.6376181840896606e-01</leafValues></_>
        <_>
          <internalNodes>
            0 -1 40 -259530457 -786825152 289406978 -2063597567
            -2130690006 -1067319164 -1857961941 -737680894</internalNodes>
          <leafValues>
            -6.8256425857543945e-01 7.8834038972854614e-01</leafValues></_>
        <_>
          <internalNodes>
            0 -1 66 -1077948553 -1507131398 -8254 -80740353 2138996636
            -1480916998 1610571133 -1900879915</internalNodes>
          <leafValues>
            -6.7121440172195435e-01 7.6956993341445923e-01</leafValues></_></weakClassifiers></_>
    <!-- stage 10 -->
    <_>
      <maxWeakCount>6</maxWeakCount>
      <stageThreshold>5.7200598716735840e-01</stageThreshold>
      <weakClassifiers>
        <_>
          <internalNodes>
            0 -1 54 -1905259279 -805966089 -554176769 -20754 2146938877
            -663555 -1879585025 -562854750</internalNodes>
          <leafValues>
            -4.2600896954536438e-01 9.0672785043716431e-01</leafValues></_>
        <_>
          <internalNodes>
            0 -1 11 2132146909 -95289735 710224638 -11292937 -10635313
            -149553153 -337793293 -1084903691</internalNodes>
          <leafValues>
            -4.9404689669609070e-01 8.8370263576507568e-01</leafValues></_>
        <_>
          <internalNodes>
            0 -1 0 -137075762 -1074725146 -134774795 -1351176403
            -176886025 -176881682 -9111574 -1074036738</internalNodes>
          <leafValues>
            -5.8805298805236816e-01 8.3778303861618042e-01</leafValues></_>
        <_>
          <internalNodes>
            0 -1 34 4993273 -736600064 805306513 922779864 -1610567526
            -1475837944 301998158 -1960738608</internalNodes>
          <leafValues>
            -6.4223623275756836e-01 7.7467101812362671e-01</leafValues></_>
        <_>
          <internalNodes>
            0 -1 4 -531913654 -2113814502 0 -1040056310 16842763
            16777218 -2139095040 -254545697</internalNodes>
          <leafValues>
            -7.1710658073425293e-01 7.5299298763275146e-01</leafValues></_>
        <_>
          <internalNodes>
            0 -1 63 -1651785677 -2097020399 -1811873659 -1953923055
            1208977569 1744896139 262798 -357717720</internalNodes>
          <leafValues>
            -6.8793594837188721e-01 7.5124382972717285e-01</leafValues></_></weakClassifiers></_>
    <!-- stage 11 -->
    <_>
      <maxWeakCount>7</maxWeakCount>
      <stageThreshold>-3.4104382991790771e-01</stageThreshold>
      <weakClassifiers>
        <_>
          <internalNodes>
            0 -1 51 -1102322 -1916946 -1081626844 -65540 -16386
            939343868 -536871044 1360388060</internalNodes>
          <leafValues>
            -7.3239433765411377e-01 8.6033117771148682e-01</leafValues></_>
        <_>
          <internalNodes>
            0 -1 65 -2130457405 37978377 8519685 -2004353021 -2088630110
            -1442709495 -2129819551 -880571253</internalNodes>
          <leafValues>
            -6.2593251466751099e-01 8.6862051486968994e-01</leafValues></_>
        <_>
          <internalNodes>
            0 -1 70 2144006003 -12552384 -4098 -622776 452970047
            -38076427 251626447 939259513</internalNodes>
          <leafValues>
            -6.2264245748519897e-01 8.0296230316162109e-01</leafValues></_>
        <_>
          <internalNodes>
            0 -1 14 1359271946 -1878814157 21516566 319819793
            -1071574328 134217728 -1610545144 -99688434</internalNodes>
          <leafValues>
            -7.3087871074676514e-01 7.0140570402145386e-01</leafValues></_>
        <_>
          <internalNodes>
            0 -1 54 2050064530 -788426752 16777536 805458688 -1342119031
            -1862227958 813719905 -514275310</internalNodes>
          <leafValues>
            -7.0158028602600098e-01 7.1767693758010864e-01</leafValues></_>
        <_>
          <internalNodes>
            0 -1 53 -1951465729 435437556 250511357 535662588 2147336189
            213450748 -180356 -1879056907</internalNodes>
          <leafValues>
            -6.7933326959609985e-01 7.5125366449356079e-01</leafValues></_>
        <_>
          <internalNodes>
            0 -1 28 507517392 2031169539 4245 -644808687 -2147385206
            -880770678 -2147477189 463994888</internalNodes>
          <leafValues>
            -7.6116555929183960e-01 6.6319668292999268e-01</leafValues></_></weakClassifiers></_>
    <!-- stage 12 -->
    <_>
      <maxWeakCount>7</maxWeakCount>
      <stageThreshold>-2.9848513007164001e-01</stageThreshold>
      <weakClassifiers>
        <_>
          <internalNodes>
            0 -1 72 -134217748 -180228 -16842776 -805437714 -176292877
            869560784 2147483533 1199387645</internalNodes>
          <leafValues>
            -5.4802262783050537e-01 8.7740027904510498e-01</leafValues></_>
        <_>
          <internalNodes>
            0 -1 5 -1677044909 -1069543295 -2138955437 -2146136048
            1149239815 -1442709376 545734842 -628602869</internalNodes>
          <leafValues>
            -6.4865899085998535e-01 7.9627245664596558e-01</leafValues></_>
        <_>
          <internalNodes>
            0 -1 27 302580618 -1006403520 131072 -1828716287 -1525968181
            33554432 1162063403 -1104445429</internalNodes>
          <leafValues>
            -6.7857450246810913e-01 7.7362704277038574e-01</leafValues></_>
        <_>
          <internalNodes>
            0 -1 69 1805910015 -1817116720 -270849 2143877111 796351487
            -1309474818 486497740 -1141114881</internalNodes>
          <leafValues>
            -6.6432493925094604e-01 7.5939142704010010e-01</leafValues></_>
        <_>
          <internalNodes>
            0 -1 16 -323186471 -229636 1073512187 -37962124 930758105
            -131076 -1221836804 -1669854068</internalNodes>
          <leafValues>
            -6.9521993398666382e-01 7.9060143232345581e-01</leafValues></_>
        <_>
          <internalNodes>
            0 -1 22 119014480 -2129297216 285212699 -787934200 10419
            -1929215872 134383835 -1373110232</internalNodes>
          <leafValues>
            -7.3075270652770996e-01 6.5098512172698975e-01</leafValues></_>
        <_>
          <internalNodes>
            0 -1 39 -754477373 -562036711 289 -717160446 -1073327612
            805642248 1073811792 -83418304</internalNodes>
          <leafValues>
            -6.5269213914871216e-01 7.7950686216354370e-01</leafValues></_></weakClassifiers></_>
    <!-- stage 13 -->
    <_>
      <maxWeakCount>8</maxWeakCount>
      <stageThreshold>4.1834121942520142e-01</stageThreshold>
      <weakClassifiers>
        <_>
          <internalNodes>
            0 -1 46 251969500 1072791534 1073642972 763361279 1002160124
            1064173299 468653976 1064710780</internalNodes>
          <leafValues>
            -6.4238411188125610e-01 8.6086958646774292e-01</leafValues></_>
        <_>
          <internalNodes>
            0 -1 79 -274276918 1083101164 -1035071744 -791765044
            1569953690 30990101 1998102300 -685778963</internalNodes>
          <leafValues>
            -6.1473160982131958e-01 8.1218564510345459e-01</leafValues></_>
        <_>
          <internalNodes>
            0 -1 18 1430383729 1903558519 -29955395 -142890138 -42602787
            -581435657 1741809529 1853360618</internalNodes>
          <leafValues>
            -6.8000590801239014e-01 7.8546237945556641e-01</leafValues></_>
        <_>
          <internalNodes>
            0 -1 73 -804286064 -2146627318 33554432 1327104 32936
            -2013265910 -2113763286 -1936998014</internalNodes>
          <leafValues>
            -6.9360512495040894e-01 7.6212882995605469e-01</leafValues></_>
        <_>
          <internalNodes>
            0 -1 81 -134220273 1660944235 -1343246846 1743777516
            -2039100926 181763936 -165200384 -491786282</internalNodes>
          <leafValues>
            -6.4950674772262573e-01 7.8412675857543945e-01</leafValues></_>
        <_>
          <internalNodes>
            0 -1 15 -1878540149 285312320 1073813506 -720109568
            1476495498 46268544 -805306232 -269752310</internalNodes>
          <leafValues>
            -6.4220464229583740e-01 7.5250995159149170e-01</leafValues></_>
        <_>
          <internalNodes>
            0 -1 31 -263720887 -1979227872 1207960355 360775680
            -838827753 -2013001728 -1551888371 -115779583</internalNodes>
          <leafValues>
            -7.2252804040908813e-01 7.1033895015716553e-01</leafValues></_>
        <_>
          <internalNodes>
            0 -1 1 1135331467 1073938634 4194752 -2147352317 25731587 0
            1343481859 -506740415</internalNodes>
          <leafValues>
            -6.9444507360458374e-01 7.7518713474273682e-01</leafValues></_></weakClassifiers></_></stages>
  <features>
    <_>
      <rect>
        0 5 9 4</rect></_>
    <_>
      <rect>
        0 9 1 2</rect></_>
    <_>
      <rect>
        0 13 1 3</rect></_>
    <_>
      <rect>
        0 13 3 3</rect></_>
    <_>
      <rect>
        0 16 1 3</rect></_>
    <_>
      <rect>
        2 4 5 3</rect></_>
    <_>
      <rect>
        2 4 11 4</rect></_>
    <_>
      <rect>
        2 5 5 3</rect></_>
    <_>
      <rect>
        2 5 6 3</rect></_>
    <_>
      <rect>
        2 7 8 6</rect></_>
    <_>
      <rect>
        3 2 5 5</rect></_>
    <_>
      <rect>
        3 2 10 5</rect></_>
    <_>
      <rect>
        3 4 5 4</rect></_>
    <_>
      <rect>
        3 7 3 7</rect></_>
    <_>
      <rect>
        3 10 3 4</rect></_>
    <_>
      <rect>
        3 13 3 3</rect></_>
    <_>
      <rect>
        3 25 3 1</rect></_>
    <_>
      <rect>
        3 25 4 1</rect></_>
    <_>
      <rect>
        4 4 9 4</rect></_>
    <_>
      <rect>
        6 4 9 4</rect></_>
    <_>
      <rect>
        6 10 9 2</rect></_>
    <_>
      <rect>
        6 25 4 1</rect></_>
    <_>
      <rect>
        7 0 5 1</rect></_>
    <_>
      <rect>
        7 0 8 1</rect></_>
    <_>
      <rect>
        8 4 2 5</rect></_>
    <_>
      <rect>
        8 8 7 2</rect></_>
    <_>
      <rect>
        8 25 7 1</rect></_>
    <_>
      <rect>
        9 17 3 3</rect></_>
    <_>
      <rect>
        10 0 5 1</rect></_>
    <_>
      <rect>
        10 6 5 2</rect></_>
    <_>
      <rect>
        11 5 4 4</rect></_>
    <_>
      <rect>
        11 6 4 3</rect></_>
    <_>
      <rect>
        11 6 8 3</rect></_>
    <_>
      <rect>
        11 7 8 3</rect></_>
    <_>
      <rect>
        11 8 5 1</rect></_>
    <_>
      <rect>
        12 8 3 5</rect></_>
    <_>
      <rect>
        12 9 3 5</rect></_>
    <_>
      <rect>
        12 13 6 4</rect></_>
    <_>
      <rect>
        12 18 3 2</rect></_>
    <_>
      <rect>
        13 2 2 7</rect></_>
    <_>
      <rect>
        13 4 2 6</rect></_>
    <_>
      <rect>
        13 5 5 4</rect></_>
    <_>
      <rect>
        13 8 4 1</rect></_>
    <_>
      <rect>
        14 25 6 1</rect></_>
    <_>
      <rect>
        15 3 3 4</rect></_>
    <_>
      <rect>
        15 6 4 7</rect></_>
    <_>
      <rect>
        15 6 5 2</rect></_>
    <_>
      <rect>
        15 6 6 3</rect></_>
    <_>
      <rect>
        15 7 4 4</rect></_>
    <_>
      <rect>
        15 10 4 4</rect></_>
    <_>
      <rect>
        15 12 4 4</rect></_>
    <_>
      <rect>
        15 17 4 3</rect></_>
    <_>
      <rect>
        15 18 4 2</rect></_>
    <_>
      <rect>
        15 19 2 3</rect></_>
    <_>
      <rect>
        16 0 2 5</rect></_>
    <_>
      <rect>
        16 4 2 4</rect></_>
    <_>
      <rect>
        16 5 2 3</rect></_>
    <_>
      <rect>
        17 0 4 1</rect></_>
    <_>
      <rect>
        18 6 5 2</rect></_>
    <_>
      <rect>
        19 3 4 5</rect></_>
    <_>
      <rect>
        19 4 4 4</rect></_>
    <_>
      <rect>
        19 4 5 4</rect></_>
    <_>
      <rect>
        19 5 4 4</rect></_>
    <_>
      <rect>
        19 5 5 3</rect></_>
    <_>
      <rect>
        19 6 5 3</rect></_>
    <_>
      <rect>
        20 4 3 4</rect></_>
    <_>
      <rect>
        20 4 5 3</rect></_>
    <_>
      <rect>
        21 2 3 6</rect></_>
    <_>
      <rect>
        21 4 4 4</rect></_>
    <_>
      <rect>
        21 5 4 3</rect></_>
    <_>
      <rect>
        21 5 4 4</rect></_>
    <_>
      <rect>
        21 7 3 5</rect></_>
    <_>
      <rect>
        21 11 3 5</rect></_>
    <_>
      <rect>
        21 12 1 4</rect></_>
    <_>
      <rect>
        22 3 4 4</rect></_>
    <_>
      <rect>
        23 6 2 4</rect></_>
    <_>
      <rect>
        24 1 3 7</rect></_>
    <_>
      <rect>
        24 3 3 7</rect></_>
    <_>
      <rect>
        24 17 3 3</rect></_>
    <_>
      <rect>
        25 16 2 3</rect></_>
    <_>
      <rect>
        27 5 3 7</rect></_>
    <_>
      <rect>
        33 9 1 3</rect></_>
    <_>
      <rect>
        33 11 1 2</rect></_></features></cascade>
</opencv_storage>
