<?xml version="1.0"?>
<opencv_storage>
<cascade>
  <stageType>BOOST</stageType>
  <featureType>LBP</featureType>
  <height>28</height>
  <width>36</width>
  <stageParams>
    <boostType>GAB</boostType>
    <minHitRate>9.9900001287460327e-01</minHitRate>
    <maxFalseAlarm>5.0000000745058060e-02</maxFalseAlarm>
    <weightTrimRate>9.4999999999999996e-01</weightTrimRate>
    <maxDepth>1</maxDepth>
    <maxWeakCount>100</maxWeakCount></stageParams>
  <featureParams>
    <maxCatCount>256</maxCatCount>
    <featSize>1</featSize></featureParams>
  <stageNum>13</stageNum>
  <stages>
    <!-- stage 0 -->
    <_>
      <maxWeakCount>5</maxWeakCount>
      <stageThreshold>1.0754801034927368e+00</stageThreshold>
      <weakClassifiers>
        <_>
          <internalNodes>
            0 -1 47 -1048692 2128740349 -2 2147483583 -84 -1073741828
            2013265646 386924526</internalNodes>
          <leafValues>
            -8.0094784498214722e-01 9.5454543828964233e-01</leafValues></_>
        <_>
          <internalNodes>
            0 -1 35 -803801628 1359168301 1073785088 -214319103
            -2147385158 16973826 -2113764466 1376485547</internalNodes>
          <leafValues>
            -7.5075650215148926e-01 9.3426376581192017e-01</leafValues></_>
        <_>
          <internalNodes>
            0 -1 73 -695674424 -784302072 32776 -784171008 1358995626
            -1333788672 102542 -217349970</internalNodes>
          <leafValues>
            -8.1042480468750000e-01 9.1334396600723267e-01</leafValues></_>
        <_>
          <internalNodes>
            0 -1 68 -221850930 1360560385 -1874788222 285573192 33178
            1082130432 -1576828790 1940324623</internalNodes>
          <leafValues>
            -8.3560872077941895e-01 8.7900263071060181e-01</leafValues></_>
        <_>
          <internalNodes>
            0 -1 46 -683388659 -595521211 16879789 419434561 -2013233012
            -788529087 -402115957 1361936651</internalNodes>
          <leafValues>
            -8.0649447441101074e-01 8.7358641624450684e-01</leafValues></_></weakClassifiers></_>
    <!-- stage 1 -->
    <_>
      <maxWeakCount>5</maxWeakCount>
      <stageThreshold>1.0557249784469604e+00</stageThreshold>
      <weakClassifiers>
        <_>
          <internalNodes>
            0 -1 31 1342220176 -1626554448 -615 -537002058 -268435525
            -562503768 326973423 -1094776022</internalNodes>
          <leafValues>
            -4.7656250000000000e-01 9.5137256383895874e-01</leafValues></_>
        <_>
          <internalNodes>
            0 -1 60 1714679731 -149915856 -16842753 -8912907 -1358983262
            -411959439 -1879060753 1735620565</internalNodes>
          <leafValues>
            -6.7559337615966797e-01 9.1362655162811279e-01</leafValues></_>
        <_>
          <internalNodes>
            0 -1 57 36737987 -753909503 -1333771883 -720267181
            -939521120 -671022976 -2147415653 -142491617</internalNodes>
          <leafValues>
            -6.8758136034011841e-01 8.7949192523956299e-01</leafValues></_>
        <_>
          <internalNodes>
            0 -1 39 4436 -2063531760 1342193929 -1827598063 276990139
            -1149173621 526585 722995312</internalNodes>
          <leafValues>
            -7.9654926061630249e-01 7.9601770639419556e-01</leafValues></_>
        <_>
          <internalNodes>
            0 -1 34 1275589058 -771649515 -2146287283 -1325334079
            -1878814525 -2130181624 -1476276085 1344391399</internalNodes>
          <leafValues>
            -8.9221692085266113e-01 7.1589976549148560e-01</leafValues></_></weakClassifiers></_>
    <!-- stage 2 -->
    <_>
      <maxWeakCount>6</maxWeakCount>
      <stageThreshold>5.4681658744812012e-01</stageThreshold>
      <weakClassifiers>
        <_>
          <internalNodes>
            0 -1 24 1140915728 1561394096 1072656117 -74 -541261831
            -541196365 704491003 -1115869300</internalNodes>
          <leafValues>
            -5.8158993721008301e-01 9.5201236009597778e-01</leafValues></_>
        <_>
          <internalNodes>
            0 -1 52 1073938523 -780009472 17 -788332512 -2139029366
            -1207959552 -2130673527 -738041341</internalNodes>
          <leafValues>
            -7.1900868415832520e-01 9.1873854398727417e-01</leafValues></_>
        <_>
          <internalNodes>
            0 -1 27 281023512 905740281 -1107542027 -1086571011
            382750200 266108408 767071724 -1735912436</internalNodes>
          <leafValues>
            -6.4584314823150635e-01 9.1630393266677856e-01</leafValues></_>
        <_>
          <internalNodes>
            0 -1 23 524582361 1493237665 2105523967 2133983159
            -1644830726 -577372237 744172239 -1089786694</internalNodes>
          <leafValues>
            -5.7866555452346802e-01 9.5100146532058716e-01</leafValues></_>
        <_>
          <internalNodes>
            0 -1 25 285224976 1367375889 285216889 352845825 1074266280
            -2013265920 264360 453246980</internalNodes>
          <leafValues>
            -7.7729052305221558e-01 7.9198992252349854e-01</leafValues></_>
        <_>
          <internalNodes>
            0 -1 70 805355804 -2097152000 738238517 285409281 131472
            -2004287488 140 -1886728190</internalNodes>
          <leafValues>
            -8.1581538915634155e-01 8.3048659563064575e-01</leafValues></_></weakClassifiers></_>
    <!-- stage 3 -->
    <_>
      <maxWeakCount>6</maxWeakCount>
      <stageThreshold>5.3579008579254150e-01</stageThreshold>
      <weakClassifiers>
        <_>
          <internalNodes>
            0 -1 48 -50331666 2145517565 -1358958970 -2 -134217794
            2013233151 -286265404 -155193362</internalNodes>
          <leafValues>
            -6.6363638639450073e-01 9.4355452060699463e-01</leafValues></_>
        <_>
          <internalNodes>
            0 -1 51 -915305413 -545796877 -1124628229 -17380125
            -536900353 -8912905 -822212366 -831290317</internalNodes>
          <leafValues>
            -5.8769911527633667e-01 9.2618644237518311e-01</leafValues></_>
        <_>
          <internalNodes>
            0 -1 0 570454130 420579392 67309776 318767376 16821130
            1073807370 690077851 1563283458</internalNodes>
          <leafValues>
            -8.6460167169570923e-01 7.8830248117446899e-01</leafValues></_>
        <_>
          <internalNodes>
            0 -1 64 -243023673 -1828683758 3227910 -2130181887
            -2147466542 -1979645823 -2147319551 -397514362</internalNodes>
          <leafValues>
            -6.8788820505142212e-01 8.8025051355361938e-01</leafValues></_>
        <_>
          <internalNodes>
            0 -1 75 -697845809 2080309230 -2 -5837280 1937244159
            2013265917 2080358382 -19993974</internalNodes>
          <leafValues>
            -6.1850738525390625e-01 8.8154578208923340e-01</leafValues></_>
        <_>
          <internalNodes>
            0 -1 18 -143169629 -18944737 -36993 1760444022 1970762849
            -16779281 1962311615 -422052041</internalNodes>
          <leafValues>
            -6.9319653511047363e-01 8.3704638481140137e-01</leafValues></_></weakClassifiers></_>
    <!-- stage 4 -->
    <_>
      <maxWeakCount>6</maxWeakCount>
      <stageThreshold>4.7908791899681091e-01</stageThreshold>
      <weakClassifiers>
        <_>
          <internalNodes>
            0 -1 36 -427823570 12576511 -1086258930 -1208484865
            1995952081 4224245 -2147353665 1440467627</internalNodes>
          <leafValues>
            -7.1257483959197998e-01 8.8709676265716553e-01</leafValues></_>
        <_>
          <internalNodes>
            0 -1 63 -1089225181 -281870446 -1356599373 -327942174
            2134392731 2134899575 1823145647 -860885329</internalNodes>
          <leafValues>
            -6.4884579181671143e-01 9.1508406400680542e-01</leafValues></_>
        <_>
          <internalNodes>
            0 -1 12 1511118151 2031223937 16777249 1079003145 327680
            -1342177135 -1593784165 -277436727</internalNodes>
          <leafValues>
            -6.5560865402221680e-01 8.4983164072036743e-01</leafValues></_>
        <_>
          <internalNodes>
            0 -1 59 -75764166 858980272 -12290 738000895 267848447
            2041772019 -1912664481 -541360161</internalNodes>
          <leafValues>
            -6.6834527254104614e-01 8.5920721292495728e-01</leafValues></_>
        <_>
          <internalNodes>
            0 -1 33 1412919509 1912601326 284883709 2113764302 -33556587
            -65682 -218105106 -78807924</internalNodes>
          <leafValues>
            -6.1609244346618652e-01 8.5946267843246460e-01</leafValues></_>
        <_>
          <internalNodes>
            0 -1 14 1430769830 830800257 -2146959264 285348096
            -1325236214 16976514 1362804872 -1492131560</internalNodes>
          <leafValues>
            -7.3851674795150757e-01 7.4756217002868652e-01</leafValues></_></weakClassifiers></_>
    <!-- stage 5 -->
    <_>
      <maxWeakCount>6</maxWeakCount>
      <stageThreshold>3.0657911300659180e-01</stageThreshold>
      <weakClassifiers>
        <_>
          <internalNodes>
            0 -1 45 -114 -83951618 -2 2147483630 -90 -17 -202376210
            1945091566</internalNodes>
          <leafValues>
            -7.6543211936950684e-01 8.8750910758972168e-01</leafValues></_>
        <_>
          <internalNodes>
            0 -1 22 205299509 788327957 251641813 -1073741839 -33
            -270991580 -538968831 -1439825920</internalNodes>
          <leafValues>
            -6.7131948471069336e-01 8.8478130102157593e-01</leafValues></_>
        <_>
          <internalNodes>
            0 -1 74 1880592908 -1425530618 1075872113 -771121112
            557945479 -2080243706 537367300 -263587122</internalNodes>
          <leafValues>
            -7.7762746810913086e-01 7.9403412342071533e-01</leafValues></_>
        <_>
          <internalNodes>
            0 -1 17 876674389 -244189327 -1357518151 -9192458 2102783709
            -44040457 659615743 -1619916703</internalNodes>
          <leafValues>
            -7.0427173376083374e-01 8.5845005512237549e-01</leafValues></_>
        <_>
          <internalNodes>
            0 -1 79 -939272310 -2146959229 33792 -2147352445 -1056194047
            1107331104 268867138 1396937099</internalNodes>
          <leafValues>
            -7.5150370597839355e-01 7.3421603441238403e-01</leafValues></_>
        <_>
          <internalNodes>
            0 -1 4 -1610397883 -2130345965 1081429 -1861090810
            -1845444220 -1706426232 -1022655735 -1310736317</internalNodes>
          <leafValues>
            -7.1802818775177002e-01 7.9770904779434204e-01</leafValues></_></weakClassifiers></_>
    <!-- stage 6 -->
    <_>
      <maxWeakCount>6</maxWeakCount>
      <stageThreshold>5.5345249176025391e-01</stageThreshold>
      <weakClassifiers>
        <_>
          <internalNodes>
            0 -1 62 -1369378832 867237872 -7 1073086325 -1358975057
            -1342701569 268373838 1878488917</internalNodes>
          <leafValues>
            -5.8288770914077759e-01 8.9285713434219360e-01</leafValues></_>
        <_>
          <internalNodes>
            0 -1 66 -1146032133 -1834942510 -270849 1061746662
            1333263343 -1309409281 754933196 -67111073</internalNodes>
          <leafValues>
            -5.6605237722396851e-01 8.8816004991531372e-01</leafValues></_>
        <_>
          <internalNodes>
            0 -1 38 -754728957 -682510377 2001990949 -17303597
            -968359971 -532154521 -184191105 -485099774</internalNodes>
          <leafValues>
            -5.9063267707824707e-01 8.7665331363677979e-01</leafValues></_>
        <_>
          <internalNodes>
            0 -1 19 286265368 -1877999600 536903825 -1781398899 152
            973602824 135266776 -1157103224</internalNodes>
          <leafValues>
            -6.8952912092208862e-01 7.5735330581665039e-01</leafValues></_>
        <_>
          <internalNodes>
            0 -1 10 1096013905 -1056927455 402735489 -1459617711
            277282817 -536739551 -1048071645 -757743595</internalNodes>
          <leafValues>
            -7.0148831605911255e-01 7.9593360424041748e-01</leafValues></_>
        <_>
          <internalNodes>
            0 -1 42 268439953 520355968 -1996471011 352403474
            -1593797717 -1467708912 35246 -1895151488</internalNodes>
          <leafValues>
            -6.7030537128448486e-01 7.8294789791107178e-01</leafValues></_></weakClassifiers></_>
    <!-- stage 7 -->
    <_>
      <maxWeakCount>7</maxWeakCount>
      <stageThreshold>8.2231247425079346e-01</stageThreshold>
      <weakClassifiers>
        <_>
          <internalNodes>
            0 -1 50 -1077956952 -3031058 2147065644 -131075 -4218883
            905281533 -1174667267 1889066361</internalNodes>
          <leafValues>
            -6.8715083599090576e-01 8.9792901277542114e-01</leafValues></_>
        <_>
          <internalNodes>
            0 -1 16 1731329873 -25690250 -285233153 -1434472710
            -565086347 -8945801 2138570622 -345575453</internalNodes>
          <leafValues>
            -6.3085484504699707e-01 8.4063327312469482e-01</leafValues></_>
        <_>
          <internalNodes>
            0 -1 69 -577851042 1078525954 -1006632704 -938721268
            1686230147 1623244849 -2121695221 1930007003</internalNodes>
          <leafValues>
            -7.4573051929473877e-01 7.9235661029815674e-01</leafValues></_>
        <_>
          <internalNodes>
            0 -1 56 -210531227 -13435017 -65553 -987141 -839659545
            -9043969 -562901779 -577613867</internalNodes>
          <leafValues>
            -6.9537109136581421e-01 8.0179661512374878e-01</leafValues></_>
        <_>
          <internalNodes>
            0 -1 32 -150478334 -403714363 -268438673 -269491277
            -184568565 -806505212 -135266321 -968384377</internalNodes>
          <leafValues>
            -6.9231134653091431e-01 7.6039391756057739e-01</leafValues></_>
        <_>
          <internalNodes>
            0 -1 9 151263640 -1744567744 33041 -1659105136 -1585178383
            -938999420 -1475864382 830484824</internalNodes>
          <leafValues>
            -7.7577215433120728e-01 6.5872925519943237e-01</leafValues></_>
        <_>
          <internalNodes>
            0 -1 55 -784143362 151142402 -2142617236 -1515814768
            -1610563584 134742056 426092 1672859085</internalNodes>
          <leafValues>
            -8.1307965517044067e-01 6.4634597301483154e-01</leafValues></_></weakClassifiers></_>
    <!-- stage 8 -->
    <_>
      <maxWeakCount>7</maxWeakCount>
      <stageThreshold>3.1837996095418930e-02</stageThreshold>
      <weakClassifiers>
        <_>
          <internalNodes>
            0 -1 77 -268456050 1476394991 -262172 -167774474 -97
            -167772161 1987933504 1901326419</internalNodes>
          <leafValues>
            -4.8858448863029480e-01 9.1310977935791016e-01</leafValues></_>
        <_>
          <internalNodes>
            0 -1 5 290792153 -211685389 -293803265 2138410737 -65683723
            -44695553 -183369730 -548028681</internalNodes>
          <leafValues>
            -5.4198789596557617e-01 8.8255500793457031e-01</leafValues></_>
        <_>
          <internalNodes>
            0 -1 40 -134221333 1095073751 -144244929 1365245927
            1694494347 -1059619249 -134217745 -1067747541</internalNodes>
          <leafValues>
            -4.9494865536689758e-01 9.0627908706665039e-01</leafValues></_>
        <_>
          <internalNodes>
            0 -1 28 151001077 -653783032 268435473 470810768 -1744797032
            -1836515328 134226697 -1994848232</internalNodes>
          <leafValues>
            -6.4339071512222290e-01 7.8119248151779175e-01</leafValues></_>
        <_>
          <internalNodes>
            0 -1 7 -147657269 -17928402 -69665 619589485 -25934477
            2130083711 -51201 -134250650</internalNodes>
          <leafValues>
            -6.6578382253646851e-01 7.7651989459991455e-01</leafValues></_>
        <_>
          <internalNodes>
            0 -1 80 -939554269 1341128303 -1342230880 -1497370708
            1207275264 6716004 1726363394 -991429017</internalNodes>
          <leafValues>
            -6.7998510599136353e-01 8.1210064888000488e-01</leafValues></_>
        <_>
          <internalNodes>
            0 -1 72 1160181131 -774504710 -134742290 -783024145
            1862235907 -246024193 -680005858 -1073221825</internalNodes>
          <leafValues>
            -6.9194257259368896e-01 7.4359667301177979e-01</leafValues></_></weakClassifiers></_>
    <!-- stage 9 -->
    <_>
      <maxWeakCount>7</maxWeakCount>
      <stageThreshold>-4.3020196259021759e-02</stageThreshold>
      <weakClassifiers>
        <_>
          <internalNodes>
            0 -1 61 536866611 722583472 -1073741904 792723441
            -1174426115 1060241399 234819036 247396351</internalNodes>
          <leafValues>
            -4.7317072749137878e-01 8.9592760801315308e-01</leafValues></_>
        <_>
          <internalNodes>
            0 -1 53 -838663005 -1055850335 1375797253 285413505
            271395360 -2146402304 -1606221286 -217783229</internalNodes>
          <leafValues>
            -6.5993028879165649e-01 8.2546043395996094e-01</leafValues></_>
        <_>
          <internalNodes>
            0 -1 2 -5246997 -324080018 -285217246 -487659922 1971320657
            1450637302 -557977 -176163241</internalNodes>
          <leafValues>
            -5.3739243745803833e-01 8.5368734598159790e-01</leafValues></_>
        <_>
          <internalNodes>
            0 -1 76 -893148633 -386928769 15736691 -2130706561
            -387973513 44351290 309608295 -520757385</internalNodes>
          <leafValues>
            -5.8029848337173462e-01 8.2898718118667603e-01</leafValues></_>
        <_>
          <internalNodes>
            0 -1 29 -787443212 1091567873 268439580 1430325312
            -1877835126 -2004058112 1073742779 -1449656136</internalNodes>
          <leafValues>
            -6.1468160152435303e-01 7.9025262594223022e-01</leafValues></_>
        <_>
          <internalNodes>
            0 -1 21 1997601945 -174981223 -596661190 2147155825
            2146959227 1606025138 -327218564 -155504837</internalNodes>
          <leafValues>
            -6.0718977451324463e-01 7.9695469141006470e-01</leafValues></_>
        <_>
          <internalNodes>
            0 -1 1 -108936790 -536738781 1 2261122 -2143188727
            -2147287031 167854731 1292325149</internalNodes>
          <leafValues>
            -8.3125656843185425e-01 6.1621308326721191e-01</leafValues></_></weakClassifiers></_>
    <!-- stage 10 -->
    <_>
      <maxWeakCount>7</maxWeakCount>
      <stageThreshold>-1.9907572865486145e-01</stageThreshold>
      <weakClassifiers>
        <_>
          <internalNodes>
            0 -1 30 -804255696 -1141064708 -1867458056 -33567777 -65609
            -1073758275 -1275446581 -919794898</internalNodes>
          <leafValues>
            -4.8453608155250549e-01 8.8631266355514526e-01</leafValues></_>
        <_>
          <internalNodes>
            0 -1 65 -1229301769 -1162805258 -327683 -73203733 1408456573
            -1829699588 771182023 -1141803524</internalNodes>
          <leafValues>
            -5.7879757881164551e-01 8.3610838651657104e-01</leafValues></_>
        <_>
          <internalNodes>
            0 -1 8 722735868 2113830389 1072971007 1071484925 536706288
            -4390948 254555928 -1618473988</internalNodes>
          <leafValues>
            -6.9709920883178711e-01 7.6861357688903809e-01</leafValues></_>
        <_>
          <internalNodes>
            0 -1 20 -196914555 -1745911889 -524731 -1150746647
            2004178389 -168298569 -143263917 -1373208989</internalNodes>
          <leafValues>
            -6.8734961748123169e-01 7.8015482425689697e-01</leafValues></_>
        <_>
          <internalNodes>
            0 -1 71 -585104264 -181862391 528 486604802 -1911913969
            -2013265918 555485192 -565444343</internalNodes>
          <leafValues>
            -6.9725370407104492e-01 7.1913743019104004e-01</leafValues></_>
        <_>
          <internalNodes>
            0 -1 13 1342931146 1392521345 1090602009 -1744699118
            1073799170 -2147483648 -1597980638 -8257646</internalNodes>
          <leafValues>
            -7.0437705516815186e-01 7.1946841478347778e-01</leafValues></_>
        <_>
          <internalNodes>
            0 -1 11 1900126938 1505759305 -2146959308 406913159
            1485545664 -938999806 -1610028805 -632045562</internalNodes>
          <leafValues>
            -7.3162192106246948e-01 7.1712023019790649e-01</leafValues></_></weakClassifiers></_>
    <!-- stage 11 -->
    <_>
      <maxWeakCount>6</maxWeakCount>
      <stageThreshold>4.9455904960632324e-01</stageThreshold>
      <weakClassifiers>
        <_>
          <internalNodes>
            0 -1 41 1874853648 523436024 134135708 926941175 -75
            1060370352 1056904284 527826943</internalNodes>
          <leafValues>
            -6.0479038953781128e-01 8.7390029430389404e-01</leafValues></_>
        <_>
          <internalNodes>
            0 -1 37 360830046 -1056079719 -2139024766 1109481473 32906
            538480680 49163 1705346525</internalNodes>
          <leafValues>
            -7.6150721311569214e-01 7.7213865518569946e-01</leafValues></_>
        <_>
          <internalNodes>
            0 -1 6 -22850049 -281743374 -98577 -419516561 2121688699 -13
            1602189311 -553681083</internalNodes>
          <leafValues>
            -6.7707961797714233e-01 7.8483343124389648e-01</leafValues></_>
        <_>
          <internalNodes>
            0 -1 44 -733977965 -674824244 2145465063 -540020099
            1829762526 -7013393 -1008786531 -824796257</internalNodes>
          <leafValues>
            -6.2474411725997925e-01 8.2993328571319580e-01</leafValues></_>
        <_>
          <internalNodes>
            0 -1 26 1409519747 -773980293 -1059127643 1278181167
            1416951294 -1066270723 1349942647 -1582451795</internalNodes>
          <leafValues>
            -6.3133835792541504e-01 7.9499077796936035e-01</leafValues></_>
        <_>
          <internalNodes>
            0 -1 78 -34613469 384794298 -293703890 -213975173 1727987242
            1774714726 653035136 -1062472118</internalNodes>
          <leafValues>
            -5.6567853689193726e-01 8.7956166267395020e-01</leafValues></_></weakClassifiers></_>
    <!-- stage 12 -->
    <_>
      <maxWeakCount>8</maxWeakCount>
      <stageThreshold>4.5282009243965149e-01</stageThreshold>
      <weakClassifiers>
        <_>
          <internalNodes>
            0 -1 67 2118123142 2145353683 -131089 -5 2013261308
            2143122429 2147479214 1635120510</internalNodes>
          <leafValues>
            -6.0479038953781128e-01 8.7390029430389404e-01</leafValues></_>
        <_>
          <internalNodes>
            0 -1 61 -791952244 201457681 1296121936 499630084
            -1064515413 134742532 4718737 973785601</internalNodes>
          <leafValues>
            -6.6829872131347656e-01 7.6921039819717407e-01</leafValues></_>
        <_>
          <internalNodes>
            0 -1 15 -579064904 1298177072 -1359075400 -138694722
            2146938860 -1356529668 1039972350 -105971714</internalNodes>
          <leafValues>
            -6.8129962682723999e-01 7.9147851467132568e-01</leafValues></_>
        <_>
          <internalNodes>
            0 -1 58 -849617494 -1987018687 66569 354222605 -2146458994
            1317535744 -2147401723 -1174159213</internalNodes>
          <leafValues>
            -6.7296475172042847e-01 7.4244111776351929e-01</leafValues></_>
        <_>
          <internalNodes>
            0 -1 43 -1339981749 -618643456 -2147470057 -1878753280
            -1073725165 -903870464 -998211550 -250100700</internalNodes>
          <leafValues>
            -7.6871854066848755e-01 6.7429792881011963e-01</leafValues></_>
        <_>
          <internalNodes>
            0 -1 54 -1840020753 -1062797304 17908241 -733872116 65539
            805978112 -1073557502 -1211135862</internalNodes>
          <leafValues>
            -6.6361910104751587e-01 7.7466660737991333e-01</leafValues></_>
        <_>
          <internalNodes>
            0 -1 49 -155193310 -88080773 -541119178 -16173137 -966331000
            1189773306 356402439 -753402049</internalNodes>
          <leafValues>
            -6.1600947380065918e-01 8.1936061382293701e-01</leafValues></_>
        <_>
          <internalNodes>
            0 -1 3 -2079875049 185467138 16891933 272728341 1064970
            134283296 1107525784 2116796523</internalNodes>
          <leafValues>
            -6.3804984092712402e-01 7.7622741460800171e-01</leafValues></_></weakClassifiers></_></stages>
  <features>
    <_>
      <rect>
        0 1 11 4</rect></_>
    <_>
      <rect>
        0 12 3 5</rect></_>
    <_>
      <rect>
        0 14 1 2</rect></_>
    <_>
      <rect>
        1 19 3 2</rect></_>
    <_>
      <rect>
        2 0 4 6</rect></_>
    <_>
      <rect>
        2 0 10 6</rect></_>
    <_>
      <rect>
        2 6 5 2</rect></_>
    <_>
      <rect>
        2 7 5 2</rect></_>
    <_>
      <rect>
        2 25 3 1</rect></_>
    <_>
      <rect>
        2 25 10 1</rect></_>
    <_>
      <rect>
        3 1 5 6</rect></_>
    <_>
      <rect>
        3 3 10 4</rect></_>
    <_>
      <rect>
        3 4 6 4</rect></_>
    <_>
      <rect>
        3 7 3 7</rect></_>
    <_>
      <rect>
        3 14 3 2</rect></_>
    <_>
      <rect>
        3 19 2 3</rect></_>
    <_>
      <rect>
        4 4 5 4</rect></_>
    <_>
      <rect>
        4 4 9 4</rect></_>
    <_>
      <rect>
        4 7 4 2</rect></_>
    <_>
      <rect>
        4 25 3 1</rect></_>
    <_>
      <rect>
        5 3 3 5</rect></_>
    <_>
      <rect>
        5 6 10 3</rect></_>
    <_>
      <rect>
        6 9 9 3</rect></_>
    <_>
      <rect>
        7 5 9 3</rect></_>
    <_>
      <rect>
        7 8 9 2</rect></_>
    <_>
      <rect>
        7 22 7 2</rect></_>
    <_>
      <rect>
        8 4 2 5</rect></_>
    <_>
      <rect>
        8 25 7 1</rect></_>
    <_>
      <rect>
        9 8 6 1</rect></_>
    <_>
      <rect>
        9 25 2 1</rect></_>
    <_>
      <rect>
        10 6 5 3</rect></_>
    <_>
      <rect>
        10 8 8 2</rect></_>
    <_>
      <rect>
        11 5 2 5</rect></_>
    <_>
      <rect>
        11 6 4 3</rect></_>
    <_>
      <rect>
        12 6 3 6</rect></_>
    <_>
      <rect>
        12 9 3 4</rect></_>
    <_>
      <rect>
        12 13 3 3</rect></_>
    <_>
      <rect>
        12 16 3 4</rect></_>
    <_>
      <rect>
        13 0 2 8</rect></_>
    <_>
      <rect>
        13 0 5 1</rect></_>
    <_>
      <rect>
        14 5 2 5</rect></_>
    <_>
      <rect>
        14 6 7 2</rect></_>
    <_>
      <rect>
        15 0 3 1</rect></_>
    <_>
      <rect>
        15 1 3 5</rect></_>
    <_>
      <rect>
        15 2 5 5</rect></_>
    <_>
      <rect>
        15 3 4 6</rect></_>
    <_>
      <rect>
        15 6 4 3</rect></_>
    <_>
      <rect>
        15 6 4 4</rect></_>
    <_>
      <rect>
        15 10 4 4</rect></_>
    <_>
      <rect>
        15 13 1 3</rect></_>
    <_>
      <rect>
        15 19 4 3</rect></_>
    <_>
      <rect>
        16 3 2 4</rect></_>
    <_>
      <rect>
        16 4 2 4</rect></_>
    <_>
      <rect>
        16 5 2 3</rect></_>
    <_>
      <rect>
        16 13 2 3</rect></_>
    <_>
      <rect>
        16 13 3 5</rect></_>
    <_>
      <rect>
        18 0 5 6</rect></_>
    <_>
      <rect>
        18 4 5 4</rect></_>
    <_>
      <rect>
        18 4 6 4</rect></_>
    <_>
      <rect>
        19 5 5 3</rect></_>
    <_>
      <rect>
        19 5 5 4</rect></_>
    <_>
      <rect>
        19 6 5 2</rect></_>
    <_>
      <rect>
        19 8 5 2</rect></_>
    <_>
      <rect>
        20 4 2 4</rect></_>
    <_>
      <rect>
        20 4 4 4</rect></_>
    <_>
      <rect>
        21 3 4 4</rect></_>
    <_>
      <rect>
        21 5 4 3</rect></_>
    <_>
      <rect>
        21 6 3 6</rect></_>
    <_>
      <rect>
        21 10 3 3</rect></_>
    <_>
      <rect>
        21 13 3 4</rect></_>
    <_>
      <rect>
        22 8 4 2</rect></_>
    <_>
      <rect>
        22 22 4 2</rect></_>
    <_>
      <rect>
        23 4 2 5</rect></_>
    <_>
      <rect>
        24 3 3 5</rect></_>
    <_>
      <rect>
        24 4 3 6</rect></_>
    <_>
      <rect>
        24 6 3 5</rect></_>
    <_>
      <rect>
        26 2 1 6</rect></_>
    <_>
      <rect>
        27 7 3 4</rect></_>
    <_>
      <rect>
        32 4 1 5</rect></_>
    <_>
      <rect>
        32 12 1 2</rect></_>
    <_>
      <rect>
        33 8 1 4</rect></_></features></cascade>
</opencv_storage>
