<?xml version="1.0"?>
<opencv_storage>
<cascade>
  <stageType>BOOST</stageType>
  <featureType>LBP</featureType>
  <height>28</height>
  <width>36</width>
  <stageParams>
    <boostType>GAB</boostType>
    <minHitRate>9.9900001287460327e-01</minHitRate>
    <maxFalseAlarm>5.0000000745058060e-02</maxFalseAlarm>
    <weightTrimRate>9.4999999999999996e-01</weightTrimRate>
    <maxDepth>1</maxDepth>
    <maxWeakCount>100</maxWeakCount></stageParams>
  <featureParams>
    <maxCatCount>256</maxCatCount>
    <featSize>1</featSize></featureParams>
  <stageNum>15</stageNum>
  <stages>
    <!-- stage 0 -->
    <_>
      <maxWeakCount>5</maxWeakCount>
      <stageThreshold>1.1610343456268311e+00</stageThreshold>
      <weakClassifiers>
        <_>
          <internalNodes>
            0 -1 42 -1052705124 83951600 -536903841 1599930364
            2096746428 425767552 208604024 -1193468332</internalNodes>
          <leafValues>
            -7.6036864519119263e-01 9.5585995912551880e-01</leafValues></_>
        <_>
          <internalNodes>
            0 -1 85 -792411646 1090551818 285213056 1494220806 268476432
            -2147450752 1342329241 6849058</internalNodes>
          <leafValues>
            -7.9682940244674683e-01 9.0950143337249756e-01</leafValues></_>
        <_>
          <internalNodes>
            0 -1 86 -1073295288 360710144 131093 1459748864 434321
            -1724897279 1073744013 -4029942</internalNodes>
          <leafValues>
            -7.8106743097305298e-01 9.0842425823211670e-01</leafValues></_>
        <_>
          <internalNodes>
            0 -1 32 -1055853123 285736972 286294288 629145733
            -1610504007 772014152 33556968 193462417</internalNodes>
          <leafValues>
            -7.7964907884597778e-01 8.9920455217361450e-01</leafValues></_>
        <_>
          <internalNodes>
            0 -1 77 -763314037 1360003201 269484307 1358958657 8520424
            -536870870 65676 -1367064062</internalNodes>
          <leafValues>
            -7.9572725296020508e-01 9.0397626161575317e-01</leafValues></_></weakClassifiers></_>
    <!-- stage 1 -->
    <_>
      <maxWeakCount>5</maxWeakCount>
      <stageThreshold>-4.3794026970863342e-01</stageThreshold>
      <weakClassifiers>
        <_>
          <internalNodes>
            0 -1 64 -935141308 -25100030 -1048578 -788299778 -2134660946
            -1073151840 -1073674069 1636782222</internalNodes>
          <leafValues>
            -8.6096256971359253e-01 9.3154764175415039e-01</leafValues></_>
        <_>
          <internalNodes>
            0 -1 24 -117386896 -805306368 16945169 -1795161847
            -2138533159 -125298560 135858602 -1693908984</internalNodes>
          <leafValues>
            -7.8029590845108032e-01 9.2203748226165771e-01</leafValues></_>
        <_>
          <internalNodes>
            0 -1 88 -754588698 1343259266 1207959568 -721221630
            268536489 -2004877175 813926543 -1031165310</internalNodes>
          <leafValues>
            -7.3038083314895630e-01 9.0918290615081787e-01</leafValues></_>
        <_>
          <internalNodes>
            0 -1 66 -1324301353 -788496301 269549720 -586088447 114882
            -2009038654 -2013232254 -1876752224</internalNodes>
          <leafValues>
            -7.9949331283569336e-01 8.6924213171005249e-01</leafValues></_>
        <_>
          <internalNodes>
            0 -1 36 5104 286261249 266261 352321536 134251162 -938999808
            134250921 -1457520632</internalNodes>
          <leafValues>
            -7.2805333137512207e-01 9.2641311883926392e-01</leafValues></_></weakClassifiers></_>
    <!-- stage 2 -->
    <_>
      <maxWeakCount>5</maxWeakCount>
      <stageThreshold>-3.8610339164733887e-01</stageThreshold>
      <weakClassifiers>
        <_>
          <internalNodes>
            0 -1 48 -34086258 -134938642 2012741630 -1880114177
            -2147090450 -268435458 -1601830706 2005631626</internalNodes>
          <leafValues>
            -7.1980679035186768e-01 9.3655586242675781e-01</leafValues></_>
        <_>
          <internalNodes>
            0 -1 35 269492320 1342177281 285233420 -1794014971
            -2122317688 -918421504 167875210 -1324937207</internalNodes>
          <leafValues>
            -8.1429415941238403e-01 8.8603413105010986e-01</leafValues></_>
        <_>
          <internalNodes>
            0 -1 25 204476656 1063288573 -1074225163 -1078183947
            1152138489 -1375965192 -834900484 -1673788208</internalNodes>
          <leafValues>
            -7.1741950511932373e-01 9.1671967506408691e-01</leafValues></_>
        <_>
          <internalNodes>
            0 -1 26 269504656 -787480312 17895771 1494290705 -1868529519
            -2000551792 134252715 -1895235456</internalNodes>
          <leafValues>
            -7.8861111402511597e-01 8.7466484308242798e-01</leafValues></_>
        <_>
          <internalNodes>
            0 -1 47 287310260 1071521764 -1073758249 -100721491
            402440120 -1073807363 498253308 -1438645248</internalNodes>
          <leafValues>
            -7.0266276597976685e-01 9.0036648511886597e-01</leafValues></_></weakClassifiers></_>
    <!-- stage 3 -->
    <_>
      <maxWeakCount>5</maxWeakCount>
      <stageThreshold>9.6005296707153320e-01</stageThreshold>
      <weakClassifiers>
        <_>
          <internalNodes>
            0 -1 53 -1065020 -1610678273 -2 2147483583 2147418094
            -1610612737 2147481262 2013265919</internalNodes>
          <leafValues>
            -8.0851066112518311e-01 9.2553985118865967e-01</leafValues></_>
        <_>
          <internalNodes>
            0 -1 38 54776034 -1861025792 72 1627619331 -1073627006
            33554432 813862915 1883750559</internalNodes>
          <leafValues>
            -8.0629003047943115e-01 8.9968621730804443e-01</leafValues></_>
        <_>
          <internalNodes>
            0 -1 68 1108461039 -531529719 65550 -1862074358 2261386
            -2113863679 8986671 1394857871</internalNodes>
          <leafValues>
            -7.4542313814163208e-01 8.9975339174270630e-01</leafValues></_>
        <_>
          <internalNodes>
            0 -1 73 18445573 218103825 -2121760743 50401281 -2139062115
            453644298 67819 176611503</internalNodes>
          <leafValues>
            -8.1859165430068970e-01 8.2152110338211060e-01</leafValues></_>
        <_>
          <internalNodes>
            0 -1 65 1896956299 1359069249 1024 32800 1079001216 16777216
            -1056530430 -418389781</internalNodes>
          <leafValues>
            -8.1167072057723999e-01 7.9277944564819336e-01</leafValues></_></weakClassifiers></_>
    <!-- stage 4 -->
    <_>
      <maxWeakCount>6</maxWeakCount>
      <stageThreshold>4.7306665778160095e-01</stageThreshold>
      <weakClassifiers>
        <_>
          <internalNodes>
            0 -1 54 -965755226 1401032835 -294670646 -268435730
            -135233542 1903556605 -2079719858 1739848079</internalNodes>
          <leafValues>
            -7.9310345649719238e-01 9.0567427873611450e-01</leafValues></_>
        <_>
          <internalNodes>
            0 -1 33 -799473529 -1862266746 1064965 -532492093 -501151487
            -2147417599 -2145328501 -800335737</internalNodes>
          <leafValues>
            -6.4434921741485596e-01 9.0702480077743530e-01</leafValues></_>
        <_>
          <internalNodes>
            0 -1 89 -540291578 -278609 33690688 1365732866 -536871186
            1207238621 -145981553 -168305057</internalNodes>
          <leafValues>
            -6.5214025974273682e-01 9.1166490316390991e-01</leafValues></_>
        <_>
          <internalNodes>
            0 -1 92 -247218070 245760 16842752 36993 1073971712 131584
            4358144 15712335</internalNodes>
          <leafValues>
            -8.4899538755416870e-01 7.5719583034515381e-01</leafValues></_>
        <_>
          <internalNodes>
            0 -1 60 1385398355 -1056796669 5 -1055719354 -2147368957
            268500992 -2134753237 -133959101</internalNodes>
          <leafValues>
            -7.7333068847656250e-01 7.8342187404632568e-01</leafValues></_>
        <_>
          <internalNodes>
            0 -1 83 -773361085 1371733867 -170395682 -799932418
            1568143119 -800718857 1734782863 -1071909057</internalNodes>
          <leafValues>
            -6.7135727405548096e-01 9.4588971138000488e-01</leafValues></_></weakClassifiers></_>
    <!-- stage 5 -->
    <_>
      <maxWeakCount>6</maxWeakCount>
      <stageThreshold>1.7120441794395447e-01</stageThreshold>
      <weakClassifiers>
        <_>
          <internalNodes>
            0 -1 74 788459238 -265 -286273554 -16908345 -8391182
            -147425965 -96206993 1735750999</internalNodes>
          <leafValues>
            -6.7777776718139648e-01 8.9785343408584595e-01</leafValues></_>
        <_>
          <internalNodes>
            0 -1 87 619623342 -1114552 -3 -20 2013230974 -1074792468
            1946122237 -1050714</internalNodes>
          <leafValues>
            -7.6985424757003784e-01 8.2453650236129761e-01</leafValues></_>
        <_>
          <internalNodes>
            0 -1 11 -2126290683 -653197311 -2139029501 -469761983
            1627390289 -1199570944 -2003957350 -5294069</internalNodes>
          <leafValues>
            -7.5353443622589111e-01 8.2609921693801880e-01</leafValues></_>
        <_>
          <internalNodes>
            0 -1 18 351971109 1073477409 -453054468 -805832747 -262594
            -53504 -603996297 -308866048</internalNodes>
          <leafValues>
            -7.1419930458068848e-01 8.0742251873016357e-01</leafValues></_>
        <_>
          <internalNodes>
            0 -1 19 1967351107 -796778240 -1073606591 -1044164349
            -1073643519 -2096562032 -2063383797 621249479</internalNodes>
          <leafValues>
            -7.6998341083526611e-01 7.7876311540603638e-01</leafValues></_>
        <_>
          <internalNodes>
            0 -1 57 -2143187879 -998244351 276890077 1493338113
            -801013227 -1207648256 1745240766 -117323645</internalNodes>
          <leafValues>
            -7.6249712705612183e-01 7.5529807806015015e-01</leafValues></_></weakClassifiers></_>
    <!-- stage 6 -->
    <_>
      <maxWeakCount>6</maxWeakCount>
      <stageThreshold>2.3889221251010895e-01</stageThreshold>
      <weakClassifiers>
        <_>
          <internalNodes>
            0 -1 63 -1023963921 -705328910 -889255699 -537407501
            1325387455 2146828273 -2097181957 -156054413</internalNodes>
          <leafValues>
            -3.8686132431030273e-01 9.5226728916168213e-01</leafValues></_>
        <_>
          <internalNodes>
            0 -1 17 1561333850 352649857 17862670 353058852 169927820
            1225293896 152 1864673418</internalNodes>
          <leafValues>
            -7.9908174276351929e-01 8.2206583023071289e-01</leafValues></_>
        <_>
          <internalNodes>
            0 -1 69 318999687 -1239218101 134348866 -2004860663
            -2038265653 1074008200 -2130540510 -482144007</internalNodes>
          <leafValues>
            -7.3907476663589478e-01 8.0626136064529419e-01</leafValues></_>
        <_>
          <internalNodes>
            0 -1 37 394279015 -536836980 -2144861963 -653671278
            143134851 -1507801080 9048082 -896966648</internalNodes>
          <leafValues>
            -7.5349831581115723e-01 7.7336442470550537e-01</leafValues></_>
        <_>
          <internalNodes>
            0 -1 81 -1088480079 704708602 -1073741827 -14483457
            1870626237 -1103822849 2147441981 -1345585187</internalNodes>
          <leafValues>
            -7.0032697916030884e-01 8.0900776386260986e-01</leafValues></_>
        <_>
          <internalNodes>
            0 -1 45 -1067727477 1343533185 163841 -1303048176
            -2147450359 -1073610239 594315 -1056423677</internalNodes>
          <leafValues>
            -7.7606409788131714e-01 7.4697309732437134e-01</leafValues></_></weakClassifiers></_>
    <!-- stage 7 -->
    <_>
      <maxWeakCount>6</maxWeakCount>
      <stageThreshold>4.1783732175827026e-01</stageThreshold>
      <weakClassifiers>
        <_>
          <internalNodes>
            0 -1 8 1051686778 53508084 1073720008 930439157 1072701439
            1000209402 151046239 2064943362</internalNodes>
          <leafValues>
            -6.3243246078491211e-01 8.9747399091720581e-01</leafValues></_>
        <_>
          <internalNodes>
            0 -1 20 140476181 -1343226028 787480433 -11 -536936603
            1878196080 -1219493926 -1096275968</internalNodes>
          <leafValues>
            -5.9678494930267334e-01 8.7194645404815674e-01</leafValues></_>
        <_>
          <internalNodes>
            0 -1 40 -805109183 1197523203 -2130505435 1879294210
            -1039622111 -2147450878 -792510457 -1022111454</internalNodes>
          <leafValues>
            -6.7846393585205078e-01 8.1633788347244263e-01</leafValues></_>
        <_>
          <internalNodes>
            0 -1 31 153106164 -143839297 134156223 -1880350737
            -1074942306 -1099059585 -1220598017 -1085536132</internalNodes>
          <leafValues>
            -6.6912394762039185e-01 8.0326801538467407e-01</leafValues></_>
        <_>
          <internalNodes>
            0 -1 5 1392525932 2102518081 -2129590247 654311433 34676945
            -2146959344 -1063212337 -281771647</internalNodes>
          <leafValues>
            -7.6136124134063721e-01 7.5124430656433105e-01</leafValues></_>
        <_>
          <internalNodes>
            0 -1 71 -289951835 1494360385 134234133 -1055719422
            -1970757231 -1993178847 -922205959 -2096971659</internalNodes>
          <leafValues>
            -7.1502602100372314e-01 7.9797524213790894e-01</leafValues></_></weakClassifiers></_>
    <!-- stage 8 -->
    <_>
      <maxWeakCount>6</maxWeakCount>
      <stageThreshold>1.7294317483901978e-01</stageThreshold>
      <weakClassifiers>
        <_>
          <internalNodes>
            0 -1 55 -515891190 -536345463 22020640 -711892736 34770974
            16538 -1776731831 814596229</internalNodes>
          <leafValues>
            -9.6521741151809692e-01 8.4887003898620605e-01</leafValues></_>
        <_>
          <internalNodes>
            0 -1 51 -1080815644 -707723892 2147430185 -33751556
            1842112174 -171638915 1778265080 -37364259</internalNodes>
          <leafValues>
            -6.7121833562850952e-01 8.9002984762191772e-01</leafValues></_>
        <_>
          <internalNodes>
            0 -1 13 22445951 1405112336 -1072627311 -335281784 143659029
            1711472660 -1073720278 -124895231</internalNodes>
          <leafValues>
            -7.9516130685806274e-01 7.5541841983795166e-01</leafValues></_>
        <_>
          <internalNodes>
            0 -1 21 1398004458 -1995595642 -2147417911 1203011714
            -1040086852 1342832672 33593480 1464330251</internalNodes>
          <leafValues>
            -7.5534737110137939e-01 7.3070675134658813e-01</leafValues></_>
        <_>
          <internalNodes>
            0 -1 78 -68423691 -1826553894 -270849 -1084688412 259513319
            -1108082690 1308581356 -1140981761</internalNodes>
          <leafValues>
            -6.6009205579757690e-01 8.3762156963348389e-01</leafValues></_>
        <_>
          <internalNodes>
            0 -1 93 1799856130 1090551810 324 134889482 1979744256
            1073873154 272704000 -1040059613</internalNodes>
          <leafValues>
            -7.7787554264068604e-01 7.3289656639099121e-01</leafValues></_></weakClassifiers></_>
    <!-- stage 9 -->
    <_>
      <maxWeakCount>8</maxWeakCount>
      <stageThreshold>3.9869993925094604e-01</stageThreshold>
      <weakClassifiers>
        <_>
          <internalNodes>
            0 -1 1 -270106660 804728746 -285413388 805257214 -1769532
            1877966847 -720960 -805339148</internalNodes>
          <leafValues>
            -5.4000002145767212e-01 9.0082645416259766e-01</leafValues></_>
        <_>
          <internalNodes>
            0 -1 12 2130831985 -145428493 -25384193 -8941971 -27934739
            -11206699 -6439170 -850284961</internalNodes>
          <leafValues>
            -5.7853472232818604e-01 8.9614760875701904e-01</leafValues></_>
        <_>
          <internalNodes>
            0 -1 39 -710249386 -1820278527 -1610609646 18386953
            -939343672 16810144 -1236766630 1930256457</internalNodes>
          <leafValues>
            -8.2960110902786255e-01 7.1915662288665771e-01</leafValues></_>
        <_>
          <internalNodes>
            0 -1 30 -1409468357 -1082774151 536751866 1073425791
            -1073823751 -131074 -1111497490 -841118034</internalNodes>
          <leafValues>
            -7.3402404785156250e-01 7.8544747829437256e-01</leafValues></_>
        <_>
          <internalNodes>
            0 -1 76 -385156371 -1576796160 135331927 1376084112 821335
            -1039589368 -2122151863 -1675354096</internalNodes>
          <leafValues>
            -7.1511805057525635e-01 7.4282586574554443e-01</leafValues></_>
        <_>
          <internalNodes>
            0 -1 44 612368528 2033188980 -1878965799 -788185079 8388858
            -1207959038 135364797 194117760</internalNodes>
          <leafValues>
            -8.4958356618881226e-01 6.4953434467315674e-01</leafValues></_>
        <_>
          <internalNodes>
            0 -1 91 -468728445 -938246063 -2147286511 -1055276543
            -1073709034 -903872222 1073877203 -1022738222</internalNodes>
          <leafValues>
            -6.9533175230026245e-01 8.0273365974426270e-01</leafValues></_>
        <_>
          <internalNodes>
            0 -1 6 2128166907 334823423 -268456002 -51466258 1602190320
            -537001986 -256248 -200769</internalNodes>
          <leafValues>
            -6.6728037595748901e-01 8.5402029752731323e-01</leafValues></_></weakClassifiers></_>
    <!-- stage 10 -->
    <_>
      <maxWeakCount>7</maxWeakCount>
      <stageThreshold>-3.1567585468292236e-01</stageThreshold>
      <weakClassifiers>
        <_>
          <internalNodes>
            0 -1 56 2142940712 -8273938 2147065772 -3 -4210691
            2113241085 -101056515 1640603128</internalNodes>
          <leafValues>
            -6.8484848737716675e-01 8.8140559196472168e-01</leafValues></_>
        <_>
          <internalNodes>
            0 -1 46 -1059127083 -653651967 402653188 -787955536
            -1610495347 -1979441150 1476395086 -349888463</internalNodes>
          <leafValues>
            -7.0004940032958984e-01 8.3018434047698975e-01</leafValues></_>
        <_>
          <internalNodes>
            0 -1 2 -921206166 536903688 1073741952 1141391362 4194883
            293666816 -2113863679 -1064091129</internalNodes>
          <leafValues>
            -7.3965668678283691e-01 7.6008433103561401e-01</leafValues></_>
        <_>
          <internalNodes>
            0 -1 61 1153456541 -539688971 -1342318917 -74268695
            -1118384681 -568992136 1324231471 -74212283</internalNodes>
          <leafValues>
            -6.5387910604476929e-01 8.1249403953552246e-01</leafValues></_>
        <_>
          <internalNodes>
            0 -1 27 -921620348 -921104320 1327176 -251412479 -1610052468
            25690112 35054 -1316003669</internalNodes>
          <leafValues>
            -7.3729270696640015e-01 7.5292575359344482e-01</leafValues></_>
        <_>
          <internalNodes>
            0 -1 82 286265648 -1693974379 16842909 -1791915499 100925576
            -1744789368 -2146957108 -1431567136</internalNodes>
          <leafValues>
            -6.9637829065322876e-01 7.6379281282424927e-01</leafValues></_>
        <_>
          <internalNodes>
            0 -1 41 -601681641 1342505104 8458264 1426477313 -502783814
            -2011168732 -805304160 -897576440</internalNodes>
          <leafValues>
            -6.7192047834396362e-01 7.9994100332260132e-01</leafValues></_></weakClassifiers></_>
    <!-- stage 11 -->
    <_>
      <maxWeakCount>6</maxWeakCount>
      <stageThreshold>4.7043669223785400e-01</stageThreshold>
      <weakClassifiers>
        <_>
          <internalNodes>
            0 -1 52 2135835407 -154149043 -2100275 -145752627 -7372914
            -2097153 -137402547 1933828227</internalNodes>
          <leafValues>
            -5.0000000000000000e-01 8.9481592178344727e-01</leafValues></_>
        <_>
          <internalNodes>
            0 -1 15 2120482643 1870049143 -196609 -2098237825 1584758609
            -8388617 1879048187 -897882241</internalNodes>
          <leafValues>
            -5.3003096580505371e-01 8.6077010631561279e-01</leafValues></_>
        <_>
          <internalNodes>
            0 -1 58 -112866189 -2129411572 -1055850375 1397030912
            -1610575446 -1912569727 -2147237734 -391533874</internalNodes>
          <leafValues>
            -5.5571770668029785e-01 8.5611164569854736e-01</leafValues></_>
        <_>
          <internalNodes>
            0 -1 22 -561778588 -895385600 1208025414 -1324154345
            -2105439862 578847234 -1870429047 1892646953</internalNodes>
          <leafValues>
            -8.3808130025863647e-01 6.5043359994888306e-01</leafValues></_>
        <_>
          <internalNodes>
            0 -1 70 -1081884565 -1082129855 142643525 562364548
            -1862067685 -2013126656 -666369252 -2015109079</internalNodes>
          <leafValues>
            -6.8319106101989746e-01 8.0054515600204468e-01</leafValues></_>
        <_>
          <internalNodes>
            0 -1 29 134432119 -284080992 1209073937 -934080507 807576754
            169975808 -2013232596 780404744</internalNodes>
          <leafValues>
            -6.7871570587158203e-01 7.9184073209762573e-01</leafValues></_></weakClassifiers></_>
    <!-- stage 12 -->
    <_>
      <maxWeakCount>7</maxWeakCount>
      <stageThreshold>9.1251575946807861e-01</stageThreshold>
      <weakClassifiers>
        <_>
          <internalNodes>
            0 -1 50 733208012 256048893 1073544700 657948663 -1073742177
            973012989 2147423260 912654207</internalNodes>
          <leafValues>
            -7.1428573131561279e-01 8.7218588590621948e-01</leafValues></_>
        <_>
          <internalNodes>
            0 -1 16 -705188440 1560063727 -36946 1307569774 2136342056
            -167776325 2134224642 -1119900126</internalNodes>
          <leafValues>
            -6.5304976701736450e-01 8.1983852386474609e-01</leafValues></_>
        <_>
          <internalNodes>
            0 -1 72 261219443 822214979 83908639 -52887528 -1660826074
            -1333788672 1208174769 -927571331</internalNodes>
          <leafValues>
            -6.6424411535263062e-01 8.3246362209320068e-01</leafValues></_>
        <_>
          <internalNodes>
            0 -1 59 -938770429 4292865 -2147434424 -1073614591
            -2139021037 134218752 136511563 -1878810621</internalNodes>
          <leafValues>
            -7.2174841165542603e-01 7.4890398979187012e-01</leafValues></_>
        <_>
          <internalNodes>
            0 -1 43 -1835527172 285212880 88178707 1561952273 33571466
            -2004877160 189302834 -1965553600</internalNodes>
          <leafValues>
            -7.6478856801986694e-01 7.5180864334106445e-01</leafValues></_>
        <_>
          <internalNodes>
            0 -1 28 4669712 -1811742651 98327 -49208822 8431831
            -2097020926 -1073690165 -1466781671</internalNodes>
          <leafValues>
            -7.5925469398498535e-01 7.3613780736923218e-01</leafValues></_>
        <_>
          <internalNodes>
            0 -1 7 -719846248 -545226624 285212895 -1190658040
            -1878523896 -2002714624 33565128 -353631804</internalNodes>
          <leafValues>
            -7.6680928468704224e-01 7.2713434696197510e-01</leafValues></_></weakClassifiers></_>
    <!-- stage 13 -->
    <_>
      <maxWeakCount>8</maxWeakCount>
      <stageThreshold>2.9240670800209045e-01</stageThreshold>
      <weakClassifiers>
        <_>
          <internalNodes>
            0 -1 79 -2100 -2490657 -536942610 -899743748 1987424955
            1917924193 -134349042 1935010677</internalNodes>
          <leafValues>
            -6.2195122241973877e-01 8.7271398305892944e-01</leafValues></_>
        <_>
          <internalNodes>
            0 -1 34 813166717 -1308624148 -788792595 838695886 -33556587
            -18 -83887425 -1689392369</internalNodes>
          <leafValues>
            -5.1757723093032837e-01 8.9245694875717163e-01</leafValues></_>
        <_>
          <internalNodes>
            0 -1 10 -286754817 -822182019 -1073840265 -285442331
            1865905975 -32905 1853849597 -591397513</internalNodes>
          <leafValues>
            -6.1917936801910400e-01 7.8378283977508545e-01</leafValues></_>
        <_>
          <internalNodes>
            0 -1 62 915996599 -654245924 -1610670084 -170459151
            -1913368601 -1647190180 -1610641747 -171024931</internalNodes>
          <leafValues>
            -6.6269856691360474e-01 7.6059633493423462e-01</leafValues></_>
        <_>
          <internalNodes>
            0 -1 4 -269597090 -353440216 -293720466 -1075675154
            -564599692 1608888191 2144272383 -262145</internalNodes>
          <leafValues>
            -6.1227434873580933e-01 7.9332441091537476e-01</leafValues></_>
        <_>
          <internalNodes>
            0 -1 84 1640220290 -262504309 536969297 428540360 4194455
            -1349613548 -1048510458 1074375369</internalNodes>
          <leafValues>
            -7.7438646554946899e-01 6.7634671926498413e-01</leafValues></_>
        <_>
          <internalNodes>
            0 -1 67 1847384 -956088015 268435717 419434505 -2013150568
            -393732088 403309227 -1166016400</internalNodes>
          <leafValues>
            -7.8912115097045898e-01 6.6175079345703125e-01</leafValues></_>
        <_>
          <internalNodes>
            0 -1 0 -893230854 -2130685950 1073807360 1141538816 17072165
            -2147344384 1208648338 2017944482</internalNodes>
          <leafValues>
            -8.2764303684234619e-01 6.3837158679962158e-01</leafValues></_></weakClassifiers></_>
    <!-- stage 14 -->
    <_>
      <maxWeakCount>8</maxWeakCount>
      <stageThreshold>4.1793373227119446e-01</stageThreshold>
      <weakClassifiers>
        <_>
          <internalNodes>
            0 -1 75 -71630862 -75432016 -335552517 -33882123 113148721
            2080178042 1291784157 1073182513</internalNodes>
          <leafValues>
            -4.6464645862579346e-01 8.8747185468673706e-01</leafValues></_>
        <_>
          <internalNodes>
            0 -1 14 -1788829170 1343783040 8506405 1359155356 436352
            -1063157654 59277856 -1692431616</internalNodes>
          <leafValues>
            -7.0462071895599365e-01 7.6585471630096436e-01</leafValues></_>
        <_>
          <internalNodes>
            0 -1 9 -195690755 -1186594975 -1359626501 661106278
            2002120439 -581044225 -294354945 -1904219674</internalNodes>
          <leafValues>
            -5.8338373899459839e-01 8.3348643779754639e-01</leafValues></_>
        <_>
          <internalNodes>
            0 -1 80 2039268642 -788430823 598086 1325727759 -1061121904
            545783808 5293003 1672061061</internalNodes>
          <leafValues>
            -8.0068916082382202e-01 6.4196741580963135e-01</leafValues></_>
        <_>
          <internalNodes>
            0 -1 49 -233603042 21528729 -2147351403 613360157 643633
            -374046656 -805273480 -367915919</internalNodes>
          <leafValues>
            -7.0842111110687256e-01 7.2398447990417480e-01</leafValues></_>
        <_>
          <internalNodes>
            0 -1 3 1351860911 1108025344 1073741826 -2146091008
            -1073708470 268437536 -1073332223 -249302885</internalNodes>
          <leafValues>
            -7.0296090841293335e-01 7.6694148778915405e-01</leafValues></_>
        <_>
          <internalNodes>
            0 -1 23 289096147 -169869461 -891289939 -2039578841
            -722077706 -1066270723 -998244491 -1960463833</internalNodes>
          <leafValues>
            -6.5870624780654907e-01 7.7253770828247070e-01</leafValues></_>
        <_>
          <internalNodes>
            0 -1 90 -798491645 -1043092065 7728763 -254541956 1157168243
            1085665276 -1540260505 -2141721046</internalNodes>
          <leafValues>
            -6.2203270196914673e-01 8.1418156623840332e-01</leafValues></_></weakClassifiers></_></stages>
  <features>
    <_>
      <rect>
        0 6 2 7</rect></_>
    <_>
      <rect>
        0 6 4 5</rect></_>
    <_>
      <rect>
        0 12 1 4</rect></_>
    <_>
      <rect>
        0 18 1 2</rect></_>
    <_>
      <rect>
        0 21 3 2</rect></_>
    <_>
      <rect>
        1 3 8 5</rect></_>
    <_>
      <rect>
        1 10 4 6</rect></_>
    <_>
      <rect>
        1 25 3 1</rect></_>
    <_>
      <rect>
        2 3 11 3</rect></_>
    <_>
      <rect>
        2 4 10 4</rect></_>
    <_>
      <rect>
        2 5 5 2</rect></_>
    <_>
      <rect>
        2 5 5 3</rect></_>
    <_>
      <rect>
        3 0 10 6</rect></_>
    <_>
      <rect>
        3 5 4 2</rect></_>
    <_>
      <rect>
        3 6 3 7</rect></_>
    <_>
      <rect>
        3 6 5 3</rect></_>
    <_>
      <rect>
        3 11 3 5</rect></_>
    <_>
      <rect>
        4 4 10 3</rect></_>
    <_>
      <rect>
        4 5 10 7</rect></_>
    <_>
      <rect>
        6 0 3 8</rect></_>
    <_>
      <rect>
        6 8 9 4</rect></_>
    <_>
      <rect>
        6 10 3 5</rect></_>
    <_>
      <rect>
        6 16 3 1</rect></_>
    <_>
      <rect>
        8 4 2 5</rect></_>
    <_>
      <rect>
        8 6 9 3</rect></_>
    <_>
      <rect>
        8 25 4 1</rect></_>
    <_>
      <rect>
        9 8 8 2</rect></_>
    <_>
      <rect>
        9 16 3 1</rect></_>
    <_>
      <rect>
        10 0 8 3</rect></_>
    <_>
      <rect>
        10 2 7 2</rect></_>
    <_>
      <rect>
        10 6 5 2</rect></_>
    <_>
      <rect>
        10 8 6 1</rect></_>
    <_>
      <rect>
        10 22 4 2</rect></_>
    <_>
      <rect>
        11 3 4 5</rect></_>
    <_>
      <rect>
        11 6 4 3</rect></_>
    <_>
      <rect>
        11 8 4 2</rect></_>
    <_>
      <rect>
        11 8 5 1</rect></_>
    <_>
      <rect>
        12 4 7 4</rect></_>
    <_>
      <rect>
        12 10 3 5</rect></_>
    <_>
      <rect>
        12 13 3 5</rect></_>
    <_>
      <rect>
        13 0 2 8</rect></_>
    <_>
      <rect>
        13 5 4 2</rect></_>
    <_>
      <rect>
        13 6 7 3</rect></_>
    <_>
      <rect>
        13 25 3 1</rect></_>
    <_>
      <rect>
        14 0 3 1</rect></_>
    <_>
      <rect>
        14 4 2 5</rect></_>
    <_>
      <rect>
        14 4 3 4</rect></_>
    <_>
      <rect>
        15 0 4 1</rect></_>
    <_>
      <rect>
        15 0 4 9</rect></_>
    <_>
      <rect>
        15 2 3 4</rect></_>
    <_>
      <rect>
        15 3 6 3</rect></_>
    <_>
      <rect>
        15 3 6 5</rect></_>
    <_>
      <rect>
        15 4 4 4</rect></_>
    <_>
      <rect>
        15 5 4 5</rect></_>
    <_>
      <rect>
        15 11 4 4</rect></_>
    <_>
      <rect>
        15 18 4 2</rect></_>
    <_>
      <rect>
        15 19 4 3</rect></_>
    <_>
      <rect>
        16 0 2 5</rect></_>
    <_>
      <rect>
        16 1 2 5</rect></_>
    <_>
      <rect>
        16 3 1 6</rect></_>
    <_>
      <rect>
        16 4 2 4</rect></_>
    <_>
      <rect>
        16 4 5 4</rect></_>
    <_>
      <rect>
        16 4 6 4</rect></_>
    <_>
      <rect>
        16 5 2 3</rect></_>
    <_>
      <rect>
        16 6 3 5</rect></_>
    <_>
      <rect>
        16 11 3 4</rect></_>
    <_>
      <rect>
        18 4 5 4</rect></_>
    <_>
      <rect>
        19 1 3 1</rect></_>
    <_>
      <rect>
        19 2 4 5</rect></_>
    <_>
      <rect>
        19 3 4 5</rect></_>
    <_>
      <rect>
        19 4 5 4</rect></_>
    <_>
      <rect>
        19 4 5 6</rect></_>
    <_>
      <rect>
        19 5 5 3</rect></_>
    <_>
      <rect>
        19 6 5 2</rect></_>
    <_>
      <rect>
        19 8 4 5</rect></_>
    <_>
      <rect>
        20 4 5 4</rect></_>
    <_>
      <rect>
        21 3 4 7</rect></_>
    <_>
      <rect>
        21 4 4 4</rect></_>
    <_>
      <rect>
        21 5 4 3</rect></_>
    <_>
      <rect>
        21 12 3 4</rect></_>
    <_>
      <rect>
        21 15 3 4</rect></_>
    <_>
      <rect>
        22 4 4 3</rect></_>
    <_>
      <rect>
        22 25 4 1</rect></_>
    <_>
      <rect>
        23 6 2 4</rect></_>
    <_>
      <rect>
        23 8 2 3</rect></_>
    <_>
      <rect>
        23 9 2 3</rect></_>
    <_>
      <rect>
        24 2 3 6</rect></_>
    <_>
      <rect>
        24 3 3 5</rect></_>
    <_>
      <rect>
        24 3 3 8</rect></_>
    <_>
      <rect>
        24 12 3 3</rect></_>
    <_>
      <rect>
        25 2 1 6</rect></_>
    <_>
      <rect>
        25 3 3 2</rect></_>
    <_>
      <rect>
        32 10 1 3</rect></_>
    <_>
      <rect>
        33 2 1 7</rect></_></features></cascade>
</opencv_storage>
