<?xml version="1.0"?>
<opencv_storage>
<cascade>
  <stageType>BOOST</stageType>
  <featureType>LBP</featureType>
  <height>28</height>
  <width>36</width>
  <stageParams>
    <boostType>GAB</boostType>
    <minHitRate>9.9900001287460327e-01</minHitRate>
    <maxFalseAlarm>5.0000000745058060e-02</maxFalseAlarm>
    <weightTrimRate>9.4999999999999996e-01</weightTrimRate>
    <maxDepth>1</maxDepth>
    <maxWeakCount>100</maxWeakCount></stageParams>
  <featureParams>
    <maxCatCount>256</maxCatCount>
    <featSize>1</featSize></featureParams>
  <stageNum>11</stageNum>
  <stages>
    <!-- stage 0 -->
    <_>
      <maxWeakCount>3</maxWeakCount>
      <stageThreshold>1.0207076072692871e+00</stageThreshold>
      <weakClassifiers>
        <_>
          <internalNodes>
            0 -1 41 -21874 1979711471 -269635922 1861222382 -230686806
            1937113077 -37748886 1946157034</internalNodes>
          <leafValues>
            -8.5507243871688843e-01 9.5770394802093506e-01</leafValues></_>
        <_>
          <internalNodes>
            0 -1 28 -787874938 4292627 98304 957583371 -1945845119
            268435601 1078036749 1434943791</internalNodes>
          <leafValues>
            -8.2200825214385986e-01 9.5044142007827759e-01</leafValues></_>
        <_>
          <internalNodes>
            0 -1 37 -116659442 -786841597 65605 -788037631 -2146729336
            1342177281 -1073511032 1926226438</internalNodes>
          <leafValues>
            -8.8526254892349243e-01 9.2533862590789795e-01</leafValues></_></weakClassifiers></_>
    <!-- stage 1 -->
    <_>
      <maxWeakCount>5</maxWeakCount>
      <stageThreshold>-5.3829199075698853e-01</stageThreshold>
      <weakClassifiers>
        <_>
          <internalNodes>
            0 -1 38 -52 -65537 -2 -1 2147418094 -1073741826 2147481518
            2013265919</internalNodes>
          <leafValues>
            -7.4000000953674316e-01 9.3087905645370483e-01</leafValues></_>
        <_>
          <internalNodes>
            0 -1 20 805339440 285212952 420512001 1469120785 -2146926461
            -1728053120 268664974 -1098306174</internalNodes>
          <leafValues>
            -7.1321499347686768e-01 9.1633868217468262e-01</leafValues></_>
        <_>
          <internalNodes>
            0 -1 4 50393838 287326353 -1073676024 2073231552 51093391
            302059528 587827211 387516545</internalNodes>
          <leafValues>
            -8.5796302556991577e-01 8.3715039491653442e-01</leafValues></_>
        <_>
          <internalNodes>
            0 -1 27 1363661966 -585691119 -2130669430 1107402823 557186
            1107312640 -798979117 1898422410</internalNodes>
          <leafValues>
            -8.5296350717544556e-01 8.0657649040222168e-01</leafValues></_>
        <_>
          <internalNodes>
            0 -1 42 -152043539 1610612735 -26235158 -268435477
            -134742030 -168429571 -271585586 -37748769</internalNodes>
          <leafValues>
            -7.4014282226562500e-01 8.9328849315643311e-01</leafValues></_></weakClassifiers></_>
    <!-- stage 2 -->
    <_>
      <maxWeakCount>6</maxWeakCount>
      <stageThreshold>4.4882941246032715e-01</stageThreshold>
      <weakClassifiers>
        <_>
          <internalNodes>
            0 -1 60 1957442472 -41353656 -3 -1114132 2013263743
            2146433006 1946122111 -142641234</internalNodes>
          <leafValues>
            -7.3958331346511841e-01 9.2083644866943359e-01</leafValues></_>
        <_>
          <internalNodes>
            0 -1 24 620505145 1064709432 536755963 1073688061 1073528830
            -1073987588 -1111552788 -1881895252</internalNodes>
          <leafValues>
            -6.9022089242935181e-01 8.9231008291244507e-01</leafValues></_>
        <_>
          <internalNodes>
            0 -1 9 352665607 1360015377 -1870458851 -2013134779
            1073741825 -1191041023 -497909489 -343463933</internalNodes>
          <leafValues>
            -7.5444549322128296e-01 8.7676751613616943e-01</leafValues></_>
        <_>
          <internalNodes>
            0 -1 17 17827984 1069366768 -4194309 2146186485 -1364083975
            -1090738179 266139389 -1674050504</internalNodes>
          <leafValues>
            -6.5295726060867310e-01 9.1911780834197998e-01</leafValues></_>
        <_>
          <internalNodes>
            0 -1 47 -499005689 -1018396144 67174411 -2142449647
            -2147483570 -2126249471 -2130503527 -1039187455</internalNodes>
          <leafValues>
            -7.5688481330871582e-01 8.4271550178527832e-01</leafValues></_>
        <_>
          <internalNodes>
            0 -1 35 62941 193073234 285282777 922812549 -2146369398
            724568064 671613101 2047803433</internalNodes>
          <leafValues>
            -7.6926177740097046e-01 8.1042635440826416e-01</leafValues></_></weakClassifiers></_>
    <!-- stage 3 -->
    <_>
      <maxWeakCount>6</maxWeakCount>
      <stageThreshold>3.3613732457160950e-01</stageThreshold>
      <weakClassifiers>
        <_>
          <internalNodes>
            0 -1 50 -512497753 1903294325 -790913 -135069715 -437784858
            -210501641 -809259058 -205404185</internalNodes>
          <leafValues>
            -4.2545455694198608e-01 9.6178346872329712e-01</leafValues></_>
        <_>
          <internalNodes>
            0 -1 18 1073750032 1343356944 82041 1095761929 -1744731971
            -1693941760 134264987 -1937700854</internalNodes>
          <leafValues>
            -7.6156336069107056e-01 8.6560374498367310e-01</leafValues></_>
        <_>
          <internalNodes>
            0 -1 57 268956198 -754888630 1090520068 1157971971
            -1845327737 805421066 -2139045878 1879175939</internalNodes>
          <leafValues>
            -8.9548307657241821e-01 7.6867604255676270e-01</leafValues></_>
        <_>
          <internalNodes>
            0 -1 44 -1072463109 -83853295 129 1996554246 671263291
            -1879048192 1241547273 -767311710</internalNodes>
          <leafValues>
            -7.6154911518096924e-01 8.4530878067016602e-01</leafValues></_>
        <_>
          <internalNodes>
            0 -1 21 -788020732 1359282562 25 325386261 1610711176
            -1585266560 16844939 -1297767674</internalNodes>
          <leafValues>
            -7.9172587394714355e-01 7.8694754838943481e-01</leafValues></_>
        <_>
          <internalNodes>
            0 -1 49 1899098107 825311216 -4194310 1073741815 -336089157
            -1095503373 -1895887156 -67375109</internalNodes>
          <leafValues>
            -6.5815722942352295e-01 9.1603189706802368e-01</leafValues></_></weakClassifiers></_>
    <!-- stage 4 -->
    <_>
      <maxWeakCount>6</maxWeakCount>
      <stageThreshold>4.7831487655639648e-01</stageThreshold>
      <weakClassifiers>
        <_>
          <internalNodes>
            0 -1 43 -1134962 -10043233 802139944 -1347436625 -2097170
            1979695093 2143289295 642363247</internalNodes>
          <leafValues>
            -6.8421053886413574e-01 8.8823527097702026e-01</leafValues></_>
        <_>
          <internalNodes>
            0 -1 11 -138023286 1280638695 -1073844370 1442643965
            -269025792 -1073741825 -429087232 -2097405</internalNodes>
          <leafValues>
            -6.6999083757400513e-01 8.9007735252380371e-01</leafValues></_>
        <_>
          <internalNodes>
            0 -1 61 -939290366 2030174213 17039362 1344077834 -502230869
            33554432 -1064990197 -405042550</internalNodes>
          <leafValues>
            -6.9018536806106567e-01 8.4990042448043823e-01</leafValues></_>
        <_>
          <internalNodes>
            0 -1 36 2110061471 1427177424 2080311800 2143813588
            -36876552 -581830700 771635788 -43663363</internalNodes>
          <leafValues>
            -7.1889173984527588e-01 8.3453255891799927e-01</leafValues></_>
        <_>
          <internalNodes>
            0 -1 10 -164109465 -8962185 -3 1819684598 2004252533 -34953
            -160989185 -16877785</internalNodes>
          <leafValues>
            -6.8859642744064331e-01 8.1376349925994873e-01</leafValues></_>
        <_>
          <internalNodes>
            0 -1 64 -5252094 1149042639 -268502144 15728495 1440184178
            158695236 -684736 -817365161</internalNodes>
          <leafValues>
            -6.5124773979187012e-01 8.3003580570220947e-01</leafValues></_></weakClassifiers></_>
    <!-- stage 5 -->
    <_>
      <maxWeakCount>6</maxWeakCount>
      <stageThreshold>5.2865594625473022e-01</stageThreshold>
      <weakClassifiers>
        <_>
          <internalNodes>
            0 -1 34 -572261630 -621807873 -34945 -65545 -285343778
            1526595447 -33 517957</internalNodes>
          <leafValues>
            -5.7142859697341919e-01 9.0112358331680298e-01</leafValues></_>
        <_>
          <internalNodes>
            0 -1 44 -653817613 -2130116590 268468233 -788381677
            -804732789 -2013265790 -1878884350 -860651505</internalNodes>
          <leafValues>
            -5.9737539291381836e-01 8.9872169494628906e-01</leafValues></_>
        <_>
          <internalNodes>
            0 -1 56 -268767233 -1826553896 -270849 -1157433363 259480551
            -1309474818 218062276 -1078069249</internalNodes>
          <leafValues>
            -6.7595517635345459e-01 8.5387599468231201e-01</leafValues></_>
        <_>
          <internalNodes>
            0 -1 6 1013218420 -1245188 1072971773 1040039735 21766136
            -1074462724 530321405 -1114634496</internalNodes>
          <leafValues>
            -7.0112985372543335e-01 8.1041640043258667e-01</leafValues></_>
        <_>
          <internalNodes>
            0 -1 8 1326529105 -145625097 -293733634 -9049488 -19546131
            -2752547 -10633477 -447369641</internalNodes>
          <leafValues>
            -6.9449579715728760e-01 8.2105666399002075e-01</leafValues></_>
        <_>
          <internalNodes>
            0 -1 31 -210517949 -245795488 1917314831 2035774227
            1952962151 -448006529 -413141257 -1039014108</internalNodes>
          <leafValues>
            -6.6815143823623657e-01 8.0039143562316895e-01</leafValues></_></weakClassifiers></_>
    <!-- stage 6 -->
    <_>
      <maxWeakCount>6</maxWeakCount>
      <stageThreshold>4.2536550760269165e-01</stageThreshold>
      <weakClassifiers>
        <_>
          <internalNodes>
            0 -1 58 -67110930 -129027 -1613988114 1609367279 2003104752
            1375039984 939360188 1937635309</internalNodes>
          <leafValues>
            -6.2011170387268066e-01 8.8905322551727295e-01</leafValues></_>
        <_>
          <internalNodes>
            0 -1 52 -67960861 2001762160 -16846850 -134807563
            -1358983186 -437125261 -1879052563 -276826159</internalNodes>
          <leafValues>
            -6.1223685741424561e-01 8.7501031160354614e-01</leafValues></_>
        <_>
          <internalNodes>
            0 -1 46 -1025012491 -688006926 -872462097 -1611177997
            -822104392 -655375 -486569222 -38574989</internalNodes>
          <leafValues>
            -6.3498753309249878e-01 8.1557476520538330e-01</leafValues></_>
        <_>
          <internalNodes>
            0 -1 65 -989355257 -1030324224 65544 1179123716 1073971200
            537002112 -1073201152 -462966245</internalNodes>
          <leafValues>
            -6.6224682331085205e-01 7.6373392343521118e-01</leafValues></_>
        <_>
          <internalNodes>
            0 -1 54 1055832 290979865 -1073545195 1402273793 -2113890150
            -1700659008 -1925185397 -1157103608</internalNodes>
          <leafValues>
            -7.4693518877029419e-01 7.2937011718750000e-01</leafValues></_>
        <_>
          <internalNodes>
            0 -1 51 -147587341 -1280049168 -1073750017 -1153826825
            -1342731585 1907554291 -838922555 -1678540842</internalNodes>
          <leafValues>
            -6.6190654039382935e-01 8.0790072679519653e-01</leafValues></_></weakClassifiers></_>
    <!-- stage 7 -->
    <_>
      <maxWeakCount>7</maxWeakCount>
      <stageThreshold>-1.7072074115276337e-01</stageThreshold>
      <weakClassifiers>
        <_>
          <internalNodes>
            0 -1 53 570467872 -403277963 -4227169 -268437641 1853865979
            -1073741953 -268439601 1325343991</internalNodes>
          <leafValues>
            -5.4255318641662598e-01 8.8830977678298950e-01</leafValues></_>
        <_>
          <internalNodes>
            0 -1 62 1334685358 -1076053089 797706756 529272733
            -137396226 -1091559460 -1076023348 -807578115</internalNodes>
          <leafValues>
            -6.0831362009048462e-01 8.4081792831420898e-01</leafValues></_>
        <_>
          <internalNodes>
            0 -1 5 1343439171 -783179711 8528017 76038147 1075978277
            -1039660920 -2113656695 -272023512</internalNodes>
          <leafValues>
            -7.4188494682312012e-01 7.4295145273208618e-01</leafValues></_>
        <_>
          <internalNodes>
            0 -1 15 1593883863 -569049166 -28005473 2132410161
            2139088126 -537591818 746434283 1846131450</internalNodes>
          <leafValues>
            -6.6577595472335815e-01 7.9771906137466431e-01</leafValues></_>
        <_>
          <internalNodes>
            0 -1 23 276826256 -938921981 469831827 -1857486848 32920
            -2002771840 -805247983 -1735884600</internalNodes>
          <leafValues>
            -7.1177834272384644e-01 7.2388386726379395e-01</leafValues></_>
        <_>
          <internalNodes>
            0 -1 48 1714679742 -80543753 -528403 -33947659 -839135237
            -80478222 -1929392166 -101654661</internalNodes>
          <leafValues>
            -6.7923873662948608e-01 8.4030133485794067e-01</leafValues></_>
        <_>
          <internalNodes>
            0 -1 0 -22696026 1743777770 -286261526 1994850284 2002747248
            1308098551 1953986391 -775424513</internalNodes>
          <leafValues>
            -6.3987320661544800e-01 8.2348722219467163e-01</leafValues></_></weakClassifiers></_>
    <!-- stage 8 -->
    <_>
      <maxWeakCount>7</maxWeakCount>
      <stageThreshold>-2.6007509231567383e-01</stageThreshold>
      <weakClassifiers>
        <_>
          <internalNodes>
            0 -1 16 -285477170 -38014770 -536871030 -393233 1988096010
            1349941114 1161130943 253823</internalNodes>
          <leafValues>
            -5.5208331346511841e-01 8.9395070075988770e-01</leafValues></_>
        <_>
          <internalNodes>
            0 -1 33 -1059094369 -906045057 -989863681 -201606657
            -1090566961 -2230503 1912512759 -82672623</internalNodes>
          <leafValues>
            -5.8273178339004517e-01 8.5645329952239990e-01</leafValues></_>
        <_>
          <internalNodes>
            0 -1 55 -161757041 17074839 -1946156785 1140916233
            1112015192 268437506 4097 1426573531</internalNodes>
          <leafValues>
            -6.5526723861694336e-01 7.8798830509185791e-01</leafValues></_>
        <_>
          <internalNodes>
            0 -1 12 998262224 -1827520123 285216927 -116588399
            -1475837814 -1728045048 1224736971 973614208</internalNodes>
          <leafValues>
            -7.4302184581756592e-01 7.1537280082702637e-01</leafValues></_>
        <_>
          <internalNodes>
            0 -1 3 -648969076 -652672829 598065 26804356 -2004254551
            26249226 -2130706201 -1424908163</internalNodes>
          <leafValues>
            -7.1103811264038086e-01 7.2882455587387085e-01</leafValues></_>
        <_>
          <internalNodes>
            0 -1 19 1771395 1346625737 -2080292607 -1023262719
            1350582403 -2138963837 53269 -1593064861</internalNodes>
          <leafValues>
            -6.9857490062713623e-01 7.3682433366775513e-01</leafValues></_>
        <_>
          <internalNodes>
            0 -1 22 268501021 285802513 -2130671595 -1727426301
            134219832 -1744608832 144779400 -335052022</internalNodes>
          <leafValues>
            -6.5718585252761841e-01 8.5289514064788818e-01</leafValues></_></weakClassifiers></_>
    <!-- stage 9 -->
    <_>
      <maxWeakCount>8</maxWeakCount>
      <stageThreshold>4.2184776067733765e-01</stageThreshold>
      <weakClassifiers>
        <_>
          <internalNodes>
            0 -1 29 -1208090630 1070661628 -1073790996 1073741820
            -142804995 97845244 -142723076 1434320892</internalNodes>
          <leafValues>
            -5.9116023778915405e-01 8.8740742206573486e-01</leafValues></_>
        <_>
          <internalNodes>
            0 -1 32 -1337468917 -1059719183 -134283481 -782794909
            -721944789 -1059717477 -536875125 -1052707070</internalNodes>
          <leafValues>
            -5.9812635183334351e-01 8.6248272657394409e-01</leafValues></_>
        <_>
          <internalNodes>
            0 -1 25 -1070432102 -100720419 -1158432517 -69207319 -534571
            -18878575 -1677788419 -851589109</internalNodes>
          <leafValues>
            -6.2836295366287231e-01 7.9599452018737793e-01</leafValues></_>
        <_>
          <internalNodes>
            0 -1 45 -68055591 -110853 -1358983237 -269341190 2147344383
            1609957375 804654827 -655324934</internalNodes>
          <leafValues>
            -6.3964056968688965e-01 7.9045456647872925e-01</leafValues></_>
        <_>
          <internalNodes>
            0 -1 1 -503066525 180227 17367554 135754 -2113871867 512
            1079034016 -691871101</internalNodes>
          <leafValues>
            -6.6983151435852051e-01 7.4711388349533081e-01</leafValues></_>
        <_>
          <internalNodes>
            0 -1 59 -729291133 -1067975746 936902655 -1052639234
            -1501561085 -597755905 -169498821 -1005639932</internalNodes>
          <leafValues>
            -6.6295456886291504e-01 7.6310241222381592e-01</leafValues></_>
        <_>
          <internalNodes>
            0 -1 26 -803670565 291000449 67375303 142606337 1087705356
            -1207828464 134219272 1213104162</internalNodes>
          <leafValues>
            -7.3480862379074097e-01 7.1138513088226318e-01</leafValues></_>
        <_>
          <internalNodes>
            0 -1 14 -1329592772 160432146 268440017 622153993 16818272
            -1199341536 -1878916991 412745800</internalNodes>
          <leafValues>
            -8.4587872028350830e-01 6.2686204910278320e-01</leafValues></_></weakClassifiers></_>
    <!-- stage 10 -->
    <_>
      <maxWeakCount>7</maxWeakCount>
      <stageThreshold>-1.4206343889236450e-01</stageThreshold>
      <weakClassifiers>
        <_>
          <internalNodes>
            0 -1 39 -280966892 -187630268 -67126275 1474101212
            1778184168 -724239084 729754555 -1107436075</internalNodes>
          <leafValues>
            -5.1912569999694824e-01 8.7982195615768433e-01</leafValues></_>
        <_>
          <internalNodes>
            0 -1 7 577982531 -287051787 -268435721 718990950 -76417163
            -143261835 729284469 -18354345</internalNodes>
          <leafValues>
            -6.0019510984420776e-01 8.2138586044311523e-01</leafValues></_>
        <_>
          <internalNodes>
            0 -1 2 -486543926 -990908690 1861135434 -487592210
            -268482969 888633319 1333077604 -789317761</internalNodes>
          <leafValues>
            -6.3766324520111084e-01 7.8190898895263672e-01</leafValues></_>
        <_>
          <internalNodes>
            0 -1 63 1191178022 1692855855 -285311004 -218169737
            2004739584 -1067139356 -1024089056 -962072874</internalNodes>
          <leafValues>
            -6.6429662704467773e-01 7.8586393594741821e-01</leafValues></_>
        <_>
          <internalNodes>
            0 -1 30 -1065316086 -3866757 -1478929 -151265373 1135664356
            1169489919 -42467341 -2913365</internalNodes>
          <leafValues>
            -6.5541762113571167e-01 7.9678553342819214e-01</leafValues></_>
        <_>
          <internalNodes>
            0 -1 40 -737404417 1060175867 266153727 -805486620 -4214789
            2138357738 518921341 -76353415</internalNodes>
          <leafValues>
            -6.2509059906005859e-01 8.5161280632019043e-01</leafValues></_>
        <_>
          <internalNodes>
            0 -1 13 21594269 1217503621 6295981 1394188484 -1609924563
            184551552 -2104848074 1120096768</internalNodes>
          <leafValues>
            -7.8544926643371582e-01 6.8999266624450684e-01</leafValues></_></weakClassifiers></_></stages>
  <features>
    <_>
      <rect>
        0 7 1 5</rect></_>
    <_>
      <rect>
        0 9 1 3</rect></_>
    <_>
      <rect>
        0 18 1 2</rect></_>
    <_>
      <rect>
        1 0 11 6</rect></_>
    <_>
      <rect>
        1 1 11 4</rect></_>
    <_>
      <rect>
        2 5 5 3</rect></_>
    <_>
      <rect>
        2 25 4 1</rect></_>
    <_>
      <rect>
        3 0 5 6</rect></_>
    <_>
      <rect>
        3 0 10 6</rect></_>
    <_>
      <rect>
        3 4 5 4</rect></_>
    <_>
      <rect>
        3 5 5 3</rect></_>
    <_>
      <rect>
        3 7 3 6</rect></_>
    <_>
      <rect>
        3 25 2 1</rect></_>
    <_>
      <rect>
        4 8 10 4</rect></_>
    <_>
      <rect>
        5 25 5 1</rect></_>
    <_>
      <rect>
        6 4 9 4</rect></_>
    <_>
      <rect>
        6 13 3 3</rect></_>
    <_>
      <rect>
        7 0 5 1</rect></_>
    <_>
      <rect>
        7 8 8 2</rect></_>
    <_>
      <rect>
        8 0 2 7</rect></_>
    <_>
      <rect>
        8 8 9 2</rect></_>
    <_>
      <rect>
        9 5 3 5</rect></_>
    <_>
      <rect>
        9 10 9 2</rect></_>
    <_>
      <rect>
        9 25 6 1</rect></_>
    <_>
      <rect>
        10 6 5 2</rect></_>
    <_>
      <rect>
        12 4 4 4</rect></_>
    <_>
      <rect>
        12 6 7 2</rect></_>
    <_>
      <rect>
        12 8 3 5</rect></_>
    <_>
      <rect>
        12 14 3 3</rect></_>
    <_>
      <rect>
        12 19 3 3</rect></_>
    <_>
      <rect>
        13 0 2 6</rect></_>
    <_>
      <rect>
        13 4 2 6</rect></_>
    <_>
      <rect>
        14 4 2 5</rect></_>
    <_>
      <rect>
        14 4 3 4</rect></_>
    <_>
      <rect>
        14 7 2 5</rect></_>
    <_>
      <rect>
        14 7 6 2</rect></_>
    <_>
      <rect>
        15 4 6 4</rect></_>
    <_>
      <rect>
        15 5 4 4</rect></_>
    <_>
      <rect>
        15 5 4 5</rect></_>
    <_>
      <rect>
        15 5 6 4</rect></_>
    <_>
      <rect>
        15 6 3 2</rect></_>
    <_>
      <rect>
        15 9 4 5</rect></_>
    <_>
      <rect>
        15 11 4 4</rect></_>
    <_>
      <rect>
        15 16 4 3</rect></_>
    <_>
      <rect>
        16 3 2 4</rect></_>
    <_>
      <rect>
        16 4 2 3</rect></_>
    <_>
      <rect>
        16 5 2 3</rect></_>
    <_>
      <rect>
        18 0 3 6</rect></_>
    <_>
      <rect>
        18 4 5 4</rect></_>
    <_>
      <rect>
        18 7 5 2</rect></_>
    <_>
      <rect>
        19 3 4 5</rect></_>
    <_>
      <rect>
        19 5 5 3</rect></_>
    <_>
      <rect>
        19 5 5 4</rect></_>
    <_>
      <rect>
        19 8 3 2</rect></_>
    <_>
      <rect>
        21 0 2 1</rect></_>
    <_>
      <rect>
        21 3 3 6</rect></_>
    <_>
      <rect>
        21 5 4 3</rect></_>
    <_>
      <rect>
        21 6 3 5</rect></_>
    <_>
      <rect>
        21 13 3 5</rect></_>
    <_>
      <rect>
        23 2 2 6</rect></_>
    <_>
      <rect>
        24 3 3 5</rect></_>
    <_>
      <rect>
        24 12 3 2</rect></_>
    <_>
      <rect>
        24 16 3 4</rect></_>
    <_>
      <rect>
        33 3 1 7</rect></_>
    <_>
      <rect>
        33 7 1 2</rect></_>
    <_>
      <rect>
        33 8 1 4</rect></_></features></cascade>
</opencv_storage>
