<?xml version="1.0"?>
<opencv_storage>
<cascade>
  <stageType>BOOST</stageType>
  <featureType>LBP</featureType>
  <height>28</height>
  <width>36</width>
  <stageParams>
    <boostType>GAB</boostType>
    <minHitRate>9.9900001287460327e-01</minHitRate>
    <maxFalseAlarm>5.0000000745058060e-02</maxFalseAlarm>
    <weightTrimRate>9.4999999999999996e-01</weightTrimRate>
    <maxDepth>1</maxDepth>
    <maxWeakCount>100</maxWeakCount></stageParams>
  <featureParams>
    <maxCatCount>256</maxCatCount>
    <featSize>1</featSize></featureParams>
  <stageNum>15</stageNum>
  <stages>
    <!-- stage 0 -->
    <_>
      <maxWeakCount>5</maxWeakCount>
      <stageThreshold>1.1118483543395996e+00</stageThreshold>
      <weakClassifiers>
        <_>
          <internalNodes>
            0 -1 53 -134374418 -680132625 804040584 1844441071
            -134217814 1391788021 2147200778 1408483323</internalNodes>
          <leafValues>
            -8.3168315887451172e-01 9.4732880592346191e-01</leafValues></_>
        <_>
          <internalNodes>
            0 -1 58 -931820367 -545796877 -1393096449 -865038 -537424641
            -545783817 -822146821 -864819981</internalNodes>
          <leafValues>
            -6.9173228740692139e-01 9.4090735912322998e-01</leafValues></_>
        <_>
          <internalNodes>
            0 -1 28 16814384 -788430848 16777473 453054465 8345
            -637009789 -2147483493 -1953955830</internalNodes>
          <leafValues>
            -7.5437015295028687e-01 9.1201180219650269e-01</leafValues></_>
        <_>
          <internalNodes>
            0 -1 79 -805260365 822083712 1073741973 1359222800 136
            -520093568 65755 -553434929</internalNodes>
          <leafValues>
            -7.3491126298904419e-01 9.3005836009979248e-01</leafValues></_>
        <_>
          <internalNodes>
            0 -1 92 -788403510 -1858076672 128 85000193 -938966898
            1124074128 -1878980469 1134020635</internalNodes>
          <leafValues>
            -8.3944600820541382e-01 8.5516142845153809e-01</leafValues></_></weakClassifiers></_>
    <!-- stage 1 -->
    <_>
      <maxWeakCount>5</maxWeakCount>
      <stageThreshold>9.9803239107131958e-01</stageThreshold>
      <weakClassifiers>
        <_>
          <internalNodes>
            0 -1 52 -4194428 -65538 -2 2147483630 -18 -19 -135267346
            1676656111</internalNodes>
          <leafValues>
            -7.9894179105758667e-01 9.2548435926437378e-01</leafValues></_>
        <_>
          <internalNodes>
            0 -1 42 1979185094 -1141899593 -1048657 1979571966
            -134217730 -1310722513 -2049 1350284751</internalNodes>
          <leafValues>
            -7.6528328657150269e-01 9.1024136543273926e-01</leafValues></_>
        <_>
          <internalNodes>
            0 -1 61 268566578 1560346624 153 285278235 -2146893685
            268435456 134742171 -1727266752</internalNodes>
          <leafValues>
            -7.4929535388946533e-01 8.9072173833847046e-01</leafValues></_>
        <_>
          <internalNodes>
            0 -1 90 -804613302 1358987266 -2080357952 -1761542142
            268468897 -1711276022 268533832 -874804606</internalNodes>
          <leafValues>
            -8.4085220098495483e-01 8.3126521110534668e-01</leafValues></_>
        <_>
          <internalNodes>
            0 -1 16 352451218 928218996 1047374588 1062600567 2100788991
            1561425911 1849687803 1029172731</internalNodes>
          <leafValues>
            -8.3525407314300537e-01 8.4576827287673950e-01</leafValues></_></weakClassifiers></_>
    <!-- stage 2 -->
    <_>
      <maxWeakCount>6</maxWeakCount>
      <stageThreshold>6.5978306531906128e-01</stageThreshold>
      <weakClassifiers>
        <_>
          <internalNodes>
            0 -1 81 -541065594 -2785317 -131220 2013265915 -134222338
            -138546179 -4434 1903555423</internalNodes>
          <leafValues>
            -5.8744394779205322e-01 9.3425077199935913e-01</leafValues></_>
        <_>
          <internalNodes>
            0 -1 70 -1213010053 -80674832 -268443673 -135135241
            241534631 1475542898 -1400926469 -1141639307</internalNodes>
          <leafValues>
            -5.9757411479949951e-01 9.1583198308944702e-01</leafValues></_>
        <_>
          <internalNodes>
            0 -1 91 -36702360 -134365185 -1911804152 1599970565 -8519701
            1911681789 -131556 -44057619</internalNodes>
          <leafValues>
            -6.1204415559768677e-01 8.9779615402221680e-01</leafValues></_>
        <_>
          <internalNodes>
            0 -1 68 1665385959 -251475831 -2139029488 -687783671
            -2147319669 570425352 -1040072569 2004048911</internalNodes>
          <leafValues>
            -7.4169963598251343e-01 8.1033647060394287e-01</leafValues></_>
        <_>
          <internalNodes>
            0 -1 98 -423637437 1089470318 -419582080 -931201026
            1953859072 1079279362 1323591296 -523765881</internalNodes>
          <leafValues>
            -6.5577000379562378e-01 8.9157104492187500e-01</leafValues></_>
        <_>
          <internalNodes>
            0 -1 62 1885836167 -1878916864 2 -2130427389 -1870430141
            17465479 -1610202987 -166799349</internalNodes>
          <leafValues>
            -7.1258676052093506e-01 8.2277989387512207e-01</leafValues></_></weakClassifiers></_>
    <!-- stage 3 -->
    <_>
      <maxWeakCount>6</maxWeakCount>
      <stageThreshold>3.2563853263854980e-01</stageThreshold>
      <weakClassifiers>
        <_>
          <internalNodes>
            0 -1 54 -671093010 -67895554 -1347516914 531099599 -21
            1962276861 2147479534 -176160769</internalNodes>
          <leafValues>
            -6.0000002384185791e-01 9.1553544998168945e-01</leafValues></_>
        <_>
          <internalNodes>
            0 -1 18 1985085137 1968242464 779923070 -11014537 2136338101
            -565051404 -1403654401 -346706377</internalNodes>
          <leafValues>
            -6.3366872072219849e-01 9.0433716773986816e-01</leafValues></_>
        <_>
          <internalNodes>
            0 -1 20 2146905772 1433731068 -98308 1308557310 -73048
            2147352573 -1073975806 -4294</internalNodes>
          <leafValues>
            -7.1607130765914917e-01 8.1844699382781982e-01</leafValues></_>
        <_>
          <internalNodes>
            0 -1 23 2053209943 -25755786 -285757441 1786507263
            -699304076 -8945801 -159940737 -211329169</internalNodes>
          <leafValues>
            -7.4650913476943970e-01 7.9260343313217163e-01</leafValues></_>
        <_>
          <internalNodes>
            0 -1 57 -486506429 -1065221967 2579 -2054880623 -1601142641
            -394231784 -2146697075 -750567352</internalNodes>
          <leafValues>
            -7.6773869991302490e-01 7.8855246305465698e-01</leafValues></_>
        <_>
          <internalNodes>
            0 -1 7 -947138134 1241710592 -2147450880 192 -1072512894
            276856963 -1576914878 -758398889</internalNodes>
          <leafValues>
            -7.6131534576416016e-01 7.3957264423370361e-01</leafValues></_></weakClassifiers></_>
    <!-- stage 4 -->
    <_>
      <maxWeakCount>6</maxWeakCount>
      <stageThreshold>3.7861073017120361e-01</stageThreshold>
      <weakClassifiers>
        <_>
          <internalNodes>
            0 -1 89 1995338664 -7799224 -363 -1114130 1996486527
            -1050644 1946122239 -672139346</internalNodes>
          <leafValues>
            -6.6666668653488159e-01 9.1038089990615845e-01</leafValues></_>
        <_>
          <internalNodes>
            0 -1 47 1090556376 419696896 4117 -1726373744 -2146858822
            -1742104448 436273787 -1198712312</internalNodes>
          <leafValues>
            -6.8845075368881226e-01 8.7393993139266968e-01</leafValues></_>
        <_>
          <internalNodes>
            0 -1 36 1063121 -788529021 419430809 83886085 -1728051014
            -2002026488 -2139086438 174854464</internalNodes>
          <leafValues>
            -6.7848789691925049e-01 8.6746633052825928e-01</leafValues></_>
        <_>
          <internalNodes>
            0 -1 39 304 1428160528 88085529 -1727786863 134265018
            -671080448 545294489 754974888</internalNodes>
          <leafValues>
            -8.0977648496627808e-01 7.7665114402770996e-01</leafValues></_>
        <_>
          <internalNodes>
            0 -1 72 -1475231310 285212800 16865553 2143256708
            -2071951214 -1987936120 -2004811560 -595013498</internalNodes>
          <leafValues>
            -7.6486372947692871e-01 8.0940407514572144e-01</leafValues></_>
        <_>
          <internalNodes>
            0 -1 44 -1560276839 353370112 347 -553545344 -2013232949
            -1564442616 1073905883 -1148714624</internalNodes>
          <leafValues>
            -7.0259737968444824e-01 8.6663430929183960e-01</leafValues></_></weakClassifiers></_>
    <!-- stage 5 -->
    <_>
      <maxWeakCount>6</maxWeakCount>
      <stageThreshold>3.2966288924217224e-01</stageThreshold>
      <weakClassifiers>
        <_>
          <internalNodes>
            0 -1 41 -1065408 -2162830 -1 -16401 2013097958 -8211
            1660909550 1946157026</internalNodes>
          <leafValues>
            -7.3584908246994019e-01 8.8046646118164063e-01</leafValues></_>
        <_>
          <internalNodes>
            0 -1 80 -88408065 -1843331120 -8706 -1151139866 670530559
            -100990978 234839492 -1141246115</internalNodes>
          <leafValues>
            -6.0966032743453979e-01 8.9357793331146240e-01</leafValues></_>
        <_>
          <internalNodes>
            0 -1 10 -1634456868 2113699806 805051070 -126978 -492099
            -131073 257225657 981992704</internalNodes>
          <leafValues>
            -6.9821757078170776e-01 8.2662421464920044e-01</leafValues></_>
        <_>
          <internalNodes>
            0 -1 64 -1036803097 -1791950332 -2142535550 -805175293
            -1866266611 -1597949743 1637353118 -686581567</internalNodes>
          <leafValues>
            -7.4999707937240601e-01 8.0390053987503052e-01</leafValues></_>
        <_>
          <internalNodes>
            0 -1 30 -1844977404 -1862204989 81 -786087931 -1572270062
            -1840611192 -662175249 -1563446876</internalNodes>
          <leafValues>
            -7.7433943748474121e-01 7.4868565797805786e-01</leafValues></_>
        <_>
          <internalNodes>
            0 -1 34 -1224984065 -1082708675 536751871 -1074057731
            -213000 -114690 -1111554834 -1880781138</internalNodes>
          <leafValues>
            -7.0403814315795898e-01 8.3477693796157837e-01</leafValues></_></weakClassifiers></_>
    <!-- stage 6 -->
    <_>
      <maxWeakCount>6</maxWeakCount>
      <stageThreshold>2.5707113742828369e-01</stageThreshold>
      <weakClassifiers>
        <_>
          <internalNodes>
            0 -1 55 -303420370 -7471121 -1084379616 -536870979 -278529
            2012573439 -135 1995964413</internalNodes>
          <leafValues>
            -7.7333331108093262e-01 8.7400436401367188e-01</leafValues></_>
        <_>
          <internalNodes>
            0 -1 24 208404253 804257556 250609649 1879048179 -536936467
            -458896 -1219493931 -97882112</internalNodes>
          <leafValues>
            -6.3760870695114136e-01 8.7389338016510010e-01</leafValues></_>
        <_>
          <internalNodes>
            0 -1 17 -1212197033 -956399759 -402653457 -456196124
            897021283 -8421377 -34111553 -655990993</internalNodes>
          <leafValues>
            -7.0971161127090454e-01 8.1133049726486206e-01</leafValues></_>
        <_>
          <internalNodes>
            0 -1 69 -474745106 -210503691 -791857 -33882121 -184858649
            -210502657 -505082930 -151918097</internalNodes>
          <leafValues>
            -7.2939103841781616e-01 7.5835019350051880e-01</leafValues></_>
        <_>
          <internalNodes>
            0 -1 29 -230442808 50331667 65574 403252291 -1711046504
            131074 -2138926900 1910489291</internalNodes>
          <leafValues>
            -7.0827144384384155e-01 7.4491620063781738e-01</leafValues></_>
        <_>
          <internalNodes>
            0 -1 14 611891 17236359 268968072 -1744240632 134748874
            -92142717 285247584 1111703824</internalNodes>
          <leafValues>
            -7.7287924289703369e-01 6.9953227043151855e-01</leafValues></_></weakClassifiers></_>
    <!-- stage 7 -->
    <_>
      <maxWeakCount>8</maxWeakCount>
      <stageThreshold>4.2707759141921997e-01</stageThreshold>
      <weakClassifiers>
        <_>
          <internalNodes>
            0 -1 1 -1074333800 787939354 -285409308 1878994942 -4063292
            1877966847 -134938816 -353665033</internalNodes>
          <leafValues>
            -4.8543688654899597e-01 8.9886790513992310e-01</leafValues></_>
        <_>
          <internalNodes>
            0 -1 46 -790236983 1409285839 821821151 -772015265
            -201328705 -33620218 -1325401401 -105989621</internalNodes>
          <leafValues>
            -4.8972952365875244e-01 8.9250349998474121e-01</leafValues></_>
        <_>
          <internalNodes>
            0 -1 71 -67372353 858980275 -1073754122 -1409679361
            267882046 2033383415 234819149 -5013548</internalNodes>
          <leafValues>
            -6.3651782274246216e-01 8.3199268579483032e-01</leafValues></_>
        <_>
          <internalNodes>
            0 -1 33 -1047313266 1127481346 -2146369536 1359052880
            -1878912376 1611139072 -939356020 -1488213782</internalNodes>
          <leafValues>
            -7.3941516876220703e-01 7.2517955303192139e-01</leafValues></_>
        <_>
          <internalNodes>
            0 -1 56 -9261837 -537661709 787975931 -17477853 -536883721
            -8597769 1878977791 -337383762</internalNodes>
          <leafValues>
            -6.4717400074005127e-01 7.6423686742782593e-01</leafValues></_>
        <_>
          <internalNodes>
            0 -1 6 -1073485085 -2147282942 8388608 -1065205758
            -536305662 1778548872 -2147153856 -1039733553</internalNodes>
          <leafValues>
            -6.7555224895477295e-01 7.8943443298339844e-01</leafValues></_>
        <_>
          <internalNodes>
            0 -1 97 1326886938 1595473921 268976424 1162018817
            2017624065 570949636 -1610481280 1967669641</internalNodes>
          <leafValues>
            -8.4399563074111938e-01 6.1472320556640625e-01</leafValues></_>
        <_>
          <internalNodes>
            0 -1 35 1610780822 1348472848 268566608 285311105
            -1992257392 -662140928 -1744811656 457572480</internalNodes>
          <leafValues>
            -7.5122034549713135e-01 6.7685645818710327e-01</leafValues></_></weakClassifiers></_>
    <!-- stage 8 -->
    <_>
      <maxWeakCount>7</maxWeakCount>
      <stageThreshold>1.0229587554931641e+00</stageThreshold>
      <weakClassifiers>
        <_>
          <internalNodes>
            0 -1 43 -265228 -1280069386 -278612 -1747648513 2147334133
            838103924 -16777217 1903556479</internalNodes>
          <leafValues>
            -5.3125000000000000e-01 8.9096343517303467e-01</leafValues></_>
        <_>
          <internalNodes>
            0 -1 51 -2059136047 -549126195 2145465063 -682757507
            1305278429 -14812177 -1067710324 -548105251</internalNodes>
          <leafValues>
            -5.9187209606170654e-01 8.4858071804046631e-01</leafValues></_>
        <_>
          <internalNodes>
            0 -1 15 1578413649 -9310223 -293754113 -9068944 -19546131
            -137035819 -6308101 -548032937</internalNodes>
          <leafValues>
            -6.5372425317764282e-01 8.1863164901733398e-01</leafValues></_>
        <_>
          <internalNodes>
            0 -1 66 -1660339152 302035400 -1878949871 -920845233
            -2066775679 -1862270840 549521537 663332877</internalNodes>
          <leafValues>
            -8.3390522003173828e-01 6.9320851564407349e-01</leafValues></_>
        <_>
          <internalNodes>
            0 -1 50 34603029 1090584641 420491415 420810833 -2002746453
            -1995898880 26876079 329777289</internalNodes>
          <leafValues>
            -7.5749820470809937e-01 6.9727575778961182e-01</leafValues></_>
        <_>
          <internalNodes>
            0 -1 49 -796950305 -66339 553633965 -33554465 -16777994
            -67987 -218141957 -143588533</internalNodes>
          <leafValues>
            -6.6713947057723999e-01 8.2797431945800781e-01</leafValues></_>
        <_>
          <internalNodes>
            0 -1 4 1799602342 -1048378874 1073742080 -800964598 35138
            1091047425 1090654352 -238567104</internalNodes>
          <leafValues>
            -7.4736005067825317e-01 7.4090790748596191e-01</leafValues></_></weakClassifiers></_>
    <!-- stage 9 -->
    <_>
      <maxWeakCount>8</maxWeakCount>
      <stageThreshold>3.9615267515182495e-01</stageThreshold>
      <weakClassifiers>
        <_>
          <internalNodes>
            0 -1 12 913786691 -17338499 -8388609 -857329818 2004252020
            -16812097 -8454161 -285769875</internalNodes>
          <leafValues>
            -3.2793521881103516e-01 9.1277259588241577e-01</leafValues></_>
        <_>
          <internalNodes>
            0 -1 27 287310332 1413492912 1342242843 -2116419392
            -1071830787 -1810300856 134218330 -1668699503</internalNodes>
          <leafValues>
            -7.1215534210205078e-01 7.8853255510330200e-01</leafValues></_>
        <_>
          <internalNodes>
            0 -1 26 406066356 -1079836937 1073741793 -37797899
            -1652768868 -1880293386 -1772306963 -1885862724</internalNodes>
          <leafValues>
            -6.2008327245712280e-01 8.0499589443206787e-01</leafValues></_>
        <_>
          <internalNodes>
            0 -1 95 -788282874 -1876877056 1107296396 1229492385 33154
            545263688 -1878900694 -708066497</internalNodes>
          <leafValues>
            -6.9441425800323486e-01 7.8013736009597778e-01</leafValues></_>
        <_>
          <internalNodes>
            0 -1 45 110723 9633995 -2147481562 -1694384126 -1837072254
            -2111766400 -1979350897 -813579638</internalNodes>
          <leafValues>
            -6.8110686540603638e-01 7.6324158906936646e-01</leafValues></_>
        <_>
          <internalNodes>
            0 -1 74 1231144143 -2127527934 4196381 -2147122172
            -1979162615 -1467957244 75499522 445333849</internalNodes>
          <leafValues>
            -7.2469234466552734e-01 6.8098866939544678e-01</leafValues></_>
        <_>
          <internalNodes>
            0 -1 99 1934320391 1073971202 -2147483640 -1068432864 393221
            876560 -1035796480 -654061565</internalNodes>
          <leafValues>
            -6.8876844644546509e-01 7.7640855312347412e-01</leafValues></_>
        <_>
          <internalNodes>
            0 -1 37 -1852735092 -1979711366 1107461521 -1862270896
            268634112 136183825 -1971089270 -1147109236</internalNodes>
          <leafValues>
            -7.9491215944290161e-01 6.5956425666809082e-01</leafValues></_></weakClassifiers></_>
    <!-- stage 10 -->
    <_>
      <maxWeakCount>8</maxWeakCount>
      <stageThreshold>6.6750782728195190e-01</stageThreshold>
      <weakClassifiers>
        <_>
          <internalNodes>
            0 -1 60 -957379341 -805992206 -889222932 -1091055629
            -285233479 2046853120 -2097181955 -1003295629</internalNodes>
          <leafValues>
            -3.7272727489471436e-01 8.9473682641983032e-01</leafValues></_>
        <_>
          <internalNodes>
            0 -1 19 -951591145 -269045897 -1 736587750 -545956015
            -143130761 -160169985 -1099434121</internalNodes>
          <leafValues>
            -5.0588107109069824e-01 8.5174053907394409e-01</leafValues></_>
        <_>
          <internalNodes>
            0 -1 13 -1034650023 -1108017544 796798971 796900982
            2136341661 -546046092 1879015295 -92312710</internalNodes>
          <leafValues>
            -5.4859894514083862e-01 8.3475965261459351e-01</leafValues></_>
        <_>
          <internalNodes>
            0 -1 5 -1054605090 -2147483519 4214809 -1040056316 67338400
            -1275035648 135364795 191746599</internalNodes>
          <leafValues>
            -7.7178984880447388e-01 6.5839010477066040e-01</leafValues></_>
        <_>
          <internalNodes>
            0 -1 22 -1136748359 2147467004 1073495805 -37896587
            -1082573351 -131076 -1222344706 -1917842036</internalNodes>
          <leafValues>
            -5.8667004108428955e-01 8.1582784652709961e-01</leafValues></_>
        <_>
          <internalNodes>
            0 -1 59 -254605045 1342308609 4105 1214472448 16941057
            -2013233152 8720 -792510464</internalNodes>
          <leafValues>
            -6.9263541698455811e-01 7.1519547700881958e-01</leafValues></_>
        <_>
          <internalNodes>
            0 -1 78 1818510293 1828651005 1073725171 2147467247
            2138853112 -1098973697 -402883462 -1938153708</internalNodes>
          <leafValues>
            -6.5784466266632080e-01 7.5186747312545776e-01</leafValues></_>
        <_>
          <internalNodes>
            0 -1 40 -234373885 -7536657 -193464796 -4030676 777387735
            -411566113 -285770746 -1349794390</internalNodes>
          <leafValues>
            -6.1450135707855225e-01 8.1010031700134277e-01</leafValues></_></weakClassifiers></_>
    <!-- stage 11 -->
    <_>
      <maxWeakCount>7</maxWeakCount>
      <stageThreshold>-3.3360514044761658e-01</stageThreshold>
      <weakClassifiers>
        <_>
          <internalNodes>
            0 -1 88 218097127 250085359 -268451857 201064439 -302035597
            1325400055 1862229813 217054839</internalNodes>
          <leafValues>
            -5.2284264564514160e-01 8.9505249261856079e-01</leafValues></_>
        <_>
          <internalNodes>
            0 -1 96 -765729306 -2128281577 268502227 -784318464
            541491331 -1475346432 606208 1898296323</internalNodes>
          <leafValues>
            -7.4733889102935791e-01 7.7239108085632324e-01</leafValues></_>
        <_>
          <internalNodes>
            0 -1 48 -1070232513 1896939776 268509185 1511262593
            -251526775 -1710585856 -1711136635 -285129167</internalNodes>
          <leafValues>
            -7.2977638244628906e-01 7.2898632287979126e-01</leafValues></_>
        <_>
          <internalNodes>
            0 -1 67 268964092 -720371632 61 -720633595 -2130691191
            -1467400192 -2117588917 -1693974008</internalNodes>
          <leafValues>
            -7.0117264986038208e-01 7.2510832548141479e-01</leafValues></_>
        <_>
          <internalNodes>
            0 -1 8 1682856862 -1140817781 16912410 -1727397886
            1074266240 -2004811646 1073808016 -540913125</internalNodes>
          <leafValues>
            -7.0592451095581055e-01 7.3800641298294067e-01</leafValues></_>
        <_>
          <internalNodes>
            0 -1 32 1119353 320147489 4433 -619642878 -1879015407
            8388872 956350862 -225804144</internalNodes>
          <leafValues>
            -6.7105805873870850e-01 7.9142922163009644e-01</leafValues></_>
        <_>
          <internalNodes>
            0 -1 100 -153781 1996423038 -1074811386 -419500033
            -973079038 16777078 -143229438 -491257937</internalNodes>
          <leafValues>
            -6.7368513345718384e-01 7.6229083538055420e-01</leafValues></_></weakClassifiers></_>
    <!-- stage 12 -->
    <_>
      <maxWeakCount>8</maxWeakCount>
      <stageThreshold>5.5446743965148926e-01</stageThreshold>
      <weakClassifiers>
        <_>
          <internalNodes>
            0 -1 25 -259267638 -51380358 -268502106 -33554497 2004481084
            343375838 1074921484 16982106</internalNodes>
          <leafValues>
            -6.5333330631256104e-01 8.6097031831741333e-01</leafValues></_>
        <_>
          <internalNodes>
            0 -1 63 1911951067 1811550201 1610551293 -705376304
            1602179071 2113212414 1878495230 -739078949</internalNodes>
          <leafValues>
            -5.3302359580993652e-01 8.6487740278244019e-01</leafValues></_>
        <_>
          <internalNodes>
            0 -1 82 -75776265 -1707541520 -1073741827 792395768
            1342127613 -1364459521 1845448189 -1884815370</internalNodes>
          <leafValues>
            -5.9805411100387573e-01 7.9666125774383545e-01</leafValues></_>
        <_>
          <internalNodes>
            0 -1 76 303034523 34717697 285229073 25493587 -2011103093
            -1073381240 -935149559 151347917</internalNodes>
          <leafValues>
            -6.4039099216461182e-01 7.5566232204437256e-01</leafValues></_>
        <_>
          <internalNodes>
            0 -1 11 -39336491 -1094975706 2139095037 1052311479
            2011022812 -524425 -682100771 1067423709</internalNodes>
          <leafValues>
            -5.9752875566482544e-01 8.0555224418640137e-01</leafValues></_>
        <_>
          <internalNodes>
            0 -1 21 1360412984 1493438469 1082151701 -2129125376
            17302248 319899648 16793741 1809605004</internalNodes>
          <leafValues>
            -7.7408045530319214e-01 6.6399168968200684e-01</leafValues></_>
        <_>
          <internalNodes>
            0 -1 38 -16089635 1602682348 1598029310 521994200 -571574594
            -4276308 532093635 -1659914006</internalNodes>
          <leafValues>
            -6.6391509771347046e-01 7.7938687801361084e-01</leafValues></_>
        <_>
          <internalNodes>
            0 -1 86 1498336477 -989315056 536887811 285409281 536904931
            -1451192311 1086521356 -1276190591</internalNodes>
          <leafValues>
            -6.9654512405395508e-01 7.2480988502502441e-01</leafValues></_></weakClassifiers></_>
    <!-- stage 13 -->
    <_>
      <maxWeakCount>8</maxWeakCount>
      <stageThreshold>5.4784023761749268e-01</stageThreshold>
      <weakClassifiers>
        <_>
          <internalNodes>
            0 -1 87 15668279 183353343 -17 251658231 -67207181
            1207959287 -285803161 74674166</internalNodes>
          <leafValues>
            -5.3409093618392944e-01 8.7453871965408325e-01</leafValues></_>
        <_>
          <internalNodes>
            0 -1 2 -285784385 -335613980 -16781457 -339841082 2130135038
            -4227073 2139062271 -176193723</internalNodes>
          <leafValues>
            -4.5841407775878906e-01 8.7904739379882813e-01</leafValues></_>
        <_>
          <internalNodes>
            0 -1 93 -957358557 -1035753999 1081134449 -732692549
            -319692994 3179817 -2145344715 -1051602397</internalNodes>
          <leafValues>
            -5.5917865037918091e-01 8.0767017602920532e-01</leafValues></_>
        <_>
          <internalNodes>
            0 -1 31 276249565 385808188 2130673503 -1073759290
            -167837738 -1476526322 373161180 -111165944</internalNodes>
          <leafValues>
            -5.8565473556518555e-01 8.0595052242279053e-01</leafValues></_>
        <_>
          <internalNodes>
            0 -1 94 -1050815194 -708509696 -1073741556 188944960
            -2146910207 287310080 1073750664 -1786527299</internalNodes>
          <leafValues>
            -7.1852523088455200e-01 6.6987782716751099e-01</leafValues></_>
        <_>
          <internalNodes>
            0 -1 73 285 -1988067261 16781589 285278752 17318072
            -360480752 1090551979 -1904205692</internalNodes>
          <leafValues>
            -6.9834822416305542e-01 6.7669975757598877e-01</leafValues></_>
        <_>
          <internalNodes>
            0 -1 85 46658583 -1912471214 -1065024173 -1777004447
            136630577 344998432 1107296256 -1060518783</internalNodes>
          <leafValues>
            -6.5084755420684814e-01 7.6427745819091797e-01</leafValues></_>
        <_>
          <internalNodes>
            0 -1 0 1740873934 459010 0 -1073597440 -2143141373 167788546
            139392 -426261498</internalNodes>
          <leafValues>
            -7.7516531944274902e-01 6.6499829292297363e-01</leafValues></_></weakClassifiers></_>
    <!-- stage 14 -->
    <_>
      <maxWeakCount>7</maxWeakCount>
      <stageThreshold>8.8654941320419312e-01</stageThreshold>
      <weakClassifiers>
        <_>
          <internalNodes>
            0 -1 83 -209731670 -67176455 1022263022 -1756365076
            1710354896 1903448384 2012314395 1744123385</internalNodes>
          <leafValues>
            -6.0000002384185791e-01 8.7115663290023804e-01</leafValues></_>
        <_>
          <internalNodes>
            0 -1 9 1501561490 -651681022 205149 1216675910 98337
            -532668407 -871858161 201277519</internalNodes>
          <leafValues>
            -6.4343070983886719e-01 8.0379205942153931e-01</leafValues></_>
        <_>
          <internalNodes>
            0 -1 3 -1056724669 -2147172334 2097408 -1064959860
            1082146819 1073741824 268599297 -243060533</internalNodes>
          <leafValues>
            -6.0105192661285400e-01 8.2332366704940796e-01</leafValues></_>
        <_>
          <internalNodes>
            0 -1 75 24179932 1048720 268435465 -1828187903 4554882
            545325056 -1811899734 985645568</internalNodes>
          <leafValues>
            -7.8357422351837158e-01 7.2930735349655151e-01</leafValues></_>
        <_>
          <internalNodes>
            0 -1 84 -1561336081 -1396768769 -27 -809763073 -1351614570
            -2031091745 2130671605 -293873801</internalNodes>
          <leafValues>
            -6.8084174394607544e-01 7.8385615348815918e-01</leafValues></_>
        <_>
          <internalNodes>
            0 -1 77 295711128 1360101376 -989855615 285278480
            -2147483448 -1727790080 -1744306168 2074351624</internalNodes>
          <leafValues>
            -7.9897975921630859e-01 6.4151173830032349e-01</leafValues></_>
        <_>
          <internalNodes>
            0 -1 65 -284206606 -1627387757 272762889 -1979383796
            -1006600190 704667690 8651081 721555989</internalNodes>
          <leafValues>
            -8.2914102077484131e-01 6.5931296348571777e-01</leafValues></_></weakClassifiers></_></stages>
  <features>
    <_>
      <rect>
        0 6 1 3</rect></_>
    <_>
      <rect>
        0 6 4 5</rect></_>
    <_>
      <rect>
        0 6 6 2</rect></_>
    <_>
      <rect>
        0 7 1 4</rect></_>
    <_>
      <rect>
        0 8 1 5</rect></_>
    <_>
      <rect>
        0 9 3 6</rect></_>
    <_>
      <rect>
        0 10 1 3</rect></_>
    <_>
      <rect>
        0 16 1 1</rect></_>
    <_>
      <rect>
        0 22 2 2</rect></_>
    <_>
      <rect>
        1 11 2 5</rect></_>
    <_>
      <rect>
        1 25 3 1</rect></_>
    <_>
      <rect>
        2 0 4 7</rect></_>
    <_>
      <rect>
        2 5 5 3</rect></_>
    <_>
      <rect>
        2 6 10 3</rect></_>
    <_>
      <rect>
        2 10 9 3</rect></_>
    <_>
      <rect>
        3 0 10 6</rect></_>
    <_>
      <rect>
        3 2 10 4</rect></_>
    <_>
      <rect>
        3 4 4 3</rect></_>
    <_>
      <rect>
        3 4 10 4</rect></_>
    <_>
      <rect>
        3 5 5 4</rect></_>
    <_>
      <rect>
        3 7 3 7</rect></_>
    <_>
      <rect>
        3 22 4 2</rect></_>
    <_>
      <rect>
        3 25 3 1</rect></_>
    <_>
      <rect>
        4 4 5 4</rect></_>
    <_>
      <rect>
        6 8 9 4</rect></_>
    <_>
      <rect>
        6 15 3 2</rect></_>
    <_>
      <rect>
        6 25 5 1</rect></_>
    <_>
      <rect>
        8 6 9 3</rect></_>
    <_>
      <rect>
        8 8 7 2</rect></_>
    <_>
      <rect>
        8 17 2 2</rect></_>
    <_>
      <rect>
        9 5 3 5</rect></_>
    <_>
      <rect>
        9 8 8 4</rect></_>
    <_>
      <rect>
        9 11 8 1</rect></_>
    <_>
      <rect>
        9 14 3 2</rect></_>
    <_>
      <rect>
        10 6 5 2</rect></_>
    <_>
      <rect>
        10 7 6 1</rect></_>
    <_>
      <rect>
        10 8 6 1</rect></_>
    <_>
      <rect>
        10 16 6 4</rect></_>
    <_>
      <rect>
        11 5 7 3</rect></_>
    <_>
      <rect>
        12 0 4 1</rect></_>
    <_>
      <rect>
        12 3 2 5</rect></_>
    <_>
      <rect>
        12 4 6 6</rect></_>
    <_>
      <rect>
        12 8 3 5</rect></_>
    <_>
      <rect>
        12 14 3 4</rect></_>
    <_>
      <rect>
        12 25 4 1</rect></_>
    <_>
      <rect>
        13 3 2 5</rect></_>
    <_>
      <rect>
        13 6 3 3</rect></_>
    <_>
      <rect>
        13 8 7 2</rect></_>
    <_>
      <rect>
        14 4 3 4</rect></_>
    <_>
      <rect>
        14 6 3 3</rect></_>
    <_>
      <rect>
        15 0 3 1</rect></_>
    <_>
      <rect>
        15 2 5 5</rect></_>
    <_>
      <rect>
        15 3 4 6</rect></_>
    <_>
      <rect>
        15 12 4 4</rect></_>
    <_>
      <rect>
        15 13 4 3</rect></_>
    <_>
      <rect>
        15 18 4 2</rect></_>
    <_>
      <rect>
        16 1 2 5</rect></_>
    <_>
      <rect>
        16 1 3 5</rect></_>
    <_>
      <rect>
        16 3 2 4</rect></_>
    <_>
      <rect>
        16 5 1 5</rect></_>
    <_>
      <rect>
        16 5 2 3</rect></_>
    <_>
      <rect>
        16 8 2 1</rect></_>
    <_>
      <rect>
        16 12 3 4</rect></_>
    <_>
      <rect>
        17 1 2 5</rect></_>
    <_>
      <rect>
        18 3 5 5</rect></_>
    <_>
      <rect>
        18 4 6 4</rect></_>
    <_>
      <rect>
        18 5 6 3</rect></_>
    <_>
      <rect>
        19 0 3 1</rect></_>
    <_>
      <rect>
        19 2 4 5</rect></_>
    <_>
      <rect>
        19 4 4 4</rect></_>
    <_>
      <rect>
        19 4 5 4</rect></_>
    <_>
      <rect>
        19 5 5 3</rect></_>
    <_>
      <rect>
        19 7 5 2</rect></_>
    <_>
      <rect>
        20 0 4 1</rect></_>
    <_>
      <rect>
        20 5 4 3</rect></_>
    <_>
      <rect>
        20 14 1 3</rect></_>
    <_>
      <rect>
        20 16 1 2</rect></_>
    <_>
      <rect>
        20 25 2 1</rect></_>
    <_>
      <rect>
        20 25 5 1</rect></_>
    <_>
      <rect>
        21 4 4 4</rect></_>
    <_>
      <rect>
        21 5 4 3</rect></_>
    <_>
      <rect>
        21 6 3 6</rect></_>
    <_>
      <rect>
        21 6 4 2</rect></_>
    <_>
      <rect>
        21 14 3 4</rect></_>
    <_>
      <rect>
        22 4 4 2</rect></_>
    <_>
      <rect>
        22 4 4 3</rect></_>
    <_>
      <rect>
        23 6 3 3</rect></_>
    <_>
      <rect>
        24 2 3 2</rect></_>
    <_>
      <rect>
        24 3 3 2</rect></_>
    <_>
      <rect>
        24 3 3 5</rect></_>
    <_>
      <rect>
        24 6 3 4</rect></_>
    <_>
      <rect>
        24 12 3 5</rect></_>
    <_>
      <rect>
        24 13 3 3</rect></_>
    <_>
      <rect>
        25 4 1 5</rect></_>
    <_>
      <rect>
        25 15 2 4</rect></_>
    <_>
      <rect>
        26 12 2 2</rect></_>
    <_>
      <rect>
        27 4 3 7</rect></_>
    <_>
      <rect>
        27 18 3 3</rect></_>
    <_>
      <rect>
        33 6 1 4</rect></_>
    <_>
      <rect>
        33 8 1 2</rect></_>
    <_>
      <rect>
        33 9 1 3</rect></_></features></cascade>
</opencv_storage>
