<?xml version="1.0"?>
<opencv_storage>
<cascade>
  <stageType>BOOST</stageType>
  <featureType>LBP</featureType>
  <height>28</height>
  <width>36</width>
  <stageParams>
    <boostType>GAB</boostType>
    <minHitRate>9.9900001287460327e-01</minHitRate>
    <maxFalseAlarm>5.0000000745058060e-02</maxFalseAlarm>
    <weightTrimRate>9.4999999999999996e-01</weightTrimRate>
    <maxDepth>1</maxDepth>
    <maxWeakCount>100</maxWeakCount></stageParams>
  <featureParams>
    <maxCatCount>256</maxCatCount>
    <featSize>1</featSize></featureParams>
  <stageNum>12</stageNum>
  <stages>
    <!-- stage 0 -->
    <_>
      <maxWeakCount>5</maxWeakCount>
      <stageThreshold>9.3891900777816772e-01</stageThreshold>
      <weakClassifiers>
        <_>
          <internalNodes>
            0 -1 36 1477910856 -749693436 -1876917989 1660998860
            -2130148184 1736966149 39082 1906019210</internalNodes>
          <leafValues>
            -9.4186043739318848e-01 9.1567224264144897e-01</leafValues></_>
        <_>
          <internalNodes>
            0 -1 56 -214894605 -231669772 -262161 -917509 234062846
            -202244097 -1913712689 -1078755329</internalNodes>
          <leafValues>
            -7.4483585357666016e-01 9.6810519695281982e-01</leafValues></_>
        <_>
          <internalNodes>
            0 -1 39 -784222294 -720369653 1224738472 -1919302654
            -536829813 805342747 -2013226834 -243080546</internalNodes>
          <leafValues>
            -8.0377733707427979e-01 8.9788556098937988e-01</leafValues></_>
        <_>
          <internalNodes>
            0 -1 19 16779312 -1861189615 6495 -786988651 -1509948960
            -1446321920 -1404010343 -1953431422</internalNodes>
          <leafValues>
            -8.6668825149536133e-01 8.5068815946578979e-01</leafValues></_>
        <_>
          <internalNodes>
            0 -1 12 402903637 -1322239996 -1610088319 -2118106044
            83888129 -1441758191 -1476253457 -1142775802</internalNodes>
          <leafValues>
            -8.0236124992370605e-01 8.7704157829284668e-01</leafValues></_></weakClassifiers></_>
    <!-- stage 1 -->
    <_>
      <maxWeakCount>5</maxWeakCount>
      <stageThreshold>-4.0379458665847778e-01</stageThreshold>
      <weakClassifiers>
        <_>
          <internalNodes>
            0 -1 55 1932764803 1935867767 -202117141 -202119177
            -449623103 -201981953 -403706138 -470364433</internalNodes>
          <leafValues>
            -6.0493826866149902e-01 9.5784145593643188e-01</leafValues></_>
        <_>
          <internalNodes>
            0 -1 61 -67108934 -201328645 1022263018 -414187793
            1701900755 1911910864 2012969755 1945499647</internalNodes>
          <leafValues>
            -7.2821760177612305e-01 9.1242313385009766e-01</leafValues></_>
        <_>
          <internalNodes>
            0 -1 27 1373229774 1347665921 536903785 1997209611
            -1039548152 276856836 -2139430591 1888473998</internalNodes>
          <leafValues>
            -8.2809668779373169e-01 8.7058991193771362e-01</leafValues></_>
        <_>
          <internalNodes>
            0 -1 50 -1559128857 -973057691 -1073692415 -721125247 33416
            1073758344 -1073298741 -205282645</internalNodes>
          <leafValues>
            -7.6741224527359009e-01 8.8902121782302856e-01</leafValues></_>
        <_>
          <internalNodes>
            0 -1 8 1833593095 -735903487 42025987 -1912585644 167788837
            35655680 277414073 -75363954</internalNodes>
          <leafValues>
            -8.1445711851119995e-01 8.4947580099105835e-01</leafValues></_></weakClassifiers></_>
    <!-- stage 2 -->
    <_>
      <maxWeakCount>5</maxWeakCount>
      <stageThreshold>-4.6396473050117493e-01</stageThreshold>
      <weakClassifiers>
        <_>
          <internalNodes>
            0 -1 44 -923693901 -814232329 83298554 -268972318 -537424130
            -545783817 -822114053 -871251341</internalNodes>
          <leafValues>
            -6.4444446563720703e-01 9.4186043739318848e-01</leafValues></_>
        <_>
          <internalNodes>
            0 -1 54 226675856 -1627357056 1879114777 -209874299
            -1979413119 572538944 138 -91125439</internalNodes>
          <leafValues>
            -8.5257816314697266e-01 8.7387984991073608e-01</leafValues></_>
        <_>
          <internalNodes>
            0 -1 37 -16793873 2147483647 -269570354 -1358954517
            -134742021 1946025983 -269488402 -402653201</internalNodes>
          <leafValues>
            -7.3480558395385742e-01 9.0245366096496582e-01</leafValues></_>
        <_>
          <internalNodes>
            0 -1 22 62765966 -33898940 2080356329 -50348544 939524067
            -65780 8257394 -17825920</internalNodes>
          <leafValues>
            -7.9871743917465210e-01 8.5318237543106079e-01</leafValues></_>
        <_>
          <internalNodes>
            0 -1 10 2096606958 1431699453 -98305 -822149122 2147459752
            -1 -1078055414 -9048301</internalNodes>
          <leafValues>
            -7.4682945013046265e-01 8.4012287855148315e-01</leafValues></_></weakClassifiers></_>
    <!-- stage 3 -->
    <_>
      <maxWeakCount>5</maxWeakCount>
      <stageThreshold>9.9548763036727905e-01</stageThreshold>
      <weakClassifiers>
        <_>
          <internalNodes>
            0 -1 45 -855667622 -302007202 -285242147 -268964618
            -805307201 -537395341 234851583 -13371789</internalNodes>
          <leafValues>
            -6.1403506994247437e-01 9.4004994630813599e-01</leafValues></_>
        <_>
          <internalNodes>
            0 -1 35 -230178041 1511079941 1644265497 -1052766208
            -2146914167 -2147418112 71344129 1905803270</internalNodes>
          <leafValues>
            -7.6562911272048950e-01 8.9220714569091797e-01</leafValues></_>
        <_>
          <internalNodes>
            0 -1 15 1628492336 -801062831 558694417 1988296769
            1480820911 134218408 570526090 -1397161951</internalNodes>
          <leafValues>
            -8.7426066398620605e-01 8.1832993030548096e-01</leafValues></_>
        <_>
          <internalNodes>
            0 -1 24 -1677454956 -805306367 4491 -787414783 -2122315640
            -1953988352 -1979709270 -1465376616</internalNodes>
          <leafValues>
            -7.5653648376464844e-01 8.4489661455154419e-01</leafValues></_>
        <_>
          <internalNodes>
            0 -1 33 -802963069 17154177 2621441 -787808253 1073856522
            8421376 33588811 -1056860029</internalNodes>
          <leafValues>
            -7.6777780055999756e-01 8.5043084621429443e-01</leafValues></_></weakClassifiers></_>
    <!-- stage 4 -->
    <_>
      <maxWeakCount>6</maxWeakCount>
      <stageThreshold>2.1571001410484314e-01</stageThreshold>
      <weakClassifiers>
        <_>
          <internalNodes>
            0 -1 21 821836349 1073688378 536821759 1073692671
            -1073922052 1073496060 -49297 -1345581396</internalNodes>
          <leafValues>
            -6.0550457239151001e-01 9.2568123340606689e-01</leafValues></_>
        <_>
          <internalNodes>
            0 -1 6 1162039365 -892207022 33169 -1463599097 -1056947664
            -1232076798 -805273327 -357449417</internalNodes>
          <leafValues>
            -7.7644985914230347e-01 8.6930352449417114e-01</leafValues></_>
        <_>
          <internalNodes>
            0 -1 23 1081718651 871219196 2013265791 1073708610
            1610612731 1064239047 2139094936 -357594624</internalNodes>
          <leafValues>
            -7.1922457218170166e-01 9.0876698493957520e-01</leafValues></_>
        <_>
          <internalNodes>
            0 -1 30 5432 2105540608 285284401 1360073152 -1979676484
            -1976041248 -2147479925 167772160</internalNodes>
          <leafValues>
            -8.5389965772628784e-01 8.1173390150070190e-01</leafValues></_>
        <_>
          <internalNodes>
            0 -1 17 285212880 -1122496239 -2063592303 -1660878848
            134383752 -1442279424 671090841 -1626861432</internalNodes>
          <leafValues>
            -7.7195936441421509e-01 8.2320433855056763e-01</leafValues></_>
        <_>
          <internalNodes>
            0 -1 62 -662523002 -1316486912 -2130050533 -1574680894
            33751126 -2012596061 1208484011 -1549997938</internalNodes>
          <leafValues>
            -8.4905517101287842e-01 7.6580888032913208e-01</leafValues></_></weakClassifiers></_>
    <!-- stage 5 -->
    <_>
      <maxWeakCount>6</maxWeakCount>
      <stageThreshold>3.9851200580596924e-01</stageThreshold>
      <weakClassifiers>
        <_>
          <internalNodes>
            0 -1 60 -58720626 -2261037 -17 -134217733 -134221834 -134147
            -4433 1895297375</internalNodes>
          <leafValues>
            -5.6828194856643677e-01 9.3011647462844849e-01</leafValues></_>
        <_>
          <internalNodes>
            0 -1 49 -403574937 -143591567 -4098 -720905 -285225236
            -168427529 -269512756 -276856841</internalNodes>
          <leafValues>
            -6.3664472103118896e-01 8.9774805307388306e-01</leafValues></_>
        <_>
          <internalNodes>
            0 -1 7 2135010005 1980104319 710159102 -11424001 -2752561
            -15335425 -338313473 -296374537</internalNodes>
          <leafValues>
            -7.1884000301361084e-01 8.4120786190032959e-01</leafValues></_>
        <_>
          <internalNodes>
            0 -1 3 1359020403 -922599387 1409290261 -2063597567
            1612746913 -766509056 -1878849144 -1081669629</internalNodes>
          <leafValues>
            -7.4250751733779907e-01 7.9173737764358521e-01</leafValues></_>
        <_>
          <internalNodes>
            0 -1 68 -632956798 1208287249 4104 1078165515 -1073643501
            67141632 -2097084382 -213131105</internalNodes>
          <leafValues>
            -7.5303822755813599e-01 7.9575532674789429e-01</leafValues></_>
        <_>
          <internalNodes>
            0 -1 46 -796588807 -1727987647 16777220 -1337949439
            -2147422047 8519842 -1836941158 -675028421</internalNodes>
          <leafValues>
            -7.7486675977706909e-01 7.7751576900482178e-01</leafValues></_></weakClassifiers></_>
    <!-- stage 6 -->
    <_>
      <maxWeakCount>6</maxWeakCount>
      <stageThreshold>3.4113511443138123e-01</stageThreshold>
      <weakClassifiers>
        <_>
          <internalNodes>
            0 -1 64 -152112146 -68497790 -2 -808453490 1996486655 -18
            1945597949 -36702225</internalNodes>
          <leafValues>
            -5.3043478727340698e-01 9.2660552263259888e-01</leafValues></_>
        <_>
          <internalNodes>
            0 -1 66 -364387326 838893889 537395329 -787381760
            -2147311606 -1878970238 -931020544 1343701507</internalNodes>
          <leafValues>
            -7.7802598476409912e-01 8.3361870050430298e-01</leafValues></_>
        <_>
          <internalNodes>
            0 -1 48 1999736061 1999896575 -331793 -135008257 -302526481
            -786433 -8917785 -80621569</internalNodes>
          <leafValues>
            -6.9238704442977905e-01 8.5851222276687622e-01</leafValues></_>
        <_>
          <internalNodes>
            0 -1 43 -104691117 -1990180864 268500994 268779778 269533888
            -1073704696 1342867595 -353123702</internalNodes>
          <leafValues>
            -7.3968970775604248e-01 8.1913352012634277e-01</leafValues></_>
        <_>
          <internalNodes>
            0 -1 2 2033696836 -2121269165 268451856 419434752 -929251068
            1778548736 -1056546431 999010347</internalNodes>
          <leafValues>
            -8.2439649105072021e-01 7.2277563810348511e-01</leafValues></_>
        <_>
          <internalNodes>
            0 -1 67 -151018737 -168296985 -52428812 -252314123
            -318767811 -134217729 -1225264062 -1001918233</internalNodes>
          <leafValues>
            -6.4904254674911499e-01 9.1074293851852417e-01</leafValues></_></weakClassifiers></_>
    <!-- stage 7 -->
    <_>
      <maxWeakCount>6</maxWeakCount>
      <stageThreshold>2.5180849432945251e-01</stageThreshold>
      <weakClassifiers>
        <_>
          <internalNodes>
            0 -1 29 -201329678 838070783 -1064978 -606076929 -1342179337
            838152693 -35 1945468927</internalNodes>
          <leafValues>
            -6.9060772657394409e-01 8.9262819290161133e-01</leafValues></_>
        <_>
          <internalNodes>
            0 -1 53 -16148205 285392902 -1928855514 17629704 -1602019129
            1343225888 150997129 -586956664</internalNodes>
          <leafValues>
            -7.1223729848861694e-01 8.8308161497116089e-01</leafValues></_>
        <_>
          <internalNodes>
            0 -1 14 1832928016 -913764207 1904279595 -1392377694
            -1509940847 -359137149 -1610511157 -544206453</internalNodes>
          <leafValues>
            -7.4638414382934570e-01 8.0696952342987061e-01</leafValues></_>
        <_>
          <internalNodes>
            0 -1 40 -85 -134283265 -336613457 1877983055 -671088646
            1912469494 -1056850 2146418687</internalNodes>
          <leafValues>
            -6.7391657829284668e-01 8.7227976322174072e-01</leafValues></_>
        <_>
          <internalNodes>
            0 -1 32 -263729149 -717110523 1627455777 84611105
            -2147351994 268574848 -1031602104 -1069547450</internalNodes>
          <leafValues>
            -7.9866826534271240e-01 7.4838805198669434e-01</leafValues></_>
        <_>
          <internalNodes>
            0 -1 58 -1684868753 192954688 75501651 -2054389752 17240267
            -2013264232 671615049 -838602616</internalNodes>
          <leafValues>
            -7.7298384904861450e-01 7.5246489048004150e-01</leafValues></_></weakClassifiers></_>
    <!-- stage 8 -->
    <_>
      <maxWeakCount>6</maxWeakCount>
      <stageThreshold>4.4771644473075867e-01</stageThreshold>
      <weakClassifiers>
        <_>
          <internalNodes>
            0 -1 13 1920563197 -65537 2146336767 787361534 2004318207
            2013233151 2139062271 2130149117</internalNodes>
          <leafValues>
            -5.7547169923782349e-01 9.1290056705474854e-01</leafValues></_>
        <_>
          <internalNodes>
            0 -1 11 1299193340 -4227340 -1073954947 -1073938951
            1010588852 -1073954947 -246296 -1674572796</internalNodes>
          <leafValues>
            -5.9972751140594482e-01 9.0336519479751587e-01</leafValues></_>
        <_>
          <internalNodes>
            0 -1 51 1676928895 -202113025 -134747162 -135004161
            1173573605 -67633153 -370184209 -84676627</internalNodes>
          <leafValues>
            -7.2536963224411011e-01 8.4537935256958008e-01</leafValues></_>
        <_>
          <internalNodes>
            0 -1 41 -1032747296 -1014906841 403227201 -717225595
            -1073360485 1887506444 -2147448830 -901005301</internalNodes>
          <leafValues>
            -8.1362968683242798e-01 7.6047939062118530e-01</leafValues></_>
        <_>
          <internalNodes>
            0 -1 63 -1872265210 -790134242 198865 -731905398 -867450853
            -2079358975 -2111062012 -1065236981</internalNodes>
          <leafValues>
            -7.4410045146942139e-01 7.6548993587493896e-01</leafValues></_>
        <_>
          <internalNodes>
            0 -1 0 -410531861 1185672959 -1376866652 -389615635
            2004186885 1727528959 1475835852 -461375497</internalNodes>
          <leafValues>
            -6.2787133455276489e-01 9.1455042362213135e-01</leafValues></_></weakClassifiers></_>
    <!-- stage 9 -->
    <_>
      <maxWeakCount>6</maxWeakCount>
      <stageThreshold>3.7655866146087646e-01</stageThreshold>
      <weakClassifiers>
        <_>
          <internalNodes>
            0 -1 16 -285278226 -33947922 -1049618 -536870917 1995764472
            1953822071 931100607 930611071</internalNodes>
          <leafValues>
            -6.3440859317779541e-01 8.9058727025985718e-01</leafValues></_>
        <_>
          <internalNodes>
            0 -1 47 536546107 -188436 804654067 1071726587 -151558
            -720899 1073549235 -3137551</internalNodes>
          <leafValues>
            -6.1392658948898315e-01 8.8149547576904297e-01</leafValues></_>
        <_>
          <internalNodes>
            0 -1 25 -981350951 352894976 -2147469160 1464074317
            -1593059314 1275070468 -2122316408 2071495321</internalNodes>
          <leafValues>
            -7.2146719694137573e-01 7.9384773969650269e-01</leafValues></_>
        <_>
          <internalNodes>
            0 -1 18 1099678339 1124679715 4195329 -1878507255 1088553127
            -2145320959 -2147434045 -805208053</internalNodes>
          <leafValues>
            -6.8778985738754272e-01 8.2120198011398315e-01</leafValues></_>
        <_>
          <internalNodes>
            0 -1 42 550508884 -1849683945 17060305 386466176 -1962901287
            -645890016 -1988091889 445121550</internalNodes>
          <leafValues>
            -7.6508629322052002e-01 7.4684888124465942e-01</leafValues></_>
        <_>
          <internalNodes>
            0 -1 65 -1001918417 -264163317 -2147483648 -1341062646
            -2130669568 2129936 -2147383150 -1073614517</internalNodes>
          <leafValues>
            -7.3017263412475586e-01 8.0349284410476685e-01</leafValues></_></weakClassifiers></_>
    <!-- stage 10 -->
    <_>
      <maxWeakCount>6</maxWeakCount>
      <stageThreshold>2.9819419980049133e-01</stageThreshold>
      <weakClassifiers>
        <_>
          <internalNodes>
            0 -1 34 -20822 -1130547 -1073992024 -3 -65 -1241661441
            -32899 1979580415</internalNodes>
          <leafValues>
            -6.4516127109527588e-01 8.9219629764556885e-01</leafValues></_>
        <_>
          <internalNodes>
            0 -1 4 -785951149 1272217984 -2147480463 -335535743
            286474257 -612368383 -1543499046 -414481663</internalNodes>
          <leafValues>
            -7.2221606969833374e-01 8.3625888824462891e-01</leafValues></_>
        <_>
          <internalNodes>
            0 -1 20 -2147483297 1064980 98745 1535180851 6328479
            1275138219 -1837084622 -1165492224</internalNodes>
          <leafValues>
            -7.2313690185546875e-01 8.2406854629516602e-01</leafValues></_>
        <_>
          <internalNodes>
            0 -1 26 856687316 185598080 12891 -1748156408 138444991
            -374798334 425197817 168298664</internalNodes>
          <leafValues>
            -7.8240275382995605e-01 7.4155026674270630e-01</leafValues></_>
        <_>
          <internalNodes>
            0 -1 59 1075306741 -1068416880 268500993 1073942771
            537428034 -2105016320 -1073184622 -1867996886</internalNodes>
          <leafValues>
            -6.9855386018753052e-01 7.8699630498886108e-01</leafValues></_>
        <_>
          <internalNodes>
            0 -1 5 2233721 2147420148 -4390977 -1767409803 1673109502
            -4259843 -1086963843 -1440071568</internalNodes>
          <leafValues>
            -7.1171766519546509e-01 8.4151792526245117e-01</leafValues></_></weakClassifiers></_>
    <!-- stage 11 -->
    <_>
      <maxWeakCount>7</maxWeakCount>
      <stageThreshold>9.5842844247817993e-01</stageThreshold>
      <weakClassifiers>
        <_>
          <internalNodes>
            0 -1 9 -26300530 7667709 -2 1174372284 -271782104 -36
            -563286528 -142610687</internalNodes>
          <leafValues>
            -6.0869562625885010e-01 8.8433736562728882e-01</leafValues></_>
        <_>
          <internalNodes>
            0 -1 28 203461396 -1358683928 79822865 860553237 -1576957777
            142188563 35717579 -1350465536</internalNodes>
          <leafValues>
            -7.3261576890945435e-01 8.0960351228713989e-01</leafValues></_>
        <_>
          <internalNodes>
            0 -1 57 -1073698269 -1325400063 270012425 -653197301
            -1795071849 -1073739767 1249960841 -568131005</internalNodes>
          <leafValues>
            -8.0570167303085327e-01 7.1773988008499146e-01</leafValues></_>
        <_>
          <internalNodes>
            0 -1 38 -1856903713 1360248850 17220609 -817461116
            -1064959984 268500992 1073778691 -23084865</internalNodes>
          <leafValues>
            -6.8518429994583130e-01 8.2864665985107422e-01</leafValues></_>
        <_>
          <internalNodes>
            0 -1 1 -293876049 1693449967 -269521274 -534188310
            1467441015 1694269437 2004834135 -145752577</internalNodes>
          <leafValues>
            -6.8560725450515747e-01 8.1221079826354980e-01</leafValues></_>
        <_>
          <internalNodes>
            0 -1 52 -1942825481 -611319664 538353863 134824069 8947259
            142836104 4768281 751436033</internalNodes>
          <leafValues>
            -8.3271843194961548e-01 6.9446182250976563e-01</leafValues></_>
        <_>
          <internalNodes>
            0 -1 31 1897115939 33554432 -1069547264 -939491325
            1073872898 259 1074758272 -2146717437</internalNodes>
          <leafValues>
            -7.2291076183319092e-01 7.7609771490097046e-01</leafValues></_></weakClassifiers></_></stages>
  <features>
    <_>
      <rect>
        0 7 1 4</rect></_>
    <_>
      <rect>
        0 10 1 2</rect></_>
    <_>
      <rect>
        1 1 4 6</rect></_>
    <_>
      <rect>
        1 4 8 4</rect></_>
    <_>
      <rect>
        2 5 5 3</rect></_>
    <_>
      <rect>
        3 0 3 1</rect></_>
    <_>
      <rect>
        3 2 5 5</rect></_>
    <_>
      <rect>
        3 2 10 5</rect></_>
    <_>
      <rect>
        3 5 4 2</rect></_>
    <_>
      <rect>
        3 6 3 6</rect></_>
    <_>
      <rect>
        3 7 3 7</rect></_>
    <_>
      <rect>
        3 25 6 1</rect></_>
    <_>
      <rect>
        4 4 5 5</rect></_>
    <_>
      <rect>
        4 6 5 2</rect></_>
    <_>
      <rect>
        4 8 6 2</rect></_>
    <_>
      <rect>
        5 6 10 3</rect></_>
    <_>
      <rect>
        6 12 3 4</rect></_>
    <_>
      <rect>
        6 25 5 1</rect></_>
    <_>
      <rect>
        8 2 2 6</rect></_>
    <_>
      <rect>
        8 8 7 2</rect></_>
    <_>
      <rect>
        8 10 8 2</rect></_>
    <_>
      <rect>
        10 6 5 2</rect></_>
    <_>
      <rect>
        10 6 8 5</rect></_>
    <_>
      <rect>
        10 9 8 3</rect></_>
    <_>
      <rect>
        10 25 8 1</rect></_>
    <_>
      <rect>
        11 22 4 2</rect></_>
    <_>
      <rect>
        11 25 8 1</rect></_>
    <_>
      <rect>
        12 6 3 6</rect></_>
    <_>
      <rect>
        12 8 8 2</rect></_>
    <_>
      <rect>
        12 12 3 5</rect></_>
    <_>
      <rect>
        13 1 5 1</rect></_>
    <_>
      <rect>
        13 3 1 5</rect></_>
    <_>
      <rect>
        13 3 2 6</rect></_>
    <_>
      <rect>
        14 4 2 5</rect></_>
    <_>
      <rect>
        14 16 5 4</rect></_>
    <_>
      <rect>
        15 4 4 4</rect></_>
    <_>
      <rect>
        15 5 4 6</rect></_>
    <_>
      <rect>
        15 11 4 4</rect></_>
    <_>
      <rect>
        15 12 3 5</rect></_>
    <_>
      <rect>
        15 12 4 4</rect></_>
    <_>
      <rect>
        15 13 4 4</rect></_>
    <_>
      <rect>
        16 0 2 5</rect></_>
    <_>
      <rect>
        16 0 5 1</rect></_>
    <_>
      <rect>
        16 1 2 5</rect></_>
    <_>
      <rect>
        16 3 2 4</rect></_>
    <_>
      <rect>
        16 4 2 4</rect></_>
    <_>
      <rect>
        16 5 2 3</rect></_>
    <_>
      <rect>
        16 6 2 2</rect></_>
    <_>
      <rect>
        18 0 5 6</rect></_>
    <_>
      <rect>
        18 5 5 4</rect></_>
    <_>
      <rect>
        19 3 4 5</rect></_>
    <_>
      <rect>
        19 4 4 4</rect></_>
    <_>
      <rect>
        19 4 5 4</rect></_>
    <_>
      <rect>
        19 5 5 3</rect></_>
    <_>
      <rect>
        19 6 5 3</rect></_>
    <_>
      <rect>
        20 4 3 4</rect></_>
    <_>
      <rect>
        20 4 4 4</rect></_>
    <_>
      <rect>
        21 0 2 6</rect></_>
    <_>
      <rect>
        21 4 4 4</rect></_>
    <_>
      <rect>
        21 5 4 1</rect></_>
    <_>
      <rect>
        21 6 3 6</rect></_>
    <_>
      <rect>
        21 14 3 4</rect></_>
    <_>
      <rect>
        23 2 4 6</rect></_>
    <_>
      <rect>
        23 3 2 6</rect></_>
    <_>
      <rect>
        24 4 3 5</rect></_>
    <_>
      <rect>
        25 4 1 5</rect></_>
    <_>
      <rect>
        28 5 2 5</rect></_>
    <_>
      <rect>
        29 4 2 5</rect></_>
    <_>
      <rect>
        33 13 1 2</rect></_></features></cascade>
</opencv_storage>
